solver_type L2R_L2LOSS_SVC
nr_class 2
label 1 0
nr_feature 4216
bias 1
w
0.05161563087148562 
-2.453490787207742e-05 
0.01521959648209739 
0.03608523768212987 
0.006461135697857703 
0.008229861088592381 
-0.1044844578344633 
0.03897993499694179 
0.06002031206083279 
-0.02165839367057639 
-0.02416855726506143 
-0.02745455836919803 
-0.04385063498430518 
-0.09633449615685459 
-0.0181191124662885 
-0.05702710230338945 
-0.01271657223705349 
0.007156283372208642 
0.02727169309589236 
-0.004000333516879053 
0.02380541594863805 
0.04082353311610483 
-0.05096673715519383 
0.0931767018263796 
-0.08628793005422147 
0.03105053351025841 
0.07915535573226246 
0.06652600646726993 
0.03774243792966741 
0.01175612912429025 
-0.04341496332310955 
0.07055967708258083 
0.005100102803072054 
-0.07792555640559896 
0.00884863549665417 
0.01111220229358664 
0.003592351818990868 
0.02370305773037402 
-0.05144482179909163 
-0.01128719775269293 
-0.08251087391449187 
-0.09840139765435518 
-0.02573754008530543 
0.003703270295536326 
0.02089856481297192 
0.06322074414101302 
-0.08914809565929685 
0.05625425517985554 
0.002443789357722 
-0.03957572110570187 
-0.01750780785510922 
-0.01733801985510193 
0.08139558607097866 
0.05828086479498613 
0.1440923359174594 
-0.003799631217537787 
0.03535333590373672 
0.01056681606093277 
0.1272764722300672 
0.08263629665193693 
0.01157120264434431 
-0.1029409247480023 
0.03607726539264999 
-0.05196191948171068 
-0.03931706184538375 
-0.04728816032654976 
0.006474850627867941 
0.01631870166075352 
-0.06388250079496062 
-0.04159377547078565 
-0.03599633941566222 
0.002709827331791693 
-0.09456072587467765 
-0.03057796440102976 
0.02263083904969716 
0.01013178545753819 
0.05089111377191838 
-0.03359653485256951 
-0.01649129054242245 
-0.09048572445082002 
0.01785924553876057 
-0.05381963714712301 
0.003744320003980665 
0.04219686985559646 
-0.007936520165061935 
0.1219845091393739 
-0.04759948411230643 
0.004519367780688181 
-0.05757694155704352 
0.1279623376559908 
0.08440016611394703 
-0.04990281706807448 
-0.1514421144013967 
0.05790985245824625 
-0.005855763165027038 
-0.05839453988076158 
-0.0749760996858797 
-0.06591912865410583 
-0.0475953472220768 
-0.1357954117336664 
-0.08718242782298019 
-0.08836233064824316 
0.03736269237077816 
-0.1431956914649939 
-0.05003425505958932 
0.02559435631124702 
-0.02336573407648841 
0.03856135209501298 
-0.09749029355685618 
0.02702493439327454 
-0.1079397018511912 
0.005165894985353029 
-0.07589876977376851 
0.008906257682810496 
0.04677240472574015 
-0.0008350023650367053 
0.1520939582396082 
-0.1227954423502559 
-0.002178872397923136 
-0.1231614203975363 
0.1183501559811154 
0.1196520846142493 
-0.1161272357974664 
-0.1746397587548829 
0.05705469292559734 
-0.03143826905493038 
-0.1393464466925725 
-0.03723996141394026 
-0.02618726523975504 
0.03477193212810104 
-0.06529148750097009 
-0.06559993384793299 
-0.06679207931714254 
0.01305766871158255 
-0.130252057841228 
-0.03085498464242351 
0.04149465546282979 
-0.07328681279526586 
-0.001174532695617179 
0.0253837720707164 
0.07401568628733399 
-0.1428498699424372 
0.02881590805533261 
-0.06433594417297585 
-0.05073623182717656 
0.07674617638087353 
0.004270429329831002 
0.1639641228631628 
0.01686294404326422 
0.03807613877370805 
-0.1296059731352716 
0.1171551154978286 
0.128312480439083 
-0.1240680089091688 
-0.0817744420308253 
-0.005850995238380844 
-0.07225535982858297 
-0.08207935161653421 
-0.01408194651986059 
-0.06689956530965069 
0.003402679481854497 
-0.0669245518567507 
-0.06122339479945087 
-0.0562722967298294 
0.02869694876098549 
-0.07342582534744985 
0.01053689753315525 
0.03479526987944907 
-0.0300676225997939 
0.0132302942956753 
-0.01778102318074611 
0.04773022648261392 
-0.1362809240353709 
-0.0005487411462931535 
-0.08995948493727289 
0.04201158021427379 
0.0960942915287868 
0.03520056586558618 
0.1330127690550551 
-0.03119563571644065 
0.0413027232811921 
-0.06216198936114358 
0.0785693382126687 
0.1544080469513024 
-0.1528144520105795 
-0.002967572107358868 
-0.04334438611657978 
-0.0394966066109716 
-0.04827843229713395 
-0.01255307230437592 
-0.09607900643276966 
-0.02482848116534532 
-0.07999937838183911 
-0.005925049479252653 
-0.04552865301907422 
0.03355034300068004 
-0.0121576635718554 
-0.04270646669401633 
-0.02625904963804222 
0.0009769458250336212 
0.0427444642100806 
-0.05101283751514046 
-0.01542974530171775 
-0.07289681100248187 
-0.0209257620874061 
-0.01657072249798559 
0.01040039136725372 
-0.01539560755489425 
0.01159425959939725 
0.1464699806150839 
-0.02017714880572296 
0.04390476012215205 
-0.02837820359185891 
0.04957002081949195 
0.1121212026653052 
-0.1277369604329862 
0.01833486662067369 
0.006553483326546135 
0.0527367077077962 
-0.06808437141980046 
-0.01084770132528438 
0.02219815450462797 
0.05314719560118775 
0.00494362359140184 
0.07514558844166863 
0.03029757087077839 
0.05767019144132438 
-0.04809130749532372 
-0.01135511968066862 
-0.01945166944753376 
-0.04953366941246773 
-0.09206723353655366 
-0.03589977237770846 
-0.1071507001178215 
-0.07251625509176481 
0.03022005746580086 
0.07511436021119614 
-0.05137938302735993 
0.001380080979567234 
-0.0005862172663677599 
0.1045130885835096 
0.01845294281621058 
0.01739013709587462 
0.04008785952390498 
0.03491144849050336 
0.09732656184363897 
-0.05348033389176182 
0.03211334986563986 
0.06172294325697616 
-0.01500744077295884 
-0.06077483788514927 
-0.01588723702393856 
-0.01176241058571397 
-0.01405946584894372 
-0.05725323337323333 
0.0006516404920582398 
-0.01517548079594094 
0.06274050097996067 
-0.020822999130863 
0.04609762018040503 
-0.06704841629021026 
-0.06668010204565891 
0.002393044296361094 
-0.00988314427925403 
-0.0302112957926354 
-0.03409705159173701 
0.0685411420467727 
0.03353535865999626 
0.007994792814616899 
0.01243387210023926 
-0.09386899040209984 
0.1217751227744813 
-0.02710005970649962 
-0.02354791522565738 
-0.02203787970373862 
0.08329273862254929 
0.01236610135732058 
0.02698943475508216 
-0.08600815394633567 
0.02310199218326943 
0.009973079875995217 
0.01295674664667716 
-0.03639022309610666 
-0.06097384486889201 
-0.05937034673783739 
-0.02128120054107474 
-0.02668723355760724 
-0.0453194313700548 
0.06314350086183795 
-0.03864064874817739 
0.08311506907593703 
0.05516584683372035 
0.009209611339708905 
-0.01831618082435452 
-0.05334826912550739 
-0.01581416311453034 
-0.04120070784238452 
0.0379128244435032 
0.03199554353047949 
0.09959595392991658 
0.1192190392542929 
-0.01582165778471593 
0.07603818536687963 
-0.0456570448845707 
-0.06252042082496666 
-0.04011009345621439 
0.1167243939275297 
0.02911255442313877 
0.04637939632710602 
-0.09762790058897783 
0.01456168763445763 
-0.02994990497041074 
0.06007194732664486 
-0.008777398442219463 
0.0346024167201242 
-0.05926167033181742 
-0.05397533143202991 
-0.02247025512612046 
-0.1244799015562019 
0.07330355494819202 
-0.04521022209316761 
0.09394880332355071 
0.06314671855125663 
0.000749159287889694 
0.02903181020256841 
-0.003915338713414749 
0.05590868265921375 
-0.06144838868101933 
0.03338591451930393 
-0.006906749549229639 
0.1287310817008987 
0.07064864834310951 
0.04062328266417579 
0.108298606501186 
0.005719211717316066 
-0.0484435129392307 
-0.08433330853446173 
0.1352845049308987 
0.05157434948961027 
0.04055725977336613 
-0.1106382761286995 
0.04109660056975749 
-0.05249054819568322 
-0.005548662898635757 
0.007675815577956248 
-0.02855412312339953 
-0.02106023578673882 
0.02231905676132867 
0.1164155315174856 
-0.0845069433856955 
0.004031782224370796 
-0.07167924325347438 
0.1348768082459195 
0.07468917199331182 
0.0199304117791214 
-0.06143296921352616 
-0.05347634500613395 
0.1228528188701417 
-0.1007091519903516 
-0.03104505262754506 
-0.04684320134467931 
0.1247822707373099 
0.1315518717819463 
0.03923927927800071 
0.08278128124023539 
0.0153864688163926 
0.09871070742379796 
-0.1085545623448054 
0.144738906508929 
0.0785504895283495 
0.003186307806281944 
-0.08222162129903614 
-0.02314746877597429 
-0.06975513395317896 
0.01236205744997621 
0.01026215904750207 
-0.05263467048542364 
-0.02552865011746792 
0.03528153465784616 
0.05172075080671798 
-0.01284243143471491 
-0.04010712174951431 
-0.1086500341513964 
0.1446759715284521 
-0.01841499206962735 
-0.0300011377265529 
0.007033906444010634 
0.06286574402618805 
0.1872813507918727 
-0.08535154256008441 
-0.0435753284861127 
-0.08289698132589492 
0.08991473152337631 
0.03145105235311194 
-0.04238497894575349 
0.1018861797480661 
0.0665806355600172 
0.1870723697420222 
-0.05333135800974143 
0.08828955304205462 
0.1207257852786383 
-0.07094070695502716 
-0.01800018499251681 
-0.03700194352892551 
-0.04053991341807197 
-0.003021560586990611 
-0.01048148722109958 
-0.005376613004734893 
0.02289068393343503 
-0.005682303932161363 
0.02053228261088933 
0.02398366357283246 
0.03428181375622529 
-0.08604955056077598 
-0.01470331382999514 
0.01764981328752657 
-0.02510505320261814 
-0.02163111464071428 
0.03678589830592701 
0.1852217276054759 
-0.04528870848141021 
0.03994498478477841 
-0.1043831617076805 
-0.053203801189495 
0.03284871079397331 
0.0536674140538297 
0.2063346145992894 
0.0357936711829136 
0.1425895388535166 
0.04359883296515847 
0.05201089771333375 
0.1833942817665197 
-0.1249865118887082 
0.0768188993637782 
0.0337526776412707 
-0.06621632375105481 
0.06044912351611757 
-0.0234236255106945 
-0.06623794449967291 
0.01026445277740104 
-0.006155393886971995 
0.06433781173232993 
0.02400487686889546 
0.08363577379234731 
-0.06004452877934015 
-0.1106414849314447 
0.04292837838394707 
-0.0141146481662881 
-0.06293929602652763 
-0.03432067291797763 
0.09995874488439142 
0.0117093803368004 
0.02194722795691662 
-0.04003271656085555 
-0.01199636986805123 
0.04472764575778655 
-0.0554955329797128 
0.1407029416463652 
0.004809254935424827 
0.1181114043475011 
0.08902511183304287 
0.03945943206218679 
0.159996994173578 
-0.1173984841131089 
0.06492553578997373 
0.09475925897036461 
-0.00594292018671815 
-0.06463171988686636 
-0.04662415793600583 
-0.03998745173138975 
0.06647491442227255 
-0.03971423867686522 
-0.01820260131974872 
-0.03471076412288798 
0.06747108114874489 
-0.112262985804185 
-0.0339016922936201 
0.04327529176699502 
-0.004362964094014585 
-0.1485230350114903 
-0.1031680905300828 
-0.03265354215469479 
-0.0386812810524831 
0.06408081564881593 
0.003074708521577468 
-0.06555775200612939 
0.02737133321111787 
-0.02890142996417024 
0.03132464468924197 
-0.07947829143041936 
0.02471425980548832 
0.04333433895006171 
-0.01112010315663032 
0.08892424959053361 
-0.1010371397620432 
0.03264345896298039 
0.07258954021634459 
-0.04317003384229837 
-0.01487366618881602 
0.03080079231640986 
-0.1079687948171867 
0.02726654642769528 
-0.002401236316130784 
-0.02623884656087269 
-0.01412439352633648 
0.1008416138820676 
-0.06626239120930037 
-0.06661910794356728 
-0.107905568502005 
0.00020497103918288 
-0.03770943984822722 
-0.05630592923041031 
-0.03991332131945721 
-0.006380564127069131 
0.05623075668250965 
-0.01961772745434949 
-0.006643782486403144 
0.00248333308299872 
-0.04240752659160268 
0.1163460842357752 
-0.0004999501710738 
0.005157067837402713 
0.0420217535090491 
0.1303349337112207 
-0.008275087242704088 
0.04454793233748361 
-0.09444984861969377 
-0.04938844965285309 
-0.0232209066815166 
0.04624932521749388 
-0.007117964260275092 
0.02191249374495742 
0.05570240154469073 
-0.02356632456542311 
-0.01635649765943793 
-0.04244027173376926 
0.02311793656803565 
-0.009818298429370292 
0.005928088850762516 
-0.09820034326359497 
-0.09381860838576081 
-0.0324164966597062 
-0.04216364773584388 
0.000381186545891506 
-0.01006914060518743 
0.001828429876948879 
0.007840576574931882 
0.07409935162796231 
-0.005804498232459402 
-0.04610859501537786 
0.1093246336714037 
-0.01020225448420242 
-0.04142906578316806 
-0.02075132044503572 
0.09929822090601856 
-0.0252517373504032 
0.04710473055341799 
-0.0887198711219567 
0.04434837729831611 
0.007601019529517375 
0.06339322184485426 
0.0141991972218322 
-0.02339290669417648 
-0.01400716475463691 
-0.005854896169352367 
0.03982014183184683 
-0.1102307125528833 
0.04907794128603547 
0.02133731787760431 
0.06690719354753977 
-0.1024095484477735 
-0.07824629331792678 
-0.06386106441150535 
-0.1139101516782744 
-0.06118660808652038 
-0.03848303967776308 
0.03736508124194705 
0.05273135119457469 
0.08277189936556233 
-0.01009283355410368 
-0.04926532388151247 
0.05619878831355852 
-0.04040988294913051 
-0.003011719618008263 
-0.04712978854845665 
0.1208289711508517 
-0.03066600915510935 
0.05022291029612638 
-0.1030706161039152 
0.03465033074294976 
0.07526218793914789 
-0.03449672207900037 
0.01117141753977602 
0.001412099966787828 
0.001887417408174177 
-0.01663798799853777 
0.0262152870623963 
0.008938837331361939 
0.03945931312705093 
0.01064341302499709 
0.1133621844890747 
-0.04840219401309069 
-0.04815713087558666 
-0.02234571888155308 
-0.1216765697687313 
-0.01140714942058271 
0.04371092699725148 
0.008071440758429801 
0.115418453064057 
0.08758356955598183 
0.03866833787505156 
0.04986167491830276 
0.09448202167271406 
-0.07854600354840528 
0.01505649129030777 
0.09477953250316268 
0.1439278636032726 
0.03014722297340008 
0.05587787368164896 
-0.02942898139020035 
0.03908387319820247 
-0.05079453917642927 
0.02366692902848835 
0.01737984904466877 
-0.02816751013593752 
0.0897633217088967 
-0.0717038568737195 
0.06984501573520956 
0.02571283547754107 
0.02423863293294259 
0.04623502675245486 
0.08883479557256731 
-0.07832585938255614 
-0.08665753246767877 
-0.04742237109152359 
-0.09015889309939326 
0.0699611503768129 
0.01819071782393438 
-0.01669833030920501 
0.06393664627763659 
0.08668712461072232 
-0.02694614520185663 
-0.009045325105801756 
0.108266707689931 
-0.07268585256890377 
0.1384207251096029 
0.06822136128106607 
0.03327981758795665 
0.08193004658843495 
-0.003196814860678601 
0.04833845744810523 
0.03816100829796516 
-0.04687290425069341 
-0.03509653094117948 
-0.01457847886300753 
-0.0844680906557774 
-0.04008629203161088 
-0.06075333417728405 
0.03610238212599173 
0.009993840367245627 
0.05165884055723412 
-0.02016557446426555 
0.00216167180388294 
-0.01471665737810025 
-0.02564775824075434 
-0.07302330316711249 
-0.08585886196093626 
0.0578647086043361 
0.005701536840674907 
0.03641497905851699 
-0.02091433092471593 
0.002472424652804769 
0.04469451437014179 
-0.08199124624955459 
0.05574324397039832 
-0.02152474080054071 
0.08330529971212686 
0.03202394446478694 
-0.05777235860639096 
0.1306612374284576 
-0.07991802626383236 
0.0684173755395783 
0.07329570073365989 
-0.1090099438286391 
-0.02143155087459646 
-0.02428552389622098 
-0.01324656489886639 
0.009600102627710876 
-0.05430449740355253 
-0.03087375201857489 
-0.04677082010473001 
0.02608750825705933 
-0.0516401104732747 
0.01718980925419793 
-0.003855558025183915 
-0.0471775965991717 
-0.0345616541464569 
-0.06089239608806935 
0.06118218781204011 
0.04945221512872329 
0.04677088214380744 
-0.04090893431531482 
0.01713141174529199 
-0.01095100731223368 
-0.05242937696940451 
0.1275634727908355 
-0.0777593116338743 
0.01042672011146555 
0.03323412396468642 
-0.03239177114202019 
0.1415676697712524 
-0.1231905168445034 
0.03903581539189748 
0.06593090595090324 
0.0193466922123322 
-0.1326853298882203 
-0.04633733144357492 
-0.05625582820600148 
0.0432703862495873 
-0.07285866947035512 
-0.01344394142901451 
-0.04255857341738117 
-0.01881769909371054 
-0.05650455821643491 
-0.0011974084604933 
0.03879349745879289 
0.03203649451143886 
0.005481738678697431 
-0.1111264979356169 
-0.06527805869765843 
-0.04408447382492139 
0.04961740495713172 
-0.004254130753120827 
-0.04265071467934607 
0.05740277067495678 
-0.02181129802600601 
0.09979864488503491 
-0.05173112301512268 
-0.04314459164712544 
0.008643092709479395 
-0.003264832729603751 
0.1300255674434921 
-0.1096818016810217 
0.007372875482900566 
0.003081295961415592 
-0.06496986289015676 
-0.07220547539214639 
-0.001371459394576219 
-0.0722240448374699 
-0.02558137731036198 
-0.05082658005426093 
-0.05966954881974237 
-0.02849083733428018 
0.06749809289346402 
-0.02213577057054241 
-0.1359775431243851 
-0.06991926387191914 
0.07700555462024676 
0.05278400246492168 
-0.07490567069410381 
-0.1052320364823969 
-0.06900390674498727 
0.02940760458551559 
-0.02827893828883312 
-0.03744607504888043 
0.01530291546781529 
-0.03831131389613199 
0.0967381049589032 
-0.03295972703374699 
-0.06395353974334461 
0.03155957383766875 
0.08562696463904977 
-0.0406336254397735 
0.02678839182074328 
-0.0849534351760617 
-0.03872530876124371 
-0.06026614405106526 
0.04164697712895934 
0.009234782958219227 
-0.02100065074992388 
-0.01526043886029766 
-0.06404720514109646 
-0.005308883868331674 
0.01679823856116742 
0.005041452635669628 
-0.04151939697306409 
-0.03538259258022566 
-0.02365473120987831 
0.02179111327815269 
0.02099067793714452 
-0.01544903829710364 
0.06255465465015186 
-0.02496302075244287 
-0.06103788796854386 
-0.04986488218244933 
0.01753770479700895 
0.04904897287512906 
0.002973144940352935 
0.05632683062569967 
-0.0259992014691007 
0.04368307618693408 
0.03315215765018699 
0.08645468852367469 
-0.02534247635687435 
0.05401938595089457 
-0.08410380493528537 
0.03767855708460715 
-0.004239606900422965 
0.04884134274158784 
0.02091978162834949 
-0.0227521143899706 
0.01312788775747047 
-0.1032315926038615 
0.02429608477554517 
-0.0237526653679138 
0.06102056119195814 
-0.01407657659286525 
-0.009583965177375085 
-0.05525689600158273 
-0.09695803609897721 
-0.005743731819913494 
-0.06440762583014764 
0.08000822651786428 
-0.03676973380075175 
0.08122446258789744 
0.07556610077142346 
0.07485605707307397 
0.06763067720713636 
-0.02459950243611597 
0.1151400872158525 
-0.07217763975813236 
0.1024284465838687 
-0.02518568051066222 
0.1295802118119172 
-0.0312596865127841 
0.08689308985142824 
0.0009360284021213659 
0.08446918659399598 
-0.009170466909032504 
-0.06724058927790356 
-0.0007908604176960583 
0.01894213292610903 
0.02744013066194783 
-0.07742627979307268 
0.05582670259914849 
-0.06449032881825116 
0.02322366769689969 
-0.03262694222377754 
0.1129384318860031 
-0.01639111649452183 
-0.1036771982567127 
-0.07699401229434945 
-0.06053961127753104 
0.05390657062837942 
-0.001352534780217853 
0.04977428713050916 
0.03904313994533117 
0.119292009824667 
0.06582122311619822 
0.01087383379456733 
0.08810998479043801 
-0.06233767482668755 
0.1094126216816438 
-0.005874949579503465 
0.06349743826990145 
-0.0197315965501012 
0.09210970439166807 
0.05933991990412807 
0.00027603090701569 
0.01153552550133886 
0.02168672137371506 
0.03022749188689428 
0.02472838848397178 
-0.008369046367580353 
-0.02062817807619443 
0.06906666692093069 
-0.01355341331669259 
0.05512410285427388 
-0.03768982200480146 
0.05513614353618715 
-0.05249036672271314 
-0.08114419962089005 
-0.008750764897113716 
-0.07054712855378596 
0.0410467857910368 
-0.00428799816038602 
0.07336725512751342 
0.07736619940897992 
0.1349078618726224 
0.05573520107587799 
0.05589383413024561 
0.130521398674527 
0.02465840284078665 
0.159769037657008 
0.06284975755362328 
0.02665222385290918 
0.08882552888939103 
0.1041791110341923 
0.1457141581460026 
-0.05076430877085863 
-0.01174926428626807 
0.0205093510514372 
-0.02616768227354097 
-0.07786658623654877 
-0.01408735028813341 
-0.04426356610314677 
0.0577461546217181 
-0.01957524820093756 
0.02322137659533995 
-0.03633796065736299 
0.02716135316830691 
-0.02167681736235443 
-0.06528239740047208 
-0.04477092231327721 
-0.03994122077409584 
0.03192969343432956 
-0.01267729035574852 
0.05795340559045917 
0.02050894247570494 
0.07643851565158626 
-0.02034860129668106 
-0.04887924442979803 
0.1120630859758654 
0.02443460787806189 
0.1232385899418671 
0.02347298920058949 
-0.04583496821705652 
0.105344733892066 
0.01474026648505001 
0.09964278418078203 
0.02127363982748926 
0.006482354609140616 
0.01163154147579741 
-0.05562771529514716 
-0.01211327710297245 
0.03841924194470116 
0.003527597630194478 
0.003601484756117282 
-0.09503839532872606 
-1.916780324912656e-05 
-0.07168022198219808 
0.02924614587437854 
-0.05353426481120498 
0.002499008680960314 
0.05397116474525768 
-0.09881294664798015 
0.004902722329380245 
-0.02592789686984346 
-0.000997564894654644 
-0.002429353196276672 
0.02512540838857133 
-0.002966728861020838 
0.02077370042467612 
0.1700698293021631 
0.03058260746490096 
0.06600671905416151 
-0.02723305361830781 
-0.03102219365185962 
0.131934552667529 
-0.03992935361712499 
0.07050660433065538 
-0.01852052046979376 
-0.04119456951304251 
-0.07307833862244618 
-0.04737773822241764 
-0.1009724160110202 
-0.01463885979327987 
-0.06441808778447765 
-0.02698692941584339 
-0.09068515593876215 
0.01829384889297678 
0.007352617923545517 
-0.06422380203822373 
0.02014097286440804 
0.06495805804898841 
-0.01690224002483826 
-0.09536252399556058 
0.008695360057349935 
-0.02841952251370244 
0.04546172718298692 
0.01400131932845667 
-0.06057486467064164 
0.01987584736409934 
-0.009590334878565383 
0.08554354210528271 
-0.06108220012583464 
0.008504368646135661 
-0.03309135137293856 
-0.03455165917357429 
0.09995555211193974 
-0.09469267187278392 
0.03355408288518793 
0.01536201029942701 
-0.06268378208356749 
-0.01008146230173344 
-0.06854400827663502 
0.02077220778599385 
0.04850371375824584 
-0.1035453353611901 
-0.08395465924943793 
-0.005417462612897713 
-0.0248387781330759 
-0.003556680043488846 
-0.1211808191781139 
-0.0592608714112384 
0.02362098743787592 
0.05428416970795867 
-0.06523913412070741 
-0.09935824668238402 
-0.04325239814676149 
0.002908562152746675 
0.03655135712919817 
-0.02519438347470017 
-0.02876331713601538 
-0.01813892321063595 
0.1895110024055222 
-0.06646116510767229 
-0.05037667613968819 
0.004143755770782236 
0.07807462696029759 
-0.04911726280674548 
0.06586949711632044 
-0.07400008935004183 
-0.01430309923869164 
-0.1060588216695901 
0.09379006208054586 
-0.04779289004498238 
-0.06965868025062248 
0.01478934909454125 
-0.01314082923044083 
0.001399153009658547 
-0.04867823896643205 
0.04237691352752904 
0.0108982391099965 
-0.05409438903840426 
-0.02723503588603362 
0.05238825540451056 
-0.03890216247847417 
-0.03784665681402213 
0.04205455459348016 
-0.007428167298058759 
-0.02909873379718767 
0.01304400763253177 
0.06571338077454644 
0.01430988657529259 
-0.003782540441186988 
0.0875005703435037 
0.03665963481794399 
0.0396722866072306 
-0.01681366305913329 
0.1200459852294955 
-0.0602789919425885 
0.09185561530028932 
-0.05394529485401352 
0.05280836532619285 
-0.09016257912533659 
0.1215879582142179 
0.02327404927608439 
-0.06874768236002103 
-0.02166075096482513 
-0.04987209280450252 
0.02008748722984413 
0.01019954050773903 
0.0004322534827092342 
-0.09341786879915394 
-0.01043471382952844 
-0.005432818632256789 
-0.06255189968757081 
-0.01924713149401302 
-0.0431763679276544 
0.07579768309388646 
0.0006137539788197421 
0.01091222846374176 
-0.0608389477964693 
0.1604926960210135 
0.08433982318169243 
-0.1088144810195189 
0.06237701930172406 
-0.02595455797008889 
0.1057766184448064 
0.006020116558168857 
0.06862552306909438 
-0.03421676682974779 
0.05341787071728751 
0.02262841302508272 
0.03539394512131101 
-0.09197082872804092 
0.06514699030925197 
-0.01863899921119252 
-0.03680704514852882 
0.00690816602481301 
-0.0482020045083961 
0.07186949871658205 
0.00862895169052723 
0.04815418898528026 
-0.06483010614048272 
0.03861873443279922 
-0.04907540103995479 
-0.07510102390623277 
-0.02369962704525592 
-0.07712873545244717 
0.1362949838355874 
0.009831388710028321 
0.06386014678486789 
-0.01231602197788976 
0.1259577678877944 
0.005799742888743358 
-0.008718568479097355 
0.142259604374659 
-0.03341839960776594 
0.1982249916698488 
0.04667110271127274 
0.0602300077855164 
-0.00992786555878386 
0.1046151980364194 
0.09413529627986847 
0.0549524463125966 
-0.04937358536800267 
0.02911991146996189 
0.001202867745317516 
0.02191485176711216 
0.009691341953980838 
-0.004359041578918688 
0.08239838287560955 
-0.03562657913487812 
0.005371185778081135 
-0.06465300643829983 
0.1248202364254379 
-0.09029303545128628 
-0.1268825531539622 
-0.0407555411012714 
-0.129787499607062 
0.1115987718914461 
-0.04004234741149833 
0.1316066450973248 
-0.04689287460571823 
0.1502492587503421 
-0.006450080244344454 
-0.06941186418401905 
0.146615888492738 
-0.01064728877624439 
0.1409821965206594 
-0.02754289213867348 
-0.009236757862674104 
0.02697406234712616 
0.09042247748005619 
0.08441322861370047 
-0.02662870570521947 
-0.08682238054581516 
0.07821222033898456 
-0.0294766236549519 
-0.06240249721555808 
0.002094822765901921 
-0.1133288262835108 
0.09550560692127044 
-0.03650574320278379 
-0.001314996934210692 
-0.02409814745347091 
0.08802952243917027 
-0.06062408089561476 
-0.1179762318435205 
-0.02644327246522828 
-0.01131752143051233 
0.05335052691932932 
-0.03838149792239186 
0.01095130413005841 
-0.01164314136849706 
0.1359607436096023 
-0.01788204840482247 
-0.05732103226822871 
0.1295587529422496 
0.02944254623703112 
0.1449330315964096 
-0.02827910118625182 
-0.02644003707634313 
0.07828710389455325 
0.02743877936387132 
0.07897459265340419 
-0.005437087465247258 
-0.03542629372591249 
0.009923235447650046 
-0.03535346971259352 
-0.04539398568338463 
-0.01010023006261048 
-0.0632120949531447 
0.03915389686434221 
-0.05274481246984151 
-0.0186301803899665 
-0.06037344292660952 
0.02925441479728152 
-0.008155763573516947 
-0.009863929067737399 
-0.04386624648234119 
-0.03891232756749012 
0.04825373533590466 
-0.04080182909785857 
0.01609799464843102 
-0.03749185366971295 
0.01311984081010162 
0.0333454989646891 
-0.03384470472661181 
0.07360718834016865 
-0.0006799621690031271 
0.08141848390961816 
-0.02023670798936595 
-0.0399584471655089 
0.1050570284929475 
-0.02083390808915238 
0.01481918642880016 
0.05178202702716778 
-0.008589837776660647 
-0.03169740874059003 
-0.07597407348001341 
-0.04980495739099532 
0.0270389880787707 
-0.06289513063727091 
0.02619011632026757 
-0.07977759537410174 
-0.01843303806490325 
-0.02578898343033175 
-0.07385485455548904 
0.004656553727030839 
0.0279274443586544 
-0.01938034653955631 
-0.1132626145403596 
-0.04895545770021784 
-0.006131797788210689 
0.03283765601533543 
0.05650583746844585 
-0.04653809832790114 
0.0068881495227586 
-0.002635500532444955 
0.1230851746295098 
-0.0585521948822326 
0.06498031312141056 
-0.004005413474804043 
-0.02158700353893517 
0.1412414057759394 
-0.06926853962759405 
0.03096250428095766 
0.07561387452890671 
-0.0734398039614028 
-0.01409567771837019 
-0.01041975071175664 
0.02841304531261944 
-0.02587083716959138 
-0.1424152531004833 
-0.004041834215847903 
-0.04236238386109471 
0.004581547894599811 
-0.01457005609531221 
-0.1526298395018088 
-0.08493815429525886 
-0.01951520781215251 
0.08072914028040629 
0.03189513655760012 
-0.01265047986369221 
0.0475445727692318 
0.02853743938017056 
0.01530933090858437 
-0.05585778254585804 
-0.002695370333272046 
-0.03670807632952836 
0.1288922811812144 
-0.01836578854551262 
0.03526531425494413 
0.02563016049577774 
0.1011718732667308 
-0.01438814040124418 
0.01674810438798181 
-0.04695973035255299 
-0.04639739346953322 
-0.1061932156993084 
0.09219666395907256 
-0.007884427828767184 
-0.06599784987143083 
0.04636607313934395 
-0.08734718990198619 
0.04247740995060247 
-0.02749210531743976 
0.03917182027958006 
0.09955142082058731 
0.06365043691106692 
0.02905014065816163 
0.002913575299200589 
-0.04209201922689243 
-0.01800681488936129 
-0.05808660252227741 
-0.02259085459474555 
-0.01428809966212795 
0.09502673759205296 
0.1450039132523812 
0.08958496684242404 
-0.07416971200558095 
0.06864218828515045 
-0.02712586876908617 
0.01708129196890706 
-0.008757772935825203 
0.1092430360428404 
-0.03909462118261697 
0.06203598771623294 
0.004993214950720882 
0.04887362668228368 
-0.1279027679581582 
0.09047713338623187 
-0.08255994121833361 
-0.08079919080806498 
0.08953636867993163 
-0.05993689747377981 
0.1021993316762544 
-0.0603283225127008 
-0.0255778924234537 
-0.03743046315901854 
-0.03660328758433704 
-0.007530357187483189 
-0.005059275378182817 
-0.02490081856285719 
-0.05713227512421286 
0.03650805002868979 
-0.007939780266408857 
0.04008067775490756 
-0.04061476150982362 
0.09090249883082704 
0.009709058018597621 
-0.05826032749170448 
0.1058207326809153 
-0.0431245337330046 
0.07248705371317755 
-0.0469869717245012 
0.009813868340480696 
-0.05137563674441428 
0.05715894497470934 
0.04569175501781353 
0.06421359313286883 
-0.08058300054623693 
0.1189073729345872 
0.005249812861869043 
-0.1375894540288629 
0.01208365499338195 
-0.06309072372200723 
0.002788170232611225 
-0.09414751941490855 
0.01372146489385636 
-0.07041288195667933 
-0.006115740140736154 
0.02637732366595407 
-0.0718619539370257 
-0.04717936524767433 
-0.1092798488207813 
0.04819186728876484 
-0.06380690739147829 
0.04068191419485852 
-0.04006100488846117 
0.1343954171011262 
0.0985567962720586 
-0.1123511237412144 
0.0766915127005533 
-0.07532336153307183 
0.0771327800695092 
-0.0599081552055707 
0.00124139814244496 
-0.02764660522748837 
0.05278011955337115 
0.03953442744786916 
0.04714183384767989 
-0.1106557883513379 
0.03716577367393533 
0.04809671412985484 
-0.08242290478259312 
0.03969615508392882 
-0.02136468511251049 
0.08703961392926586 
-0.040090170186812 
0.001443618508671679 
-0.05512077342706414 
0.01235975100469122 
-0.01441852218180441 
-0.1061337836641676 
-0.05731138472094385 
-0.0699195457850507 
0.06898870854385936 
-0.07377674972461412 
0.02250244186685552 
-0.04200389420213536 
0.07564126330666857 
0.08815656895358633 
-0.1241285421865419 
0.08985171861891808 
-0.05434729045425501 
0.08541951033614194 
-0.04094823749662517 
-0.005001825049556078 
-0.03487778140878391 
0.06989721059764011 
0.01719052493071097 
0.06484863858910767 
-0.08878728278321328 
0.03297449360758119 
-0.004453397271004839 
-0.06157040996476892 
0.005673789537983325 
-0.01629220759513116 
0.1333551973122226 
-0.03513204785813358 
-0.02268365471242471 
-0.007348764209519378 
0.03961552476714077 
-0.08204771392553888 
-0.1521109180199825 
-0.0966016661959143 
-0.06478423055306962 
0.03203101511405833 
-0.003332683616891603 
0.0249872190834877 
-0.002365379527400229 
0.09472779520476629 
0.01493411508698274 
-0.1020139576520173 
0.1043283491318156 
-0.02361437358794637 
0.05785279612071502 
0.001466185014400215 
-0.02064266346258908 
0.02980912395478732 
0.04164458879884273 
0.02947042335519051 
0.02887849391894692 
-0.03891743011682085 
0.04644830316314088 
-0.1141242813365961 
-0.02220530976924632 
0.09032382303060943 
-0.05932495979610719 
0.05693974890793715 
-0.103451719553261 
-0.05227841923451743 
-0.02936007236649397 
-0.003919929189587853 
0.06134584296423697 
-0.07227505567188268 
0.01105535461603754 
0.01982829563611959 
0.05464378343769332 
0.03626615990765532 
-0.004289539694813847 
-0.01620413256532116 
0.02566843286709346 
0.02497422278859241 
-0.0466681154593323 
0.176172697451138 
0.09307251416555143 
0.1332515010105101 
-0.01490067241272724 
0.01924548415521325 
0.08469192545433121 
0.04466401351497803 
0.02632591408279141 
0.06631465180489554 
-0.07060719014290789 
-0.06125062737347363 
-0.05033270240747575 
0.006736317775844423 
0.04733839748142118 
-0.1289407763681372 
0.03372734795397716 
-0.02087022584131184 
0.01008022893336639 
-0.04059999764766514 
-0.03690161526804504 
-0.01591671516006292 
-0.03999820028715897 
0.01819414444317859 
-0.1113181270460678 
-0.05115336890486993 
0.01034356587473886 
0.05373032902685105 
-0.01080631169781607 
-0.0252421160149001 
0.009334635033481673 
-0.009151044633515411 
0.113458568879297 
-0.1198681259357391 
0.06868943769939868 
0.06876957060739519 
-0.00744334619906516 
0.1052486854009456 
-0.03113366304099065 
0.003527494889215879 
-0.01504474417053073 
-0.08343532567392946 
0.02886992620003434 
-0.05516143838836064 
0.01452312900522489 
0.004102456914137055 
-0.1472396076786538 
-0.05315471493271782 
-0.08494616222693963 
0.007523796831318628 
0.008145059364948177 
-0.1379719575344634 
-0.03659215147442207 
-0.01798874476013936 
0.08370280843503429 
-0.08954654303531974 
-0.03207238982957004 
-0.003235257488146112 
-0.03296813286028731 
0.03956573420418136 
-0.02074746828136526 
-0.01255714714093004 
-0.0117025346267621 
0.1549810204534434 
-0.1151009340996813 
-0.01383598270112593 
-0.008649810248952585 
0.07121159847270501 
-0.01500847771376479 
-0.000415640429668156 
-0.0656941696541947 
-0.02761378666457317 
-0.03809847256289317 
0.1172208745706988 
-0.05909259225936089 
-0.05680382760239681 
-0.02060836405437849 
-0.1304159506634653 
0.1030070151929413 
-0.07183890748518966 
0.01729128050316202 
0.03125898259938199 
0.05110699730974969 
0.02225180920739314 
-0.0874318938205724 
-0.03698910571473679 
-0.0354156091874872 
0.0242883279346301 
-0.06521790683218183 
0.03381311354998597 
0.05531591979855934 
0.1064265173310212 
0.0722077263599175 
-0.1390152710958432 
0.03092336364035435 
-0.08532603233056509 
0.09958884636953814 
-0.0695609969523016 
0.04667917949869863 
-0.02814926798476608 
0.007616558085188151 
0.02305551336519178 
-0.02015448432523771 
-0.09571450353310454 
0.04240680577307376 
-0.05353110469468924 
-0.0421002302532415 
-0.03556870836013939 
-0.1007823238824568 
0.06922514743362451 
-0.03975553845408577 
-0.03707424921364085 
0.01542596796540181 
-0.006541304896851988 
-0.07145170899092093 
-0.03234620936631184 
-0.02949772811393275 
-0.01019365153378748 
0.02381620648321531 
0.0007019171279478544 
-0.01629415714024716 
0.01144286670874096 
0.08347550190931896 
-0.03677181146477936 
-0.03418947496416761 
0.02490499069227356 
-0.02972590023817662 
0.05398558404939406 
0.03377617197682353 
-0.004220907828574583 
-0.02824707481349852 
0.02409559277360599 
0.05108341959702487 
-2.748545999552154e-05 
-0.02461867676929464 
0.07362576033234283 
-0.03575216044964884 
-0.03563756047370071 
-0.05488835056355582 
-0.08322942242240132 
0.09419089257962375 
-0.04136518164034832 
-0.007214023563561106 
0.01483666271806384 
0.04743168064203975 
-0.07163464877398654 
-0.02545867352256144 
-0.00999369682096083 
-0.07300068743072559 
0.002216285031445676 
-0.06936779286420233 
0.02508497039485859 
0.005598634630962761 
0.1015074227985952 
-0.04930202494690718 
-0.04455903472719425 
0.07723103262255729 
-0.05371730614888502 
0.06491015620003696 
-0.02090924056096407 
-0.01896890898536691 
-0.02543659226220623 
0.05246572252146552 
0.04183542411697402 
-0.006613591459322298 
-0.01144410794525317 
0.07496003818601721 
-0.01170252758011276 
-0.01418009765415832 
0.04581335782818532 
-0.03662328679829031 
0.05732985945264015 
-0.08908676949132814 
0.02205557509992101 
-0.04101968156738248 
0.04124209691191558 
-0.04019243418470225 
-0.04893647922352658 
-0.05955591947004042 
-0.04238536321595993 
-0.02409990035014979 
-0.05706272569316054 
-0.0212062514048161 
0.04534401255548055 
0.07790141319868309 
-0.0102401368585479 
-0.01888022110204823 
0.1482769545563674 
0.004793040065416853 
0.04257842220698459 
-0.03694499679171866 
0.004068795274944427 
-0.01467487615277911 
0.06586430847246667 
0.05392954148530689 
0.06457674971011583 
-0.02334063136758364 
0.04125405335606205 
0.03415523720307134 
-0.03019779108444601 
-0.07165890000031355 
-0.06724028739069438 
0.03903357893527393 
-0.08364434994507557 
0.0650928969928655 
-0.07823197329069152 
0.01186905956561383 
-0.02903214243193835 
-0.0376559481830205 
-0.03586987265343493 
-0.08210276006773271 
0.02903224192984996 
-0.05659396919018492 
0.08655921327590924 
-0.01346388831337023 
0.07237717014979134 
0.06219451686390211 
-0.04512812090631726 
0.04174867532870669 
-0.01896166190626467 
0.0937290129298697 
-0.06201807433445124 
0.0007755057008470871 
0.001990305215688444 
0.07192976882774138 
0.02761656549282293 
-0.08251383738917792 
-0.08408883230157349 
0.0398372567762379 
-0.0849984512260324 
0.01362091493187466 
-0.04798316576910107 
-0.09083472460600514 
0.1130176657728135 
-0.1045184419058504 
0.07932866467741242 
-0.06985003594260532 
0.04381390582577947 
0.01463352667492733 
-0.07340458909908799 
-0.09043503954099624 
-0.04521045986205841 
0.03193874063398393 
0.02274001055409949 
-0.006347277453079919 
-0.04194798190596011 
0.06623105457551716 
0.001935368498969645 
-0.06972881127590723 
-0.0267879778041509 
-0.02970807397182498 
0.1531217566703592 
-0.0297973574107986 
0.002063101988420656 
0.004952537237865375 
0.03203567944590809 
-0.03105123533403504 
0.02383610697156222 
-0.04715929964498285 
-0.05423941645446016 
-0.001139969411795527 
-0.002615802113013361 
0.006153558647183661 
-0.1045021071300445 
0.02789919475806905 
-0.06524251742781693 
0.01300273806045268 
-0.004902019977841164 
-0.01651507698706286 
-0.06704113051606239 
-0.01968322689484477 
-0.03175924979694048 
-0.1105869274356766 
-0.0260308017712256 
-0.009245926360090469 
0.06062902106422105 
0.03217807996459717 
-0.02454662747240082 
0.02014712173221693 
-0.04437190421797661 
0.0549068215963023 
-0.08944250429144839 
0.03031412728929957 
0.04355738637598475 
-0.01273418830077972 
0.06070964992236771 
-0.04064455621427859 
0.03197081813358322 
0.0559818086855954 
-0.08784467464377009 
-0.05158301770825245 
-0.03748653306325864 
0.0481800512296067 
-0.04160292582673242 
-0.1204015273615062 
-0.01058157133699584 
0.02065663141323863 
0.05174285906191187 
0.05837811189640736 
-0.09748542559587393 
-0.0541787229909402 
0.02672108061851605 
0.0632120231131882 
-0.03859768414289422 
-0.02131125914159605 
-0.02076340590626566 
0.08197734345420662 
0.1104356548553917 
-0.02151773123052688 
-0.004627771291545 
0.02399839937240381 
0.1232244972808746 
-0.05017154822444522 
0.003170406729073265 
0.05471116058593167 
0.05644502474692536 
-0.01868073452696732 
0.08426242218020059 
0.02938862260453437 
0.01084534522026357 
-0.09016449914353751 
0.05867618204290513 
-0.07845711051296529 
-0.09682623872128833 
-0.0102345726145434 
-0.108627246766325 
0.03815708198608571 
-0.07455820520505022 
-0.006297886495128498 
0.05667189931987607 
0.02154036692039909 
0.04754134329740071 
-0.01502684719313267 
0.001213910006322688 
-0.04171107993254379 
0.00161558238469763 
-0.01102811828222119 
-0.05109088640079358 
0.06066102351806214 
0.09590074602465563 
0.03929874111590018 
-0.1262405530311446 
0.06749469618992542 
-0.05566810172834273 
0.005080767665444791 
-0.02669425652351024 
-0.02786791362225159 
-0.02959370363711936 
0.01851465513031341 
0.04306807784834815 
0.09751285047811632 
-0.08970640259276551 
0.1052773575861729 
0.001365794978657445 
-0.09277362067159657 
-0.03718807948435478 
-0.07784938887157974 
0.07960562042786665 
-0.05887172202647916 
-0.03380071590834048 
0.03114089039496379 
-0.06335216159756313 
-0.1007704551805748 
-0.09320679909025449 
-0.005993553777349215 
-0.05325141017299174 
-0.001676795451068955 
-0.01059413680577192 
0.02285575573655225 
0.02719394879626674 
0.08288114797828317 
-0.008346280702726697 
-0.1088540028771855 
0.06469408918088289 
-0.0340693873336108 
0.07946034225050055 
0.009915455919470099 
-0.02231344993042276 
-0.02151943139373632 
0.03825263100619291 
0.06956448389831975 
0.03718628338870845 
-0.07767177220598698 
0.07814234560362077 
0.009099079547097126 
-0.04868454326242833 
-0.04770354906868521 
-0.007996299264744825 
0.1177537256857265 
-0.02617236483994954 
0.000529436575711091 
0.02511882024621614 
-0.07298553859286996 
-0.06124236736319013 
0.02172300688735748 
0.009411158373846503 
-0.05051526658076781 
0.01264218411490933 
-0.05730147102165704 
-0.01909418168324555 
-0.0009310168489038793 
0.06447044833240871 
-0.02308977405886487 
0.004014838374295046 
0.1004811025810348 
0.001461169105168098 
0.04295233155313279 
-0.002611218231593299 
-0.02009296697128322 
-0.03552933152067754 
0.07965487491835765 
0.05500013523376331 
0.05045582821543208 
-0.0891710729202127 
0.06901488927268681 
-0.05749045278634374 
-0.06903149520398583 
0.03656315302704834 
0.02392625410344173 
0.03918536549215787 
-0.07194196041657434 
0.04908856171658794 
-0.04940623194117191 
0.005711382772020946 
-0.05391109859706365 
-0.05157644828675574 
-0.03057414697140173 
-0.005204651558984821 
0.03889308416828151 
-0.04754454602461713 
0.004248135305831938 
-0.02270760270800789 
0.07997516792543335 
-0.03668873510641577 
-0.0800704173149249 
0.1227830404648965 
0.02923191115813407 
0.03029475334702149 
-0.05643512169881472 
-0.02284522725037443 
-0.03332328036762394 
0.04982228436170473 
0.03964205755246937 
-0.00215262631638643 
-0.04683545111986229 
0.06750825435474622 
-0.007238739401650466 
-0.07295740812948451 
-0.04346570542665561 
-0.03152705894966896 
0.109048646135527 
-0.02261966767482568 
0.05134218789587289 
-0.02905244113950056 
-0.03487276596920211 
-0.07187968975435062 
-0.008303807918919449 
-0.07523595316392968 
-0.07956271514764536 
0.01078424548737078 
-0.008224737892897812 
0.04367054053051558 
0.005232415398933682 
0.05111525282484808 
-0.02313473524153209 
-0.05091034275437833 
0.05137446412123339 
-0.01978627249115661 
0.1065556793622622 
-0.01458195978361941 
-0.005754106425526121 
-0.01386881145674859 
0.07040038027718612 
0.01971403879159576 
0.03423983618143582 
-0.07957099549779177 
0.06276205308145809 
0.02627308096959765 
-0.02654371113658215 
-0.02824846908527195 
-0.130749735943769 
0.0689506930267207 
-0.04385630528755861 
0.02858027669946528 
-0.06482751212193773 
-0.02983419193404929 
-0.06930117718625355 
-0.009473898046368317 
-0.03329689894229757 
-0.01870916757944886 
0.05447746525487891 
0.03300626689132908 
-0.03644434701764553 
-0.02968597681028017 
0.01452311946559345 
0.01202842574900896 
-0.07780331474741048 
0.02871665914655275 
-0.02853515518163857 
0.08673421456337921 
0.07115947239485296 
0.01514099683367698 
-0.03145953513405503 
0.05636323677292928 
-0.02086176039119927 
0.009925609204303168 
-0.07779833666889727 
-0.1006817693192312 
-0.03207732012467878 
-0.01966433849237492 
0.05904968609183994 
-0.07752222952554101 
-0.02916313405184385 
-0.05079081565657204 
0.06615595020091422 
-0.006573172700249545 
-0.104555549317078 
-0.03196265919350018 
-0.0009492463582992721 
0.04380927361073551 
-0.14184944239483 
-0.0819712413433594 
-0.0065146593134684 
0.1180239493059546 
0.01348986066364414 
-0.07724176655122345 
-0.009339065601150894 
-0.05862928517890656 
0.1475600187276049 
-0.1168137234191596 
0.01091408286493178 
0.0553599384849288 
-0.03621402753238229 
0.0300853876755181 
0.004629202784411267 
0.04077875904317915 
0.09786100775584425 
-0.02417963091981275 
-0.1038231202255692 
-0.02908987112151596 
0.03335585405846451 
-0.00675997694700387 
-0.1011655603845029 
-0.06857680304496677 
-0.02636817191762736 
-0.03502503181427562 
-0.02717850366312791 
-0.05546454817782753 
-0.0222327611912561 
0.03448780665875319 
-0.02269479453654252 
-0.02626516715129413 
-0.07220121578826014 
-0.02109588617823769 
0.09123365979894565 
0.06107945591543161 
-0.04209940674510933 
0.02750817645904043 
0.007422922354864037 
0.08460792039961632 
-0.02986249317726712 
-0.06276580383809141 
0.03218591984088306 
0.0322633049541771 
-0.03130846392295079 
0.0641211259565438 
0.01473772374149184 
0.09709642075149026 
-0.06534253127973115 
0.03778422460292881 
-0.05820702432666679 
0.03483798794288753 
0.02749463662222913 
-0.03306051296852869 
-0.001292449531906181 
-0.04570055236640932 
0.02248355695159386 
0.08256138701388657 
-0.07507380432902962 
-0.08000343386723129 
-0.06668271285841816 
-0.04050746404906638 
-0.02041915788467506 
0.03598473420891742 
-0.0602540002583512 
0.002042435224011135 
0.1193389401465908 
0.01833334407444547 
-0.03734733695692025 
-0.04695352428796563 
0.04976111264149625 
-0.003012696886774033 
0.03269524384278767 
-0.01617086144042916 
-0.00126559592721135 
0.02000799159628153 
0.01214582148269067 
0.02506120536593456 
0.02895904476535338 
-0.04248946888417502 
0.0772922195411667 
-0.08672235749733211 
-0.01849034469432447 
-0.03316549065099353 
-0.03818285755138688 
0.01629299578689328 
-0.05806026607762392 
0.03925687378881217 
-0.02855041965931936 
-0.03230922328031014 
-0.03877929284316584 
-0.03184477521328218 
0.03398060760438899 
0.04151956276351584 
0.02789072690402122 
-0.02032527032447314 
-0.01117935330194404 
0.01151023744298775 
0.05576138928312444 
-0.03250151876232205 
-0.02854502713949176 
0.09979064131497463 
0.05824923181160427 
0.02533030162351261 
-0.0014459816241867 
2.469256636605018e-05 
-0.008485657985816233 
0.03211639450480337 
0.05976901588141618 
0.00743243650710115 
-0.0428422589607472 
0.06084638287816475 
-0.02205975987127146 
-0.08560469926613909 
-0.04462255602688613 
-0.0318445873851367 
0.04617721059269107 
-0.03578398576609042 
0.05236754348664695 
0.002017344324333264 
-0.08354433371355309 
0.004055974393101824 
0.02159009830979806 
-0.006695033983585174 
-0.03289221654839612 
-0.08780766602314896 
-0.07515536774283464 
-0.03255892378157496 
0.04124563152927777 
0.00840857906368647 
0.03473867820378445 
-0.02932612066582253 
0.06859897684357136 
0.01526997679758195 
0.01052009159068902 
-0.04157201157447248 
-0.0384202487763738 
-0.05848838620539858 
0.05192558629285868 
0.08049151837261531 
-0.006059663750575327 
-0.1092583256053053 
0.03795615095825187 
0.0167895872589012 
-0.04408329169735467 
0.01360107334912845 
-0.01804123639372743 
-0.003023070123194113 
-0.08342901574700157 
0.01558792966073973 
-0.01628033775243546 
-0.02940752252830522 
-0.03129412099251912 
-0.0004067828123874642 
0.04827472645070002 
-0.07347560608506194 
-0.005279341208465935 
-0.0123980970326926 
-0.01385566717644897 
-0.06004104341367605 
0.01735389942588177 
0.01630902992482212 
-0.01809000088435165 
0.171477560243806 
-0.01138318338968223 
-0.006852914658772512 
-0.04667118400546848 
-0.03969116310689723 
-0.06750668505568452 
0.09398184159272735 
0.03595961435969489 
0.04149490135500265 
-0.04803458158434329 
-0.009698656621484237 
0.04657374248562389 
-0.02469316579186388 
-0.08082932679371121 
-0.0491945429224066 
-0.003044667025953073 
-0.04978844730154017 
0.06435671101347114 
-0.04253627052749669 
-0.009720887564007498 
-0.04861656791122933 
0.02083030500149203 
-0.02942066486551289 
-0.06247171537705157 
0.03166151440325754 
-0.008456259030836487 
0.02436445626948411 
0.004952995427216481 
0.0166340472240571 
0.04694694606802156 
0.001579559291074563 
0.003926207116189121 
-0.03840037205361749 
0.02966388509637692 
0.02527418457977038 
-0.009110729466385177 
-0.05235234721879679 
0.08602821088747212 
0.0296190020770597 
0.004315362529373421 
-0.001884662599382836 
-0.01537780570698895 
5.7182457457749e-05 
0.02575898910359615 
-0.02598570205257344 
-0.04901581534849889 
0.002392517772646945 
-0.05509549693720964 
0.08474768834931197 
-0.06051786065122781 
-0.02069079927153854 
0.004509468784963739 
0.01459052040524375 
-0.07446927571157068 
-0.05462756130052109 
0.09225523741389879 
0.01515502818841375 
0.008917847435423207 
0.01760177249829499 
-0.0008032366633874445 
0.07981342756470447 
-0.01257693699018581 
-0.01417851844900697 
-0.001630957363645099 
0.1165217646945759 
0.04516732555136793 
0.02026709458422413 
-0.03400044528626697 
0.09444027582798413 
0.03187979833028084 
0.05281653629098636 
-0.07862472039315617 
-0.05322318222543179 
-0.08046554423089637 
0.02120707840904581 
0.0725709651872682 
-0.1231783150514306 
-0.05285070564220573 
-0.1057379113574795 
0.03201524170468979 
-0.01585746180148686 
-0.08113176105792985 
-0.02417109814568996 
0.022550561417256 
0.04708231118395793 
-0.08038233444295836 
-0.06133568212719369 
0.05669881122661134 
0.1115938142003083 
0.009792142853517023 
-0.02520430985783801 
-0.00413239714172519 
-0.01801776958748416 
0.1748670558121934 
-0.08827804493860184 
-0.02278834754823725 
0.05192114721553967 
-0.02895274942954077 
0.02201565666168078 
0.03634592972151011 
0.0600417344390077 
-0.01111406540171571 
-0.01196606226359882 
-0.03558412176849176 
-0.02584271157861619 
0.03983802577983044 
0.06143689737015286 
-0.09788807006614522 
-0.04445751926022274 
-0.0591785165423588 
0.008143111502264573 
-0.07242063636397139 
-0.06125041467334937 
-0.05608344590501547 
-0.023499757216696 
0.006853017129508697 
-0.06294819003065144 
-0.05372838855424446 
-0.04276779841193597 
0.03713171068543494 
0.01200101165915638 
-0.008279416647045491 
-0.01265712210245262 
-0.005323501789392782 
0.1505333491465967 
-0.0732636513375981 
-0.009605800298237141 
-0.005465043597970854 
0.002746171865502167 
-0.03451889357066948 
0.07718359571673884 
-0.005307762981135607 
0.04952939401457744 
0.01040647907311825 
0.04541488307024869 
-0.01932562260806231 
0.02561948648621813 
-0.009188294261270512 
-0.08719080975128951 
0.005793351990555445 
-0.03394744301241497 
0.05459355123658585 
0.03330100282584122 
0.01907540851395534 
-0.02722700526310002 
-0.02769039522352397 
-0.01115251800830955 
-0.04206059151413385 
-0.01505153372102938 
-0.01507946623517829 
-0.03336157728079528 
0.1065133456552934 
0.1200195104833346 
0.0174892044912342 
-0.04470681086047667 
0.0732131062452997 
-0.04344036583830876 
0.03937312270496819 
-0.01268241181408283 
0.03490896816043511 
0.01007068277239478 
0.05012112712022438 
0.009747675710197967 
0.01451950955557342 
-0.03909667510446271 
0.09757054693787318 
-0.05009128705017852 
-0.05323968230692255 
0.01159906331225879 
-0.03752757946094045 
0.0442590913345652 
-0.04618098231757085 
0.05406848487910333 
0.04632041393846682 
-0.01361292612031851 
-0.02488243515498837 
-0.04601450336749828 
-0.02404297415795596 
-0.02190091131166832 
0.03544719886498753 
-0.03764546696681209 
0.02011064104177278 
0.05015518574368363 
0.05000880500183549 
-0.03047068399565911 
-0.1183748134443887 
0.06828331771793955 
-0.04535316200731794 
0.04642895092309093 
0.02558245320438198 
-0.01076136552019692 
0.01699666782673558 
-0.01107111227332556 
0.03612326330332242 
-0.06017485222792379 
-0.06179202129417943 
0.0303154325728402 
-0.04108003424400505 
-0.03956174518134072 
-0.01359539310957145 
-0.052822558726848 
0.01906713698776387 
-0.06619910196045163 
0.02286213433431449 
-0.001528411546939718 
-0.04713266166409232 
-0.03512424779586216 
0.01372412367467016 
-0.007310283680998393 
-0.01454679276966655 
0.03737856581261043 
-0.07485531442775445 
-0.05853714748108429 
-0.00776219721927907 
0.04079731705115422 
0.002124404026417019 
-0.03580328185909248 
0.08008647910750319 
-0.01040313669096697 
0.08081054204214463 
-0.04988086736348624 
-0.03674536183521136 
-0.0006249090895207902 
0.0036830926704443 
0.05321846272471867 
-0.01801319779045084 
-0.09486804304924334 
0.05459373440256476 
0.02656648030815758 
-0.06577835722033325 
-0.01573166563222143 
-0.04565221054661173 
0.002603659164348049 
-0.05185180907065444 
0.03532253696037425 
-0.01795721664661625 
-0.06280475809267318 
-0.004156615988817433 
0.02665220313200294 
0.04740965632355908 
-0.08704982785108799 
0.02089854214452067 
-0.02785011683658237 
-0.02629547659423521 
-0.05470934004794616 
0.0676709500881153 
0.08796131532012602 
-0.02398133627895117 
0.1144319139673549 
-0.0578691666485495 
0.03884867329024625 
-0.03286421195313949 
0.01292575562825501 
-0.03905854557730426 
0.06919460413450387 
0.01029804487748135 
0.002639343820639411 
-0.08923953187504725 
0.02456290042924317 
-0.03003760436254747 
-0.05458452665452504 
-0.02656036175937719 
-0.01685197680013607 
0.09597503276189467 
-0.005038347977104717 
0.004575453905396392 
-0.009124942574307097 
-0.07490425171105114 
-0.04471850582282694 
-0.01191983522761754 
-0.02402809418338883 
-0.0990476967583382 
0.03317101192964652 
0.005333062258517856 
0.02837217302524635 
-0.04213349111911458 
0.038396650992594 
-0.003651720912095839 
-0.04949502775297433 
0.05545384068091587 
-0.06243377738000976 
0.04988729608437079 
0.0357367519243785 
0.01102618657130424 
-0.03449324297367206 
0.0446052007441955 
0.002494644297971946 
0.005277017171649762 
-0.09206860662035125 
0.05875371018106437 
-0.03427850348197332 
-0.08623313440514113 
-0.02149002127600029 
-0.009047302615622622 
0.05062005969661994 
-0.08016882643899684 
0.03494139862775349 
0.04876132520164844 
-0.02960294703420339 
-0.04259811008824517 
-0.02577916484215867 
-0.06334895040075311 
-0.05407315643043726 
0.0576017902306185 
0.03893502428577594 
-0.06421618144840076 
0.03085430121606644 
0.07843110815451206 
0.01657545986179176 
-0.0691746463298326 
0.04370893416419599 
0.0134931658205218 
0.1477933097340174 
0.04348039463484885 
0.03071506442087993 
-0.0127036585373354 
0.05658895344310719 
0.0389826082190855 
0.0008394127316879421 
-0.06416714402470594 
0.01426233490695901 
-8.651790695992333e-05 
-0.03380443103990417 
0.03128740010111285 
-0.06440914456027011 
-0.06285213827111434 
-0.1291429263685365 
0.06057235898904627 
-0.006892473209674962 
-0.0986666428466984 
-0.01164143747627836 
0.05436331568620401 
-0.05982922266464329 
-0.1010561265550579 
-0.0714822884510104 
-0.05584397139117555 
0.003981269091060351 
0.02406236601696086 
-0.01478787344662724 
0.04316549744501548 
-0.0209093874030302 
0.04310434584594026 
-0.06910804052801744 
-0.02033980995121264 
-0.04722039254934519 
-0.05616984730404863 
-0.01210002455374937 
0.001960290263691334 
0.03894360306491029 
0.05214295666356764 
-0.06585271216953524 
-0.1493543941222316 
-0.04940953299847593 
0.0476592258074053 
0.01971701057668361 
-0.08975387872291371 
-0.03129160599968595 
-0.08583961695784466 
0.009199766800523717 
-0.04386861183728647 
-0.07744927058298891 
-0.04190890561206276 
0.04186979764425257 
0.0400607494270112 
6.555633801661603e-05 
-0.0895669132212326 
-0.001488011771182731 
0.1000576659053093 
0.002155311771314426 
-0.1101584831040402 
0.003856836706605957 
0.004581206556291129 
0.1619184924892073 
-0.008205228349018111 
-0.03184457204237286 
0.003786898502520258 
0.02482419480627712 
-0.04199438950280244 
0.06023082316433333 
0.01640618505292634 
0.07516465079822317 
-0.04153526354884182 
0.04314861696074115 
0.002271254068951467 
-0.04235744084577804 
-0.009961091596236952 
-0.07480307259528136 
-0.01156499402395043 
-0.001272858923416294 
0.07758667264887341 
0.03417740156958819 
-0.01457779166725983 
-0.02385255297287523 
-0.07261346939406459 
-0.04363073166404952 
-0.03321653305113617 
-0.03515402620001988 
-0.03553809775602128 
0.04535605311073519 
0.03942062604991541 
0.06172869262018232 
0.03159597898670502 
-0.1027177586965412 
0.05329195670718528 
-0.03217783244570645 
0.001079159418866133 
-0.003796655020449683 
-0.005400729871908863 
-0.03175710344038287 
0.05497820861204458 
0.02638804596683586 
0.004375976392886858 
-0.06119806595260799 
0.04571137708005393 
0.003198468240336873 
-0.1322783543904713 
-0.005177421190466105 
-0.03496662680553909 
0.02194586008534296 
0.02185946519339895 
0.01870015105280918 
0.01380735914848837 
-0.02665987155897579 
-0.06003659957788738 
-0.01220185481063784 
-0.01458798079913368 
-0.04509200635621258 
0.007187676497393371 
-0.03980571499426186 
-0.02374368979971825 
0.002495203122437689 
0.0767753293965657 
-0.03234456965965742 
-0.1501808783399721 
0.0611680619908869 
-0.02272335624482584 
0.0425118987570473 
0.0697514063568325 
-0.05415503336395021 
0.002586861156601479 
0.01092448534769018 
0.05182042009748179 
0.01801286810525366 
-0.0255632339807197 
0.07149693510905158 
0.01335137611239503 
-0.04821016054622906 
-0.005642260398029762 
-0.04194158672520189 
0.1045463545574697 
-0.006316619202988142 
0.03627316471267661 
-0.09701929153036123 
-0.01434237321598475 
-0.05635116085321074 
-0.05839083547451021 
0.05171330567035576 
-0.05132070856428839 
-0.01481445329862006 
-0.0466236862872193 
0.0204932483992493 
-0.04781890204802519 
0.09805969183536296 
-0.00351725015688573 
-0.08088082382543856 
0.1612808140325655 
-0.0267365733217694 
0.05571053933202529 
0.03629861739266419 
-0.009302366823150795 
0.03393110596273281 
0.01106578705751946 
0.06466249642088415 
-0.02126980968205387 
-0.03769454980954282 
-0.05616635802854687 
-0.01448100377537042 
-0.07322825905902181 
-0.01133607237240041 
-0.0487200606151561 
0.01572925590739698 
-0.04989212917721934 
-0.003650739995777867 
-0.03706481490150189 
-0.04759796153602525 
0.0116911915682741 
-0.05344855447476085 
0.04078390787443282 
-0.02371767326376566 
0.01530257314179909 
-0.03356162953611384 
-0.05357990183679558 
-0.04084262893715375 
0.02580314270091983 
0.04106463510589022 
-0.06660223083821087 
0.1436864071653096 
4.185892765982621e-05 
-0.01365911869533459 
-0.02290411313953036 
0.02254589701743316 
-0.02995692037604494 
0.01739349701935224 
-0.003850414339339639 
0.01423321262238102 
-0.09120178894827449 
0.01686647976908302 
-0.03515267547713483 
-0.08190808965546154 
-0.02218757422878449 
-0.04817086712206618 
0.01744269781721591 
-0.001078313801281962 
-0.01777618030472129 
0.01862995164532025 
-0.02074896287563986 
-0.03366746439100405 
0.02909572956041429 
0.03382345200817002 
-0.04685383921554391 
0.04181076077506247 
-0.02953331446157231 
0.05331281893680437 
0.005976276351304672 
0.02285485388000965 
0.001836729325550906 
-0.07725425356516727 
0.129345096376885 
-0.02633748948063618 
0.04216073091577283 
0.03904318610951663 
0.03379916917929735 
-0.00547895980339364 
0.05103043743718334 
0.01065836644244763 
0.02282952565739361 
-0.1053418452632511 
-0.02280805039752895 
-0.07428683221195927 
-0.0002407859087541105 
-0.07990294122560417 
-0.02027593237359883 
-0.008076260683589295 
-0.09323834557155182 
0.1008309761613709 
-0.06604882869430101 
-0.001284312712554271 
-0.01888777900850865 
-0.02909432818279263 
-0.01192284383531693 
-0.02407430664177358 
0.02553954885038975 
0.04278616912622038 
0.01499483837477527 
0.0004638929102558659 
0.09071846349470473 
0.00185965192233799 
-0.05734457749165504 
0.004606564136013932 
-0.005966513906732647 
0.08303844122276166 
0.02498470141858961 
0.02017942953315876 
-0.01510451774475367 
0.03310101839920489 
0.03600215622539692 
0.03299864842716027 
-0.05442685682560326 
-0.007719337096195837 
-0.00248198663993107 
0.03716775985551087 
0.036417036775771 
-0.02833563083512613 
-0.07414890014237782 
-0.09474443363336819 
0.05707945560168695 
-0.00378850652974161 
-0.110394800031727 
-0.03318934933029443 
0.04334921500099492 
-0.04181042707991224 
-0.07286485668321399 
-0.06415789281126089 
0.00211387555792138 
0.05732049371590416 
0.04986373800282004 
0.004702022245712281 
0.02175281663136198 
-0.001671266149465895 
0.06689912753441063 
-0.04269184749658957 
-0.03187610906409964 
0.01920952815711984 
-0.03207430573413281 
-0.007015745608811951 
0.04406637576203878 
0.06267424874188089 
-0.03554020779534815 
-0.04679956710681078 
-0.02609540304796846 
-0.03575504991347927 
0.05199349528876004 
0.03998862592796398 
-0.02174800319327355 
-0.03023348046448967 
-0.1099017790743085 
0.05767194356124698 
-0.09669702766057672 
-0.09775485936704849 
-0.04401022852776867 
0.005968328618779099 
-0.04427840135869922 
-0.02750350813943298 
-0.04808217441197162 
-0.06809504263692916 
0.0306087873458375 
-0.01786667749552182 
-0.03209682237931145 
-0.006934326331239517 
0.01824331293956132 
0.1020337397323555 
0.03453841761039119 
0.01922678547992231 
-0.08591059563912704 
0.005193473672840521 
-0.0579488189726941 
0.05855073648356545 
0.02335752826045821 
0.02729751410378424 
-0.06556944248489109 
0.02903144924841688 
-0.08046850798952233 
-0.04599522945804866 
-0.0006764466512078236 
-0.04713716254129007 
-0.014733868364588 
-0.02383461094818192 
0.07453323241793587 
0.05041676875083335 
-0.01113599441586101 
0.02306747224326458 
0.005531247040326093 
-0.05646672424713677 
-0.009432814824926226 
-0.003751949435487146 
-0.07516879503568355 
0.06821873577016405 
0.03703529334821175 
0.06309841687367213 
0.02990279061671091 
-0.0480631001676176 
0.06184720234908053 
-0.01373196222099995 
0.06266099916685522 
0.004019479070765731 
0.003637822836740968 
-0.03293180961396 
0.09584439003027465 
0.05836607513960108 
0.007283669704893529 
-0.03890445488359474 
0.07416008335807618 
-0.05733350155921318 
-0.01106956247445424 
0.05828687752099534 
-0.06150875753132304 
0.02342959181137266 
-0.07090566342047029 
0.008037764451227523 
0.001557361977439716 
-0.01591766077684218 
-0.009768880972098527 
-0.023590631870355 
-0.042938275696459 
-0.05611278803187277 
-0.009493467497148158 
-0.05361024606967112 
0.04727486129278133 
0.01015702098070415 
0.0842376855248597 
0.005583875310258144 
-0.04887801104642473 
0.1129820929028723 
-0.04308752459224351 
0.07124493752628408 
-0.03176658749011314 
-0.03871844500239068 
0.002352594007389732 
0.05217126728207136 
0.0821281070194104 
0.02085198094414507 
-0.07270239065624036 
0.04005083896131668 
-0.01095876759865438 
0.007123159182703643 
-0.05734664393573521 
-0.05445935861037687 
0.0750470723063115 
-0.07503365750911084 
-0.0226633838668786 
0.01005288593764152 
-0.01045720649888198 
0.02300806289180446 
-0.0395926712860024 
-0.03365577106371129 
-0.05625400072031368 
-0.02513875744991914 
-0.08126166321274524 
-0.03862078925074945 
-0.02651735468014536 
0.07019613446379373 
0.03942847935807606 
-0.07115803073905584 
0.05855068679066924 
-0.02584490587163851 
0.07211971286913973 
-0.02041279684009187 
-0.02676895727419055 
-0.005631988796197897 
0.01496950298194137 
0.0446508678071571 
0.01815200298584391 
0.01478060371917791 
-0.01048876351401126 
-0.005525535983358629 
-0.06057137500528018 
-0.03599128520639358 
-0.09735625533517241 
0.06528855401519131 
-0.08927236578775503 
-0.08243598482792805 
-0.0508605090048018 
-0.03753852436210695 
-0.04114790985079563 
0.02882102517072367 
-0.01957511348967053 
-0.006466068947909489 
0.008005521316045847 
0.051283964869387 
-0.05197689085226279 
0.007929135669913217 
0.04087756130876321 
0.04148966211912024 
-0.04048123099871374 
0.08298145723799329 
-0.06247339745473991 
0.02130537982843119 
0.01966584595751815 
0.02345816807098016 
-0.03472209146914874 
0.03694646882003164 
0.002279985692185789 
-0.006243367212489205 
-0.1074434313121241 
0.05905984597182697 
-0.06403861170472662 
-0.02942325681801163 
-0.0346705697129362 
-0.06736819638145455 
0.01176917507782061 
-0.0214868886359106 
-0.03278456824840884 
0.01902563220963966 
-0.007991294907242569 
-0.02813875843191763 
0.03328951415277655 
-0.1196801135479575 
-0.05978089577484502 
0.04846975629973033 
-0.05815167679857665 
0.01121037775380125 
-0.003482318126518476 
0.08840102155667748 
-0.02568033769271771 
-0.02955125564334896 
0.01621507008155301 
-0.04423933317468313 
0.07849677353700749 
-0.004432908112931059 
0.02307413984969421 
-0.02924310682096781 
0.03968095573117258 
0.007470547931412143 
-0.006730541188114967 
-0.04324399739062985 
-0.03806432428865551 
-0.01193505403371823 
0.02655025176938301 
-0.03332217394430312 
-0.01913557098893355 
0.03450803917950981 
-0.02597296456552295 
-0.002148052375755449 
-0.0283901327290624 
-0.02554308560624228 
-0.01701485455296584 
-0.07903755095887621 
-0.09934213662795444 
-0.06859719220475255 
-0.01108244674664703 
0.000161933885570777 
0.007407801253356429 
0.04668314422551206 
0.08824070138828465 
0.03689786771991448 
-0.0303904371645925 
0.01606612313704586 
-0.01978241440972655 
0.05423974242286581 
0.08052966960407969 
0.005407806228144604 
0.009364913024852284 
0.03633819988971285 
0.0808315459660664 
-0.009213953892193209 
-0.07000012370610728 
-0.05444379640245935 
-0.04285046700775181 
0.00300088210190801 
0.0301433258514588 
-0.0580120413842859 
-0.07550174179596268 
-0.02444766493177552 
-0.02454833459150187 
-0.005780163322459128 
-0.07103511441111421 
0.01745987321912813 
-0.01434981326505609 
-0.00971592620897478 
-0.04013559526428256 
-0.04631487889472252 
-0.05747062358815645 
-0.08864471574421418 
0.001932671997769147 
-0.002724687599244043 
0.01326303460612789 
-0.01106606370428371 
0.1260669669759693 
-0.01115693695345523 
-0.03454210707133498 
0.03426398240002984 
-0.02767246626664289 
-0.02101480897156715 
0.02137772064391302 
0.04022232610405774 
-0.058316215433272 
-0.06953331897457125 
-0.0008408561411702023 
-0.0846581915349624 
0.02432911283823577 
-0.04269493683399504 
-0.04616122554119921 
-0.05253293624972204 
-0.03376196924211136 
-0.03003391843785881 
0.02817465826400038 
-0.07803513531606129 
0.03106554346622134 
0.01552468321743561 
-0.0005316686309673295 
-0.05147050544079423 
-0.05312370467571015 
-0.07249974805027598 
-0.04188584103625879 
0.0403786864314528 
-0.01094841963645928 
0.04331459715909824 
-0.03771615448987866 
0.07806697011990749 
-0.02378123765321908 
-0.008703711403323794 
0.007085913024259814 
-0.02156699013148879 
-0.06740200649773917 
0.1126617164045914 
-0.002097281775723049 
0.04079449044034814 
-0.03752247090988386 
-0.01456721454683021 
-0.05973023637314522 
-0.02999812298643698 
-0.05699259902804558 
-0.02983240921452266 
0.0288396297122349 
-0.1079538104230273 
0.02029805945581733 
0.04616790462970832 
0.01125752891375349 
-0.005008297832502597 
-0.0297671204528572 
-0.0444540487535529 
-0.04252642750891904 
-0.0006856515164609493 
-0.05675380021412899 
0.05360557137921278 
0.09331113649958715 
0.1057758240528989 
0.01579551827118869 
-0.07910746571724074 
0.03615750923876856 
0.002336273733077811 
0.07328125940301648 
-0.03763912905077255 
0.02501504729885473 
-0.02893930216244125 
0.08449318416588318 
0.0436539489652505 
-0.05325176290032281 
-0.02557354550985227 
0.00612073529792652 
-0.04209625957880812 
-0.03081061163273913 
0.006386418479142801 
-0.0470949812960459 
-0.002255877527741137 
-0.06507303724467847 
0.04026501549808428 
-0.02590112114122146 
-0.01708072338554672 
-0.0300936845985093 
-0.08340698774624518 
-0.04807772725302563 
-0.0332500682768879 
-0.01699189279480212 
-0.01906809263680648 
0.01674716998944858 
0.04780351149697454 
0.06969925341634933 
-0.021623308352372 
-0.1081169585092553 
0.060656414765879 
-0.02630288893073898 
0.04938716179484715 
0.05601336560712798 
-0.03650886888040909 
-0.005614816672304792 
0.0162588522346931 
0.09387141330542884 
-0.02294609123886873 
-0.09114778587285612 
-0.04200925704086247 
-0.08370504757246286 
-0.04437554465282946 
-0.007407161167225196 
-0.04993417616161407 
0.05843531915903678 
-0.0411986373613637 
0.01849256160949592 
0.007618117106320248 
-0.01039849992876692 
-0.01636423905784336 
-0.03580980460778069 
-0.005611973956584687 
-0.01931189341916253 
-0.01652957445538969 
-0.06428447351782055 
-0.09588396294690424 
-0.02765628658653511 
0.03175841678687605 
-0.02931172368787264 
-0.08417101647086654 
0.07414809969449083 
-0.006267458329014042 
0.1160933615159097 
-0.0207465531814267 
-0.02795922279479114 
-0.0384527677959277 
0.02536490517445355 
0.02123059225280486 
0.08372069370683513 
0.01542900293965091 
0.04189925666550243 
-0.002577053294195875 
-0.03931005607746433 
-0.006443802063921032 
-0.08264118378718632 
0.06917662405091179 
-0.03276708019309338 
0.02761982240423785 
-0.04174140882750367 
-0.005944526551859416 
-0.02656345286945064 
0.03036177217465828 
0.04373984928580558 
-0.01382209344355244 
-0.06460250787761802 
-0.02747591603515069 
-0.03580764926820493 
0.04026338824224346 
0.08874349950549583 
0.006903337684725966 
-0.01888950016649743 
0.1493552199266536 
-0.06403233752645866 
0.04874468495865387 
0.03051905733596955 
0.02476331698431182 
-0.02782516490539481 
0.07665726431641774 
0.0422756772569749 
0.06363001351180315 
-0.04067981538738874 
0.0402545831402077 
-0.008603258603986825 
-0.08400378156628155 
-0.07675739809501594 
-0.117315725568562 
0.06211515727849367 
-0.05850482072764002 
0.06676858668693697 
-0.07197216923068356 
-0.1161024169891922 
0.01219101141356149 
0.02975380190566516 
-0.0147364310873304 
-0.02178381166804777 
0.02106720519718212 
-0.001147802390411404 
0.09057181547246744 
-0.01021591113923339 
0.03097982326988569 
0.04570611513848658 
-0.001605295894781695 
0.03568599600759671 
-0.07511221664442908 
0.01183858809800988 
0.03577051329629333 
0.01684156289166383 
-0.02769885038230367 
0.06177832567634917 
0.02620990439686687 
0.09425752208564504 
-0.0424113253993838 
-0.04265258917173042 
-0.02188521022637167 
-0.0213179204865109 
-0.07746234650815269 
-0.036373221405538 
0.09020593013947059 
-0.1169931855731906 
0.06396696664118985 
-0.0133839594166343 
-0.05523623138623263 
-0.002015901697113314 
-0.04491675266342653 
0.02081926362751014 
-0.01726903332615131 
0.05969684878616034 
-0.002258184051467411 
0.05046573862958033 
0.04022297800833553 
-0.0009187734020915579 
0.06488166900469645 
-0.03600449034139098 
0.09988383480313313 
0.01445526730530469 
0.1365845457937661 
0.05710660040447432 
0.006051549559439004 
0.04020395083279597 
0.05864381000232176 
0.09623835600534647 
-0.01907270436355828 
-0.1061146925644131 
-0.04872856800610616 
-0.03572723110817604 
0.02799568138304696 
0.05918331204934912 
-0.02169190307911342 
-0.02283480965456706 
-0.07089708042345688 
0.05133825756339976 
-0.0139523308117983 
-0.04212203563284898 
-0.02428829894966402 
-0.06315422153216194 
-0.04374351349876501 
-0.04031917307874455 
-0.0655082340694302 
-0.03897648233409603 
-0.008669511061803633 
-0.01031926726655487 
-0.02701496234574208 
0.02030687143282004 
-0.06181130551244404 
0.07516284902278463 
-0.02948364719486709 
0.03727205386167495 
-0.000633884262237018 
-0.03350099126333621 
-0.02811294279517474 
0.0001753245816123992 
0.05899165303348339 
-0.02541541478680087 
-0.0358835030746407 
-0.05024750716923657 
-0.06598221155241542 
-0.001988201068233314 
-0.09297917981646954 
-0.06368171375019817 
-0.06916164945114128 
-0.07979264326263923 
-0.08425510350295337 
-0.03573463309278517 
-0.1262058886692975 
-0.0413196194709415 
0.0003977124458068295 
0.009316755453219819 
-0.04817606062276357 
-0.08283958525565946 
-0.01816851211401852 
-0.004219330693954422 
0.04387827476023065 
0.002302758874136192 
0.0006004180906008082 
-0.00242495062291358 
0.05093307104659307 
-0.01590095763705488 
-0.0443015190980544 
-0.007689202937825789 
0.0418839447153208 
-0.0998904591455117 
0.1049871491598827 
-0.03605411911413681 
-0.01008821252960156 
-0.057984896814401 
0.006131522256425081 
-0.01877008499712823 
0.009878536957549275 
-0.03049931938427049 
-0.04846375437099093 
0.08785238791517383 
-0.09776581101043694 
0.1312825473041138 
0.03047232877617697 
-0.0396295173594047 
0.02705790492657786 
-0.02680096793888406 
0.03297921348583365 
-0.008438144750593981 
-0.05610659604322955 
-0.003127110261367828 
0.02388380887500034 
0.07334585421789205 
0.05592095716217964 
0.03683598580169568 
-0.03645839050068012 
0.1289039362952037 
0.004391383905462878 
0.07876688608517976 
0.008888540403692278 
0.04961631109099817 
0.002605586480258082 
0.1074482207720971 
0.01686096483085312 
-0.04667698880540332 
-0.05140302182334312 
-0.02164931167197339 
-0.02293298053973203 
-0.1369569980662214 
-0.02899346590459748 
-0.001975176536627505 
0.007629971490026317 
-0.05935816515259694 
0.001312353255496476 
-0.07213740414893374 
-0.1095843277633205 
-0.02663047299778926 
-0.09752653864949369 
0.01440377119796949 
-0.05917934860307614 
0.006132402554913142 
0.005515367583563866 
-0.03355499928000875 
-0.00529435745336824 
-0.008607084016860169 
-0.02025888024503255 
-0.1275517141559822 
0.1123135918465942 
-0.02856045503108911 
0.09809714556665559 
0.03972165058730987 
-0.03244173324484768 
0.0315856865728059 
-0.01359370711536028 
0.02685000504679757 
0.003062780186646987 
-0.07007301326628898 
0.03320529524975105 
-0.01804037487109326 
-0.07032153189058485 
0.01853786174851636 
-0.01396669658269432 
-0.004562117223882865 
-0.05301075177753489 
-0.0279956200345845 
-0.03801359866667398 
0.002604752613175256 
-0.06246283379835441 
-0.02095065108746651 
0.03957358953636822 
-0.07092582097998562 
-0.06310993257028362 
-0.025146077960373 
-0.1052646823539463 
-0.01758591686316527 
0.05812373176289396 
0.001725330393236472 
-0.02968931436702876 
0.1338693161383677 
-0.03059413290540366 
0.00450999792523891 
-0.004734413018978464 
-0.001073217889972387 
0.003898724278941069 
0.01643229324990889 
-0.01437409308128876 
0.02299346277459372 
-0.08373632272093767 
-0.008337626031925824 
-0.03415433959818093 
-0.07992079444193721 
0.006828533685844376 
-0.1150408783460058 
0.03996906861374785 
0.02083531103454428 
0.04146215119140175 
-0.07704421525141197 
-0.01521344797683498 
-0.07491404253289664 
-0.01066397920921339 
-0.05483610568343095 
-0.08283646948756572 
-0.06448955950945422 
0.0174847064642623 
-0.03294631439858656 
-0.0462904155268653 
0.01081417313181069 
-0.05886733406389905 
-0.09322061986784332 
0.05655184314727806 
-0.1154373257330363 
0.03842502350927877 
0.06834241635506172 
-0.01603222456402453 
-0.05204889604101935 
-0.01469410837044389 
0.001397367895066484 
0.01657463228788615 
-0.03967543840616828 
0.007007619409586986 
-0.04072194135074537 
-0.09423002958963005 
-0.03620136172899695 
-0.08931627791685019 
0.04290601295480553 
-0.07110131983285121 
-0.01734640931291354 
-0.03346603350610321 
-0.09028785228705367 
-0.0260394662650357 
-0.01376760796325029 
-0.04229565971825989 
-0.07561720079881334 
-0.02029115638154054 
-0.01809698731795111 
0.008623962797750129 
0.02214851001765553 
0.05283359445172874 
0.01930207942491411 
-0.08363895637741314 
0.09073112784753318 
-0.08841269482598978 
0.001646826981525826 
-0.002594459061181989 
0.01972889937477524 
-0.03253269283605963 
0.05143918702661337 
-0.02890559013830118 
0.01433604910264929 
-0.03412686899306883 
-0.005435106813442854 
-0.002958063784641047 
-0.02204982596906602 
-0.08959532376022569 
-0.02958718275844093 
0.09963927329401599 
-0.04125835729336173 
0.06180939082714855 
-0.02018669320658902 
-0.01232947538026493 
-0.07695015591762097 
-0.06781583661361454 
-0.03236981398091299 
-0.0563692315441891 
-0.03283360394593111 
-0.03978781000189234 
0.07809286016600914 
0.003864054397261464 
0.07325356201244265 
0.03427390669007326 
-0.06588865929807372 
0.01194560425206217 
-0.01990276721879429 
0.1089737592557515 
0.0577477089012275 
0.00499339555399415 
0.04135596813816652 
0.004040644276711005 
0.08271577746091313 
-0.02458489062913676 
-0.03001743328693313 
-0.006352486156718631 
0.00627101642584629 
0.03998011632836233 
-0.00590039103193701 
-0.07314428596479004 
-0.04366565433554406 
-0.1191869486069068 
-0.07365278005511329 
-0.07197247694508638 
-0.07726071582216515 
-0.03619736008621857 
-0.01842976853745153 
-0.01885334973245857 
-0.07019326095060806 
-0.07569279035720974 
-0.0474434578510415 
0.02081326797373882 
0.0003013868849140611 
0.01712587070745087 
0.03891799632532871 
0.01977688562263484 
0.0934961000465955 
-0.05131371370771843 
-0.0121980275026112 
-0.04468797999187597 
-0.04623222591737512 
0.02527642081623237 
-0.03221369977937714 
0.09193395347623243 
-0.04310833759562474 
-0.009970094957216871 
-0.01645643733910989 
-0.008216744207535579 
0.08783393485161939 
0.03827340731981135 
-0.05435734734045164 
-0.06242262775805865 
-0.05206630448017945 
0.02421127787228968 
-0.05532908447813121 
-0.1206160680560188 
0.04575147890651331 
-0.02911403345872693 
-0.001911208762901396 
0.001110692913193599 
-0.08306886891979523 
-0.05545297892897237 
0.01392413119748017 
0.04980992173637128 
-0.007927177444046384 
0.1008615341696815 
-0.01551164210542893 
0.137712381223051 
0.01382916026789044 
-0.03233780968941576 
-0.008923890528016674 
0.08738246134656527 
-0.06830961874635921 
0.1006128312769849 
-0.001157302680412297 
-0.01007154896723215 
-0.003028890089348387 
0.02740142492117119 
-0.0575299703701493 
-0.00578744963593068 
0.02514747277232084 
-0.109911031819148 
0.06950874186266662 
-0.1016914767091685 
0.06861180256898415 
-0.02960119324344991 
-0.008473497244611694 
-0.008235497417152652 
-0.06184574167770841 
0.0003596877634618944 
-0.04671081944940708 
-0.07573741482303117 
0.02559396397893777 
0.01443106733175544 
0.09219083942415214 
0.1108968495181724 
0.01155093615351166 
-0.08943278596253702 
0.1161412552575299 
-0.04499826002766766 
0.08759734031378551 
0.008835919330740363 
0.06124458606553304 
-0.03495764989839077 
0.11169791171186 
0.006836834413028167 
-0.0376653074732229 
-0.03225058849510957 
0.04444203563438989 
-0.009127674796311349 
-0.09756256891098536 
-0.05432630076872218 
-0.04719802910600801 
0.006263469535502398 
-0.03015812728666774 
-0.007523015623422133 
-0.0001337640734597133 
-0.05838649942841117 
-0.01559203629183757 
-0.04873205870816541 
0.01019501216253235 
-0.05714087171975833 
-0.03794122849078199 
-0.04780768140857171 
0.01718643678265831 
0.01720569901174827 
0.04575321247403884 
0.00339219714299029 
-0.1163040732546371 
0.07838118315132678 
-0.04985982876736512 
0.02547841116068188 
-0.002150186021556668 
-0.02384165458896455 
0.005908191683216966 
0.03184237064459047 
-0.004913053210418347 
0.01715874042217492 
-0.08432686404094078 
0.02273723370427887 
-0.08393445638530274 
-0.04577807773816387 
-0.03563475713527205 
-0.04793689449633593 
0.07130781188358368 
-0.04636386773105099 
0.04554990323588191 
0.09235248452148156 
0.03015678396660175 
-0.03043164609695742 
-0.04679199255241556 
0.07595430398000114 
-0.02461970287563405 
-0.0282206792730471 
-0.01036272747391961 
-0.06153583028718904 
0.08178664145770968 
0.09355585563007168 
-0.03313438753346661 
-0.1030521210433723 
0.1096823565623518 
-0.03355545038158794 
0.04762690252497807 
0.02918534061064795 
0.01876344684917703 
0.01205491149574221 
0.02522116982092171 
0.005506695934563565 
0.07320610283438563 
-0.02133809642332351 
-0.02259430881267189 
-0.0333358815431996 
-0.01533344460216062 
-0.08632129350337873 
-0.08472173743434003 
0.02484443432136952 
-0.07166551409568206 
0.058102770799907 
0.009777545365109934 
-0.06304115315631385 
-0.05832016870814569 
-0.06042565155814096 
-0.02855553684137137 
-0.04012532097702599 
0.01413441409482454 
0.0259977757865205 
0.04153761504940477 
0.03808943472249735 
0.05437576851091184 
0.00402359015630871 
-0.07542658519910855 
0.05910290747370372 
-0.07301006685399054 
0.1039443984668156 
0.05641433788611265 
0.02756586292480861 
0.02182682317875965 
0.02471373486516897 
0.02444136900429991 
-0.01200250762336203 
-0.1001860615850047 
-0.02871654877747373 
-0.03284681339038188 
-0.02672056568506062 
-0.06755306756733892 
-0.08010666351848861 
-0.0008535122135641471 
-0.06090957338190735 
-0.05476669006068394 
-0.0237660818839625 
-0.07128560199702304 
-0.05109622755124578 
0.02168835675004452 
0.000379412864326537 
0.0131949177230452 
0.06009182743072867 
0.0003377019402162861 
-0.02642810289567841 
-0.04642199281019271 
0.003350991975085694 
0.0128464827408967 
-0.02047729195689277 
0.06798598770051695 
-0.02081897722594861 
0.04314538003832151 
-0.009987087819492795 
0.03464318083328354 
-0.04283553582017337 
0.03083201502611449 
-0.0211333368161265 
0.0006120706591807698 
-0.01847686183891867 
0.00786186764181771 
-0.01877645289147436 
-0.04564139068024737 
-0.03523662171184516 
-0.08011365857732709 
0.1204437706888207 
-0.02140125441762873 
-0.07538266143074593 
-0.004835632782042434 
-0.1199948825375688 
0.02440717201673003 
-0.04758597772667535 
-0.0485053306682796 
-0.01454197621499117 
-0.02332710556186998 
0.04590629181338689 
0.03114284876308913 
0.04601694268899209 
0.01483882141091288 
0.07970418723633634 
-0.09211852155906444 
0.09504228423142083 
-0.01511800488532427 
0.09662320204983273 
0.126890058250641 
0.01540483390603664 
0.04530176577761624 
0.02697930713674227 
0.09287232254891672 
-0.03917892638482075 
0.006797830695468856 
0.01076309507054798 
-0.05198757339928339 
0.02355980605446088 
0.01520533129073514 
-0.04281158848784902 
-0.01741160461626581 
-0.05539315518693115 
-0.09654723077392761 
-0.08981283236959882 
-0.09423139879645358 
0.04899417458776022 
-0.02166729964680251 
-0.001324381454670488 
-0.08471262244991877 
-0.07834930813107203 
-0.02688821669388429 
-0.02932702738468692 
0.01439004639359447 
0.05296815116652527 
0.05424991886821098 
-0.0261202325133402 
0.1781719669328727 
-0.05236220969407394 
-0.0005130332961376331 
0.05123958202267129 
-0.05191286540805339 
0.07292516152674626 
-0.009424875745904195 
0.1028211387192271 
-0.1528224585193227 
-0.07123965650346775 
-0.08329239788365704 
-0.03765867786652289 
-0.05027054866735991 
-0.008048893198862329 
-0.09958427190695156 
-0.08221516041664105 
-0.1413980839325038 
-0.02962052231694624 
-0.09037397335912153 
-0.08513649374576587 
0.01718129267238337 
-0.019318350524494 
-0.04456699484050156 
-0.01564772748132703 
-0.07601032943365248 
-0.05884470067909643 
-0.04785445343594605 
-0.03903856040754909 
-0.003870198613037291 
0.05233258743782732 
-0.0649119162556349 
0.1029433367748877 
-0.01467664752764247 
-0.05333914090280715 
-0.06625846247242032 
0.06240409409609011 
-0.03952680643016707 
0.008758855329549571 
-0.09512180986516731 
-0.1003366398825056 
-0.009489363023509561 
-0.05526597279318755 
-0.0715805487202716 
-0.06896775892077407 
-0.04792137169148129 
-0.0856287946217392 
0.01796440075419853 
-0.1001313018162407 
0.01556848651074762 
-0.04032749739913781 
-0.002331871197476168 
0.02274163527582217 
-0.05941267217215287 
-0.0695100929002066 
-0.0007401142491938967 
-0.05730773749986035 
-0.01769115032481026 
0.0655056098048571 
0.08860835382259034 
0.02954825714369867 
0.08017722054602244 
-0.1276235214710605 
0.07909324468817996 
-0.003648857551195013 
0.1035448026932784 
0.07119815448049568 
0.1321482165208137 
0.02220102969915964 
0.08658319975644393 
-0.05878016985956701 
-0.06808278933052453 
-0.07360594536818064 
-0.09443251924304637 
0.009020541484636152 
-0.06288858859665188 
-0.03453439700961243 
-0.03023080360229239 
-0.005058321441376601 
-0.06901567817180956 
-0.05410725763946957 
-0.05053416260305008 
-0.07091763855582212 
-0.03434176989309631 
-0.03581952410102398 
-0.01263345533393753 
-0.01857490106671392 
-0.04839696372962989 
-0.05487831241948156 
-0.009656651298812418 
-0.01139012237402028 
-0.05076447255231815 
0.03747815077126361 
-0.08836077497307902 
0.04000247157370337 
-0.003444293021232144 
0.001041275226767984 
-0.0094638352296959 
0.05016688437686549 
0.03794708246234202 
-0.04472452829848009 
-0.08796462084979854 
-0.03014255691931254 
-0.1314166441461665 
-0.03004467552800165 
0.003599753568063546 
-0.06394556751950381 
0.01026711569083366 
-0.02787804093578135 
-0.01147093866373653 
-0.05888781569595807 
-0.008934656507537768 
0.01255171219067193 
-0.008011819183424475 
-0.06865874426163777 
-0.1073655249795366 
-0.06749515959826224 
-0.08375065427266222 
-0.07586512363163575 
-0.05085890771759764 
-0.02346215512041023 
-0.003974811866450773 
0.1020186163642139 
0.008235373569207862 
-0.08151433531727581 
0.1017067541540075 
-0.04436598822385358 
0.01348629209426066 
0.0119045348183184 
0.07099233566837965 
0.06807424758108313 
-0.03434784240845165 
-0.06510458379242884 
-0.05115974942130155 
-0.06909999742775597 
-0.02802973505286332 
0.009810276219890701 
-0.03177948455707176 
-0.01894340645977208 
-0.1319150475880219 
-0.06298927886656878 
-0.09549279603853346 
0.01983418192478105 
-0.02673570734586979 
-0.04310358017810864 
-0.07353481741868038 
-0.08129669532404986 
-0.008319224306552271 
-0.1075253971677877 
-0.04519548721458919 
0.01456885645597038 
-0.001436288507637113 
0.05350598460137722 
0.07106168443855652 
0.0296242531035539 
-0.1136303547193356 
0.1009731442685955 
-0.1294573909541149 
-0.01172243952379076 
0.06062599092945649 
0.06536026282436827 
0.07588018374567126 
-0.04633357026101402 
-0.06683727971270773 
-0.07052918888119246 
-0.1185944896965066 
-0.001324190360653494 
-0.0611461051892126 
-0.02608441039897424 
-0.08902233435236584 
-0.1163641971197587 
-0.01637436809720128 
-0.1014099516512399 
-0.06963176882431157 
-0.05008860645576345 
-0.04411383527704928 
-0.069566648503848 
-0.03879386406943516 
-0.07693861138258724 
-0.06570608965395534 
0.02126695363961243 
-0.03098438826043708 
-0.02083741029719777 
-0.01482441823416529 
0.05836111844319673 
-0.04689794364142837 
-0.0285930495558331 
0.005314665424298681 
-0.0854673976449076 
0.06667947176751897 
-0.02002529672887573 
0.06545156693780847 
0.03895307734524159 
-0.0933585702138811 
-0.05172366554768827 
0.04091195099098238 
-0.08223814353648727 
0.04352684532997332 
-0.03040981693904466 
-0.03066940104590234 
-0.02442343353364658 
-0.154651076206922 
-0.01617530439155269 
-0.06418057229143798 
-0.1406546419106721 
-0.03355475354386213 
-0.05388426058840018 
-0.02938187104664372 
-0.03141125414273109 
-0.01471530619780484 
-0.01083073796944473 
-0.01735594606297994 
0.02469657310855852 
0.08687684671372975 
0.05106380884728196 
0.1407888675790026 
0.05979230273705839 
-0.008934719733692158 
0.1025531720449581 
-0.06753067946050563 
0.0314057783780357 
0.07521296704662463 
0.06701570427122271 
0.1434809517669268 
-0.0389758998594212 
0.05061843912707311 
-0.1121184537376835 
-0.04995630435890601 
-0.1020802889084911 
-0.05555918303452626 
-0.0179255491710636 
0.006073158129809011 
-0.05683694585938854 
-0.005864361028075073 
-0.01588128790437546 
-0.1161075388245937 
-0.08485782388197176 
-0.1108898841254928 
-0.009289391745684526 
-0.03975035731388088 
-0.04014922455478399 
-0.01784173183179063 
-0.04668384915181305 
-0.09632014521923342 
-0.08605101888340716 
-0.03717182777178318 
-0.04326156174174774 
0.04317724632150686 
-0.0328287669962759 
0.1017363075040143 
0.0093442541694389 
0.02027396384566052 
0.007761937852459634 
0.001576935087068835 
0.08700269400277535 
-0.08398352778220747 
-0.01261915597203027 
-0.218254277054149 
-0.04103686165130685 
-0.08784545636035636 
0.03892729332108421 
0.09396455362881216 
0.01672698131007613 
-0.03380788693382555 
-0.02890200126749827 
-0.05822820390969622 
-0.1273953356262727 
0.002345148108981996 
-0.01831906455509784 
0.002280416795057372 
-0.01142896444366552 
0.04323554169922331 
-0.05102292458125029 
-0.08552742250889447 
-0.03767461823065083 
-0.1599526389360349 
0.01416322432847642 
0.009410454888687936 
0.05375274182499862 
-0.04637865152128516 
0.0697675030813376 
-0.03261547255661308 
-0.02845997655031504 
-0.01708432518044658 
0.1287642634412882 
0.04289742686544853 
-0.1289170377456138 
-0.1075142822274937 
-0.1014424832783711 
-0.01948663651859849 
-0.06830091945680773 
0.0214007166929318 
-0.02953376698964284 
0.0462011390362111 
-0.07678788463363391 
0.0863296639323516 
-0.006709563635086848 
-0.03063883479237454 
0.002338946565193341 
-0.02333268046450866 
0.01793423745240947 
0.0453472175443913 
0.02787564988616033 
0.04791162394176716 
-0.09976573250568292 
0.01358519578999082 
-0.04507194898551005 
0.03056386951003013 
-0.01889497197166809 
0.04363412504942441 
-0.1088841087473466 
0.1028086180768596 
-0.009655702002473718 
0.06518201242417657 
0.08359300926923752 
0.1602294899583614 
0.05254827798636769 
0.006876473943945512 
-0.1521137820331081 
-0.09487591166003488 
-0.09913189762581269 
-0.05084413093362282 
-0.02476051564565372 
-0.1041308380442054 
-0.04645003918313045 
-0.07640337638660039 
0.0149092822135747 
0.004147781061715582 
0.02259407372087638 
-0.01699239935977877 
0.02255043977785775 
0.01979641057852952 
-0.01688156985867666 
0.05006193025575456 
0.006740323155625256 
0.004860947687843379 
-0.01699156314086635 
-0.02233897776636047 
-0.02881179698531508 
0.02310775619731187 
0.04048658929339126 
-0.1219167364699856 
0.03077062224962628 
-0.04767741046316822 
0.09345796002050052 
0.03553532037963914 
0.1176665580261563 
0.1033030424694688 
-0.08097142352722066 
-0.1387662412655896 
0.01998337944527313 
-0.03906408594584607 
-0.01552741816894943 
0.03677972652559909 
-0.1200316317246168 
-0.03708249529359123 
-0.08858515240043043 
-0.004831057511996074 
-0.04921934090947772 
-0.04676475156825299 
-0.001605371187083418 
-0.03007230420056214 
-0.0268685477917073 
-0.07613350333991944 
-0.02652975298748208 
0.03964876291034535 
0.001996689667948927 
-0.009282501669606515 
-0.04681549419968392 
0.01748218346714282 
0.0511195151839887 
0.02882648776128189 
-0.1856364591201782 
0.01404989054184283 
0.01711360113452358 
0.01014361361985826 
0.02517149935668292 
0.1262488238623211 
0.1199941360527843 
-0.1126942542840322 
-0.1658611936910535 
0.0638487827645671 
0.009975014931663495 
-0.007277434752125709 
0.01077177897837065 
-0.08004544238323373 
-0.04841630399501114 
-0.03416846591329118 
0.02332052066661527 
0.02787251341657419 
0.02481387608281668 
-0.02701548278855261 
-0.0326613675633162 
-0.01855356867249992 
-0.06150355561588166 
-0.04213806182346107 
-0.05179033440027058 
-0.03135672674761898 
0.02739025128722045 
-0.04516397186998916 
0.04253728281036093 
0.04056671070130594 
0.04995720977742775 
-0.185585663987334 
-0.02076255350952073 
-0.03868291738981745 
0.06589731921336643 
0.1176263736117253 
0.1477942639950891 
0.1253274792088508 
-0.1213966543054358 
-0.1392848089087978 
0.0002935430741128858 
0.03978866434593457 
-0.04742109875528082 
-0.01490641307987953 
-0.04402106865826819 
0.0004854292527566406 
-0.05883672649064579 
-0.03031580569595234 
-0.07604838287633066 
-0.08873479160993859 
-0.08325755731854051 
-0.04695379467688873 
-0.02219279627708183 
-0.06582848835217604 
0.009614552651813907 
-0.02779068547204275 
-0.03279405678773405 
-0.006037728270045777 
-0.04426349207854562 
0.053366521225863 
0.009488883523829999 
0.0242766876221847 
-0.1258124827419352 
0.06335423167541465 
-0.02223285665048006 
-0.02091733490895897 
-0.01749783874675673 
0.1092342546713688 
0.1126406368869629 
-0.1631038659081774 
-0.0965954063352281 
0.034872371004325 
0.02297986161646858 
-0.02776114069676269 
0.0005042946651677366 
-0.1024495605199644 
0.03054933580282177 
-0.09057203643133052 
0.03530841767075334 
-0.05635740632555655 
-0.09232864828680637 
-0.03416209047916582 
-0.03261392199369451 
0.01926484102102648 
-0.07065562726722303 
-0.0520509413383773 
-0.05093810444539813 
0.04015031378061608 
0.0171800510391916 
0.01653095526141046 
0.06737050155502956 
0.07294765868973306 
0.09305518757983336 
-0.1707534845698868 
0.02410229253745937 
-0.03466724331870775 
0.08294447217854735 
0.04010922073978699 
0.06954315680973167 
0.1727156169754566 
-0.1481683841723227 
-0.00375060797350057 
-0.09368091839849349 
-0.06199106051823315 
-0.07396832115122183 
-0.0314748580246593 
0.01562745310618816 
0.1232130621787678 
-0.05321095319705495 
-0.05713938403032902 
-0.03503505730513912 
-0.1028697532974361 
-0.009064740014242406 
-0.07642441365435984 
-0.006073271616690594 
0.00978417217663196 
0.02671576034708061 
-0.05497787188283832 
-0.04007486179485246 
-0.04551124561248856 
-0.106837598123475 
-0.007829944328589675 
-0.009293011551095881 
0.03152106847862117 
-0.04266125041259276 
0.1132896900751696 
-0.04980277940971422 
-0.05629937427744507 
-0.0083618898589089 
0.03680209602410821 
0.107517582834015 
-0.1084238503326652 
-0.1001365226091579 
-2.083517686259165 
