solver_type L2R_L2LOSS_SVC
nr_class 2
label 1 0
nr_feature 21504
bias 1
w
0.2404690463812106 
0.04489696880144288 
0.2038716915524851 
-0.09378558747173878 
0.0007148620843274774 
-0.1546495955901653 
-0.08478633871071811 
0.00312075717897358 
-0.1219133647804313 
-0.004650484431419365 
-0.0007046545946385373 
-0.2378786201036644 
-0.08902216443716261 
0.0370219863157271 
0.1526480913107255 
-0.01831061878016846 
0.150842334784403 
0.1023453892978652 
-0.09194351163742295 
-0.1100065235257107 
0.044493461497145 
-0.09163528931418037 
-0.2353512783724622 
-0.114197298208475 
-0.02240874340760118 
-0.0002874381949641456 
-0.1335190737894077 
0.07216081473467603 
-0.03729811654858806 
-0.09889108613404532 
-0.0106578033340856 
-0.05904030905147445 
-0.06808185831996773 
-0.02863733751227747 
-0.05415205933856615 
-0.1340861072760072 
-0.06250168697930279 
0.1172947910113593 
-0.07906233941950169 
0.09605779584194071 
0.1602288655567743 
-0.1597635440821929 
-0.1394340223811041 
0.06330759524745186 
-0.2153900647964445 
-0.04535637204257879 
-0.04708876568389135 
0.08094220867692013 
0.04671152148779072 
-0.2838266596861238 
-0.01199839084452223 
-0.1352099731385646 
-0.1264370544330257 
0.001065691768550441 
0.01297599161930367 
-0.01613019180967487 
0.07727618576951951 
-0.002852182956096661 
0.2431905758893765 
-0.2099154334851469 
0.1898208082602804 
-0.05303621472140678 
-0.004658296939289271 
-0.2288386863499317 
-0.1239820599914693 
-0.04244175572262238 
-0.1313219445479848 
-0.04228454196408027 
0.2166627852639501 
-0.08162319806582899 
-0.1818104366396459 
0.07689477975389346 
0.03701683275158843 
-0.06114052584105945 
-0.06286309018621505 
-0.05114280827058802 
-0.0005186023713813371 
-0.0324695465855048 
-0.0662527462908387 
0.07665323252816805 
0.0258427455135448 
0.2490521334549082 
0.2452885811909351 
0.03012337862025431 
-0.04468659171214355 
-0.1453429276038685 
0.4368937039163028 
0.1303819523842648 
-0.04216472755770775 
-0.1756812272476424 
0.05648613872529949 
-0.1054814231677645 
0.0914284093098839 
0.1168542308808038 
-0.02683164859044854 
0.1464150755960636 
-0.05539511642640415 
0.034160654381795 
0.2420661630769033 
0.09335568023804615 
0.1367357067886292 
-0.07826178450260809 
-0.08634166474974259 
-0.1076053125354886 
0.2574332877074116 
-0.007639498389193668 
-0.06446127156962669 
-0.1812694754040765 
-0.03109939451776846 
-0.2831758527747066 
0.2122805497824478 
-0.05968249131292518 
-0.05333530171861112 
-0.07552885322729658 
0.2230627548292904 
0.1446652456027004 
-0.208459162881667 
-0.02053184038102773 
-0.1882612999006465 
-0.03598456300210086 
-0.1057680953413958 
-0.00842694715062076 
-0.2168924455987817 
0.02157125084907793 
-0.05726934044442219 
-0.0423667394163305 
0.01756733129247364 
0.03493972418413806 
0.1358065463924142 
-0.05485905223408302 
-0.2450830454090945 
-0.07401238526446148 
-0.06403467034593986 
-0.0190827531624789 
-0.1309745936640426 
-0.1291254310959547 
0.3876042859323917 
0.1310370336538293 
-0.005350772150776527 
-0.08536048392884402 
-0.06928071083089456 
-0.1640360379506924 
0.1666758268989543 
0.1768990816010824 
-0.05089482054578588 
0.1949833473986251 
-0.1047725775874561 
-0.101367292892496 
0.07691216283370914 
-0.306432131324763 
0.06724816104965847 
0.09867218256094423 
0.04408148194790932 
-0.06307112393231294 
0.02796101112594295 
0.02644911191992157 
-0.01406879392411783 
-0.05665451724301713 
0.0948485531551118 
-0.1066028172927317 
-0.05892697929516621 
0.06447640537713691 
0.05971765670215516 
0.0591094536829459 
-0.1010162139307816 
-0.07200360383093424 
-0.04019457179642182 
0.01017538504001144 
-0.1011315743793092 
-0.04924166211954555 
-0.08307990264682548 
-0.06096396430625924 
0.1633537726315215 
0.0185347728637823 
-0.1255259819832252 
-0.006669270638936918 
-0.09072644934448257 
0.1560310174781171 
-0.09840066145826515 
-0.06214363694261862 
0.0643522569685159 
0.1261607895042609 
0.03867761522248677 
-0.1803669366044328 
-0.0382183788510287 
0.1198314484790784 
-0.03882194888765075 
0.03581689188840751 
-0.08244825126588338 
0.007691839697617156 
-0.009571668009747524 
0.27585144147348 
-0.1633888683390884 
-0.04810224081582201 
-0.1287690374742002 
-0.02572854175866119 
0.0219487913967929 
0.03731207030191139 
0.02873034554095118 
-0.1176534294724956 
0.1066893213629708 
0.2952499502880472 
-0.2760396949607853 
-0.1717721182571678 
0.1499178218281428 
-0.135772170461358 
-0.1196561183292122 
-0.02535654626400994 
-0.1720439165810302 
-0.09759827214843624 
0.02046321592897419 
-0.07431431553275311 
0.1662690631465662 
-0.02765943964675779 
-0.154655906147456 
0.03873585669358534 
-0.07479296792645876 
0.0813646425913471 
-0.06501875928237152 
-0.3610138044881392 
0.06410350288062973 
-0.04025373284300143 
0.1284114173876071 
-0.03489790034121463 
0.2940854344079649 
-0.02462227206764724 
-0.1180764894730498 
0.09344815998991408 
0.02406180122345455 
-0.1704290425847711 
-0.117252393766199 
-0.001066117850157017 
0.08243696483773887 
-0.124126990343101 
-0.1429025812735772 
-0.04128086467966336 
0.006921259981913832 
-0.07933295489676068 
-0.12027520024316 
-0.0922882541351034 
-0.07789567172573758 
-0.01836917752051016 
0.1003507692883527 
-0.1775398190207056 
-0.2685994500865864 
0.02954358710986079 
-0.1579980021461305 
0.04386584638281602 
-0.1070792870029641 
-0.03784170548645792 
0.04999966499553878 
0.1053659683388307 
-0.07641438944967495 
-0.06973317773837251 
0.03566627019785822 
0.2032246953149572 
0.03373012898700956 
-0.1354286401347755 
0.2638411099443241 
-0.05945070319908802 
-0.09704230716511666 
-0.1932323144692767 
0.002968169665706975 
-0.01327688980839796 
-0.1265082312731194 
-0.1027815521559226 
-0.191483814192513 
-0.07251475200867571 
0.233190657849381 
-0.2545476963377162 
0.02250146024094319 
0.07436364495610831 
-0.0454873341106708 
-0.06122585315256429 
0.0006777391140211451 
-0.03608184794221622 
-0.04598434709689112 
-0.1571027769555336 
0.1783900805357889 
-0.03993639802940448 
0.1729546958881561 
-0.08373659995988762 
0.1425850600962288 
-0.08097810549242423 
-0.1155248435042159 
0.1030807719191783 
-0.01570823707335798 
-0.1868481802476492 
0.1174257636649278 
0.0146471607235942 
-0.00040501511222687 
0.01115320329517584 
-0.07718788858704667 
0.04036543104725988 
0.02320562589388602 
-0.1055016901889585 
0.09764930243286665 
-0.1076314825444022 
-0.1486842077706121 
0.01037649265084391 
0.3026334461715245 
-0.04148465424377235 
-0.02181343382285136 
-0.09681292915552289 
-0.007603658393864115 
0.139758460882777 
-0.2154228536785422 
-0.1670088766917156 
-0.1664289977064812 
0.01883625538204652 
0.11461215696592 
-0.05915255044526942 
-0.1147653730514052 
0.1339735095186961 
0.09479688478903324 
-0.2120880014093199 
-0.09695239046221606 
-0.1456196633518284 
0.2235851362064432 
0.02506796478004729 
-0.1046026499887997 
0.0825069448039215 
-0.05001817494439602 
-0.1191703639272374 
-0.01712321640013595 
-0.1557240825205707 
0.008765155470184355 
0.06088194606181944 
0.2342506719329047 
0.08724106913192575 
-0.07465725486601989 
-0.1412183632563866 
-0.04084347657350896 
-0.02345199263061152 
0.01484751216159036 
-0.165759353923088 
0.02127075474545349 
-0.01074003194308524 
-0.09829922351260181 
-0.1184129700900483 
-0.07197996577565653 
0.06865426074973703 
0.3048757679568604 
0.01693802469005682 
-0.106228497320789 
0.003902492001507251 
0.1263511435595869 
-0.3275587836006216 
0.02908754368242431 
0.2494692565986071 
-0.01113091824527226 
-0.08302649377786581 
-0.2264553259281974 
-0.03224897952828318 
0.05293584925191977 
-0.1207297292758605 
0.1498701595085097 
0.02324773495922558 
0.1895944736135542 
0.01438465529733786 
-0.09029581859891167 
-0.3283267776931821 
0.04557695967118545 
0.02594945849484518 
-0.1448576361252603 
-0.02573866550748728 
0.04291233051185706 
0.02770344375685228 
0.0157543115794679 
-0.007944410268767632 
0.1617733458198686 
-0.06898566069026346 
0.04095246305480401 
0.00580661684032699 
-0.004880516754612844 
0.1231240720301593 
0.1386259825257255 
-0.1478091846040418 
-0.05866480725006482 
-0.08926668212339912 
-0.09332784609624606 
0.118947270307343 
0.03432665255006571 
-0.2105754118065301 
-0.04336598172700633 
-0.07948532009726487 
0.004770599282444972 
0.02958659866749885 
-0.07820691282466037 
0.03787178438964636 
0.08343175327735546 
-0.06119279796669053 
-0.03615569933507406 
0.1075873906117439 
0.1766569281820627 
-0.05599193385205316 
0.03174083661582435 
-0.09589474973537961 
0.05505018888565973 
0.004486047556441296 
-0.07485326933722274 
-0.1210329906660508 
-0.1153637720936322 
-0.06882831681847601 
-0.07944293712167877 
-0.1684138211085784 
-0.06641215665692439 
-0.145909711526072 
-0.01407790286028376 
0.07657582145574368 
0.001198275471001099 
-0.0152699942549545 
-0.08078975416154298 
-0.1850443384795803 
0.0480619236166967 
0.04991903981323779 
-0.1107934569387642 
0.1364597354607411 
-0.03926444632669308 
-0.1025628965704849 
-0.1530434983443105 
-0.05325092939694515 
-0.2206872542544927 
0.02741715342265629 
0.1113441629247842 
-0.1221176721109362 
0.1339951131456261 
-0.04468344453319458 
-0.02901601049684201 
0.1127280050155699 
0.1308428493562565 
-0.07264271672443547 
0.08063438497313725 
-0.05389135415781745 
0.03596344784511411 
-0.01909208710771641 
0.06837839209782155 
0.264678757881856 
0.08368804484056688 
-0.08218694827043904 
0.07098847500847959 
0.00423429865345853 
-0.078188896725723 
0.0952366832896557 
-0.1518277739867195 
-0.1209040741995002 
-0.1957441120892752 
-0.1382189545690809 
0.02638315836430459 
0.005214902661670282 
-0.1771687403097237 
0.1008820204369509 
-0.1127772102654238 
-0.08177545250207952 
-0.08870738976157433 
-0.09474992860517741 
0.05119982599183719 
-0.02758178333180103 
-0.03317065134866141 
-0.06914641295338883 
-0.1101367419983535 
-0.05842523133687493 
-0.01338385725993926 
0.02295526319466985 
0.112046173136198 
0.04340343607272815 
-0.02049938356785806 
-0.09370926842866067 
-0.2605696632111922 
0.005022824885793149 
0.08764561702035614 
-0.1777668232489178 
-0.1737098728559634 
-0.1476341514219738 
-0.01069085946423963 
0.06563122017876095 
-0.1319874516180587 
0.1569766766780749 
-0.05218370907879175 
-0.03821500381415736 
0.0426034388339344 
-0.1343073175913798 
-0.06762434852646709 
-0.08687274920723273 
-0.1599300710464811 
0.08627418355392542 
-0.08396968273069999 
-0.1495039213762365 
-0.1113398553310971 
-0.1966550017599032 
0.1218603912296313 
0.2460114377869647 
0.1262337949614623 
0.07834319648355291 
-0.2425391202003417 
-0.04935424511802958 
-0.01028695928131885 
-0.01080904937064948 
-0.001068861196553307 
-0.1140805077843192 
-0.01834111327642051 
-0.1001461144662403 
-0.09584259798348743 
0.2532170328807999 
-0.2139596018470267 
0.01199876766224362 
0.0147032894619216 
-0.1046992758806291 
-0.04816364390343463 
0.04521538498573862 
-0.06799438867326664 
-0.1183763245905546 
-0.113135748809262 
-0.1019185804069378 
0.184884262656983 
-0.0428257212986334 
-0.0767748669424526 
0.04164399452274675 
0.1837725783836422 
0.1474793796102224 
0.1978171694152468 
-0.006855068354900958 
-0.1163074070688141 
-0.1880237934601136 
0.1135733813383367 
0.0048456342794609 
-0.1038223921964019 
-0.04093900260809839 
-0.02705048238081431 
-0.165058221046128 
-0.01522716370486464 
0.05596225666575352 
-0.001147776798490576 
-0.1000372956964476 
0.04502335861300059 
-0.06794718235136919 
-0.08837256191049164 
0.02734774371303374 
-0.02873933281390296 
0.1926069454886837 
-0.05119352628228423 
0.01931076375704887 
0.06658905860985292 
0.1026505804326785 
0.07813676944732667 
-0.04078036322615534 
-0.02304035826304375 
0.02680070701150919 
-0.06302333335619957 
0.1132441676109249 
-0.1042141925049791 
-0.1141009804969331 
-0.2250424566897052 
-0.1042118134328853 
0.01442895673786423 
0.06701059996174882 
0.1925604030723483 
-0.05519174641130354 
0.06068433020382494 
-0.1145622974178662 
-0.2182686935343895 
-0.1420767792791801 
-0.03412107961524641 
0.1389513893940209 
-0.0510153124730427 
-0.0408375110850837 
0.4751879979737693 
-0.05581431035682979 
0.06104026698081277 
-0.07213951409129533 
-0.1263992485321887 
0.06818642452187684 
0.09428437316176108 
-0.04241626271815077 
0.1096367191847069 
0.1627760675044916 
-0.003006769651371085 
-0.05480103671306527 
-0.01638647000489926 
-0.1183394844995875 
-0.01906593187693289 
0.1163084490193226 
-0.004159273602837749 
-0.05690817343195063 
0.03838872722352082 
-0.03554703795516743 
0.1415348758794454 
-0.006904714485142814 
-0.09004857778943437 
-0.05192368956826166 
0.1181169493439262 
-0.01726130793582874 
0.0389874279937357 
0.04669462636325946 
-0.09191877026936064 
-0.060206661542865 
-0.02314512766819711 
0.07667648619837258 
-0.09593495493409519 
-0.1493219049814536 
0.2482174495264334 
0.1995000358246811 
-0.1555246289535745 
0.09536131205584183 
-0.1476629901144781 
-0.1054890040984185 
0.1480885063581618 
0.1380807775172641 
0.01976855383823323 
0.05823526401338288 
-0.04455936622568686 
0.06466825472865034 
0.04375329742891952 
0.1060305423868262 
0.2519814049338265 
-0.05603013485890548 
-0.01127000797448502 
0.04688840594071852 
0.04228793266707586 
-0.07327751671974858 
0.03099991508043922 
-0.05637031459372264 
0.03124926480800633 
-0.1182848793642375 
-0.001141010422070876 
0.04338685821652261 
-0.1698536626182904 
-0.005825773833554527 
0.06815010603793789 
0.1334523431922232 
-0.1672482086267554 
0.05526616279735413 
0.0720880226620821 
-0.1084663777340151 
-0.1329443711791181 
0.01186332920148222 
0.009422815411124906 
-0.01678718707348715 
-0.1012467045758097 
0.06790300564337665 
0.03117008631462537 
-0.07994235918413754 
0.002574793871311312 
0.06566767150368397 
-0.0148520112548346 
-0.05701474727940602 
-0.1206305752894321 
0.0007449653958706735 
-0.1315053883844964 
-0.02921139507852855 
-0.2367225026704403 
-0.1846507189396581 
0.01850985393533806 
0.0469821780632699 
0.1836633744723132 
0.006680924930943111 
-0.08447020481665019 
0.09897708142648882 
-0.1072878418579647 
-0.01138477060793918 
-0.1660554387235889 
0.0119572273076624 
0.07758147158348111 
-0.1623756466716459 
0.1949954964595834 
-0.09883088906971985 
0.01090462591365027 
0.03256614446542767 
0.07240393688016612 
0.07793320719040667 
0.04305961386194732 
0.07594015203886197 
-0.09799962346955396 
0.0189748253480095 
0.1481574714007062 
-0.1803730361863325 
-0.1452210303919913 
0.2702448830219238 
0.1419278261167031 
0.1283074929677919 
-0.1122942790599517 
0.00472429960615503 
-0.01395339469372516 
0.06221956533818144 
0.0444139839889386 
-0.01928526728921234 
0.01260720542278809 
-0.1028001355833202 
0.06485952470505224 
0.002854079684275662 
-0.01597178914552889 
-0.06706665411531751 
-0.00726514776534893 
-0.06123722380989055 
0.2024657531908544 
-0.1225029616083608 
-0.168346100477504 
-0.03288814864268659 
0.0925296093169888 
-0.02376577615991372 
0.03314410243928117 
-0.126455908786748 
0.03648992721519412 
-0.01930838007035696 
-0.2403142507931069 
-0.1036243366857568 
0.08660910480270245 
-0.1140966099644415 
-0.1715917222555525 
0.2267539495752064 
-0.05444589928780199 
0.07277236457215377 
-0.005888057521380472 
0.110838923676627 
0.03091581443666353 
-0.07726728552820136 
-0.04390237841301951 
0.07610471955765495 
0.03756224390066743 
-0.1457998987243001 
0.1219804699793188 
-0.1179840585364866 
-0.2272558740443078 
-0.2102385890126394 
0.1016690657158182 
-0.01536702995366992 
-0.1176893151229453 
0.1910547804421646 
-0.2220590218400162 
0.09433212920725152 
-0.007765302399980255 
0.01632503337621537 
0.4852814477429047 
0.09381126004669989 
-0.02520851650090748 
-0.1729232096003841 
0.1428039233720243 
0.01171578431571905 
-0.07428492893577605 
-0.01747282445282767 
0.07307457545367915 
-0.103818587579399 
0.06267429492302097 
0.001636120098642596 
-0.0286675587277164 
0.2961135614023145 
0.05780559577594183 
0.07345024261550238 
-0.04743048595754984 
0.01373442891303381 
0.002156729788140949 
0.03488699376654458 
-0.107011674315886 
-0.07494969805735431 
0.04682744176768894 
-0.1643223748769535 
-0.06375253095842641 
-0.0978390928520189 
-0.03300980683088482 
-0.04908642602222495 
-0.07398198873756687 
-0.03612244680810896 
0.01871804857717804 
-0.06471396654700162 
0.1896508357677154 
-0.00188539197053305 
-0.08835628876958421 
0.01774034124436351 
0.004433766957263303 
-0.02152658968890259 
0.03984188280800129 
0.1050645901424442 
-0.1419949888314076 
-0.1711251737963676 
0.002620164523108866 
-0.1383096936197797 
0.01948320610298285 
-0.1186775560681117 
0.05350945898939925 
-0.01528970937555634 
-0.1062329500033761 
0.02922831841641532 
-0.09258218472113265 
0.02506878678532261 
-0.07072422482240709 
-0.1225777086066493 
-0.01996065412738301 
-0.03830313482869328 
0.006061764196852688 
-0.06308470971103831 
-0.08753710646085205 
0.05967335876133252 
0.01624339785090643 
-0.08961952554538248 
-0.04214794986537555 
-0.0898825766365533 
-0.03151420598651603 
-0.08694135886834123 
0.04980999035012613 
-0.121760933786899 
0.1787257247398932 
-0.1346326121137391 
0.03184725236520272 
0.160797318472985 
0.1849210370210741 
-0.06220858650740546 
0.01523361673708088 
-0.03206962735370006 
-0.0603558189213586 
0.02494584976325886 
0.07735819346334204 
0.01981089327289315 
-0.08205281788165714 
-0.1609633782800138 
0.1729084150642668 
-0.2686958984313508 
0.1548071675853132 
0.01087656855125472 
0.03073933876924987 
0.1357300138978451 
-0.08386952315474658 
-0.1733675006324822 
0.211871001519949 
0.02734485565841055 
0.04098253388472321 
-0.01795381675497859 
0.2219766666917797 
-0.02891846631508042 
0.09340659425146415 
-0.1587690756328851 
-0.07178926448160453 
0.01454957856398395 
-0.1927673512737345 
0.05932904121034893 
0.1626414139163198 
-0.1999357491813995 
0.2377636563694845 
0.3246300845202822 
-0.134283110942558 
0.1033722937563943 
-0.03084106383139394 
0.01839431367464422 
-0.1648051578627752 
-0.1090323779782408 
0.005409625941835358 
-0.1065094847967177 
-0.1022946022182653 
0.07901371325526949 
-0.01126668034938477 
-0.2518760797680767 
-0.06209473663257533 
-0.06407607989436401 
-0.02438724320644848 
-0.04555187737421147 
-0.1476313259752293 
-0.08451040958864574 
0.01641331322667179 
-0.09651915051812557 
0.3409399535495377 
-0.02336177537138825 
-0.05642163298336607 
-0.1458141309517096 
-0.1400062907409831 
-0.01313251480430816 
-0.1896060267273083 
-0.02973754502186481 
0.0178314842647297 
-0.02228058484490741 
-0.1209826167391001 
0.06243563582891432 
-0.1739953188755523 
-0.000352761884399257 
0.3050932883684451 
-0.2392757268501255 
0.03377770324228455 
-0.06910687059941537 
-0.1174277507631398 
-0.0482661158187255 
-0.2632330070359019 
0.1914546236927545 
0.1939315181109428 
-0.1044148297493579 
0.1733891905237975 
0.02356421697925542 
-0.07429793189146773 
-0.007299445671473722 
0.1055590751143385 
0.003873526752311184 
-0.07054954372953236 
-0.03124666840683036 
0.09917537980441174 
0.03240692756949706 
0.01604119146421023 
0.3652643652940038 
0.01389523568420795 
0.09002427436811819 
-0.0654371009052095 
-0.01326251641071663 
0.1418080116024628 
0.1889037623148628 
-0.05697528255970588 
0.1529366748202787 
0.05949880931741144 
-0.09315530802744863 
-0.004718767212913191 
0.1387637237941255 
0.09330477110975383 
-0.1226586403622549 
0.1320054215062575 
-0.09251039959604648 
-0.02773274694171417 
-0.2119537683226214 
-0.01266948351547624 
-0.1634450207912239 
-0.2138180225670665 
0.006959442396379988 
0.0535384440875048 
-0.02571826507763918 
-0.07615535344340538 
-0.0472568272113336 
0.02640163845206311 
0.008940459531288771 
0.08766440557099647 
0.1297306884412146 
0.00371111086543947 
0.1361071230333221 
-0.0707941198324534 
-0.1400631442520261 
0.1728782009793338 
0.1479668415134001 
0.01497879444477195 
0.03277244599191807 
-0.1955266279487597 
0.04199780690120715 
0.07523969027069709 
-0.1504959501455286 
-0.02404793099480826 
0.05688647300076286 
-0.07605138327359615 
0.03924223679287758 
0.06596604179032355 
-0.2922230742065395 
-0.0750534295944416 
-0.1142885956541876 
0.04137038977510724 
-0.1498656376334331 
-0.336371605690046 
0.0911068005811175 
-0.07460090272560187 
-0.003776778778690155 
-0.1107281471682441 
0.04015347730333451 
0.01393020765631382 
0.01104827112603114 
-0.2528802087879639 
-0.1571242837807078 
0.1018687159607837 
-0.0218479261480455 
-0.0125891010574557 
-0.08838964485312858 
-0.05245457168777014 
0.06435935489698275 
0.04382219562895778 
-0.1353005739480248 
0.1880045432350318 
-0.09024688859225971 
-0.1064997477052118 
-0.08012956252016479 
-0.205809950161076 
-0.07519120597916977 
0.01387736488846696 
-0.07584683710118328 
-0.1292427158886809 
-0.2520979482770432 
-0.006892023523242456 
-0.04816436966057155 
0.05923318479598979 
0.05894329133163551 
-0.0942402607874756 
-0.09996424394902635 
-0.0963089893208697 
-0.1154553303105256 
-0.09194549789040765 
0.06506323465455088 
0.06273153828993482 
-0.1695654571511003 
-0.06251323427942156 
-0.1859510954678102 
-0.03201666780646134 
0.1885820689977091 
0.02160368868481806 
-0.1584605279568812 
-0.07669175598002982 
-0.05310078994457364 
-0.05673322196747312 
-0.1430774708903471 
-0.03113544303602364 
-0.1815921507225976 
-0.03892284501011758 
-0.1350176960379965 
0.1842295266416773 
0.07379388219986487 
-0.08049058765370506 
0.01823652409644657 
-0.1959949844632265 
0.008455782907052992 
0.1781123839690225 
-0.3018988418536387 
-0.1196075638192676 
-0.07486334836490365 
0.02625489721739214 
-0.100401899999554 
-0.08135684214595033 
-0.08228335198585146 
-0.01660183397602035 
0.05212805780928401 
-0.04512710442360807 
0.1560368475050688 
0.1888159991214644 
-0.1023964695800337 
-0.003002322210786633 
-0.1657430172324851 
0.008327085661778286 
-0.07223748593407966 
-0.1269602870311453 
0.06616215942351988 
0.1045037520617951 
0.09513451742568993 
-0.06460194195467797 
0.04653091215149172 
-0.1236544550000793 
-0.02676893820297123 
0.07638117391119467 
0.01786884384353907 
0.008830610260442476 
0.003003029900857114 
-0.01662333401069645 
0.08675575322190231 
0.004216739794243958 
-0.01289144065428813 
0.008365973187322441 
-0.1892973745041976 
-0.1239043126136655 
0.1040229768828466 
-0.07806978892797412 
-0.04836768403624916 
0.07740396917269793 
-0.06309585796430228 
0.06711384042918225 
-0.08337924320843243 
0.1473456904535376 
-0.01784319479935569 
0.09242553027551241 
-0.05596563797112181 
0.158136877174467 
0.1622099991232667 
0.04321985026543385 
-0.08900589847019848 
0.1372581965984873 
0.04366145032207563 
-0.05055144470684515 
0.06595582145919653 
-0.09657021847276967 
-0.2398022927980987 
0.1196416827596312 
-0.05201501561574183 
-0.0424895922296479 
0.1803176392069706 
0.09914195865864366 
0.007097326305204705 
0.02403713123279241 
-0.003119694540576767 
-0.2607122002271213 
-0.02823299143257978 
0.04718045486991845 
-0.1067753376640556 
0.04246668521466853 
0.08403855049264591 
-0.08860839532716668 
-0.01364824593360087 
-0.1556912605296412 
0.0189140890792351 
0.08919883385744805 
-0.1087149198897547 
0.1151376225105631 
-0.03251865592455484 
-0.1565121347950475 
-0.1029772302584727 
0.06256581620044582 
-0.02014071916479336 
0.01999421010749434 
-0.07750504604619597 
0.1680200627007628 
-0.00960758227633152 
-0.02105665257526703 
-0.08472245012739014 
0.09099397846648845 
0.04362454993612771 
0.2148837120527753 
-0.208920155723389 
-0.1044755632313063 
0.273481198992682 
-0.07688912129711788 
0.008148847196129327 
0.1019331546322392 
-0.01240912746438777 
-0.02791543025884502 
-0.07525732387811979 
0.09524980211389379 
0.1075977535940252 
-0.04791884551846866 
-0.1351440520959809 
0.01531462214853857 
0.02310369460628303 
0.1061841307641493 
-0.1091304375594494 
0.05592371713781596 
0.1448523679122482 
-0.05540788615799479 
0.1846913879323506 
-0.07865489123854848 
-0.1061144919676529 
-0.02538589553106068 
-0.06549635561162187 
0.04623792695339282 
0.1451596384606328 
0.01023880074884219 
0.02026652926952091 
0.08767424126872501 
0.0639161490691745 
0.002143219279109212 
0.06994215845956146 
-0.1404028019275466 
-0.01263727791161352 
0.03410000888109564 
0.08084334866223733 
-0.04236660350240617 
0.1039308659463683 
0.1824389933388194 
-0.1332845307606584 
-0.1730549710885331 
0.1370951560562158 
0.02210749739828664 
-0.00301605447034451 
-0.07837945533651977 
0.1670471029723568 
-0.04782735266289588 
-0.02563434008491189 
0.09773781902545164 
-0.1472189078672566 
-0.002603451827384624 
-0.04207489917082841 
-0.08609740304373061 
-0.220017413836968 
-0.1709383545099728 
0.01970112475823324 
0.08882985647329336 
-0.07960315311543602 
0.01296224533342637 
0.07059953985941683 
-0.0542521716271808 
-0.1073864652954374 
-0.1697570578654542 
0.1961525198174958 
-0.01580824843858002 
0.04729755485660551 
-0.0900239054663103 
0.1513835462145243 
-0.05894037599790848 
-0.1009006742841665 
0.06161929608248033 
-0.08186615197583916 
0.2739757889239304 
-0.1800369309946984 
0.1597963152039422 
-0.1796794811164227 
-0.0636429685873531 
-0.09441434393968501 
-0.04349907368745282 
0.05484555808459601 
-0.05435279691507666 
-0.05392110757204913 
-0.06414436923482537 
0.001410259817119645 
0.1676910182673959 
-0.06209806057370378 
0.01616824887708566 
0.1350650052419492 
-0.02427994454906516 
0.07954152292980014 
-0.02894049022957796 
0.008124654525266943 
-0.05886929652182434 
-0.1675453951207584 
0.1037583969708046 
-0.2015926256709023 
-0.01406087820970572 
0.02478246209469163 
-0.02734754359948838 
0.1758262486699151 
0.03842498048211305 
0.0025838228715083 
0.007503660976615104 
-0.09698459100595287 
0.1444181870731138 
0.05375363996014022 
0.1155894226638695 
-0.01790109507913073 
-0.1226873727995512 
-0.1202557705558422 
0.09512882583667308 
0.03011699846744487 
0.06326025060472379 
-0.02684459525156303 
0.1541260888976107 
0.02603105038780663 
-0.1399859492346207 
0.1452564164625095 
-0.145794590827824 
0.09719890711151229 
-0.1049828713702582 
0.04335051185327313 
-0.0164504099110457 
-0.06715220056073262 
0.1500331835719089 
-0.08231373761220592 
-0.09467179590481672 
-0.01399963603248664 
-0.03054427083560349 
0.05703340593713485 
0.1372742889201399 
-0.1235561258631025 
-0.08003839230277059 
0.06603299127179872 
-0.08424889635144975 
-0.1667437466051377 
-0.07419577365180383 
0.07790231318301467 
-0.03916150823970074 
-0.1908429737679437 
-0.1570495625362351 
0.08587818079112319 
0.08517097548359601 
-0.0762041291166128 
0.02938104863437025 
0.1866711139580984 
-0.178732799899112 
0.2089872860350502 
-0.1444868990778961 
0.1134011137255586 
-0.004017728775681607 
0.06557112057908551 
-0.06075947978323706 
-0.1851056600336341 
0.145739672408084 
0.02919770126968362 
-0.2010865904082636 
0.1406961007387616 
0.112282658352714 
0.02946607623063476 
-0.0341594981603622 
-0.1092166038497411 
-0.1348455004667261 
-0.06878193354774567 
-0.01439955282114484 
-0.003481043230803632 
0.1506952821572507 
0.09548512632973247 
0.1363468643724685 
-0.08601365817179972 
0.0007624879484305335 
-0.1245335193274839 
-0.0254836647535597 
0.08593073419103006 
-0.0563487077109138 
0.1881468715744367 
0.01608268223856 
-0.0925619834972496 
0.03877368925458428 
0.1261435401186763 
-0.007588512029288737 
0.012523895626534 
-0.008754484952013253 
-0.1801928869554227 
0.05296746925880882 
-0.06084886174401119 
0.03946327197342514 
0.02151024175575183 
-0.002987263417356492 
-0.009252066585459004 
-0.2196929557931734 
-0.0007745646597770992 
0.0134503632807645 
-0.2752456034980211 
-0.07927565965192503 
0.07523265779442877 
0.12857519665504 
-0.040984593080585 
-0.07002541638655566 
-0.04749877987721957 
0.1565656132108142 
-0.08899456335619135 
0.01690359571803382 
-0.1277859138110428 
-0.01118902838317217 
0.07232526789959245 
0.07062136870838551 
-0.1059751021860864 
0.1436280557730122 
-0.07321866871413224 
-0.1456775594961423 
-0.009693827980644699 
0.05595831817947881 
0.06199283659575613 
0.01359362314810173 
0.1516697780309223 
-0.1845438480223897 
0.02068714307476292 
0.08102503362004256 
0.2203195087538443 
-0.00619374799155429 
0.0273887377623076 
-0.0137358193965437 
0.04231223759765435 
0.08475699812609533 
-0.1624851235342805 
-0.01227974074890708 
-0.0229131917723395 
0.08575916663139344 
0.1218343219839171 
-0.01304727233376961 
-0.06223923393744146 
0.06987042435384697 
0.1696416349680267 
-0.09337476395474241 
0.08114146052167159 
-0.1063971951757561 
0.1049919515696907 
0.06694625622051142 
-0.0195676969283979 
-0.03546865469868116 
-0.05603070222651303 
0.07545140211724211 
0.1347350305350017 
-0.05438150959042962 
-0.01457584616901374 
-0.008174519837880267 
0.0891489943813043 
-0.08219694663999405 
0.3223791835934264 
0.03428193979111469 
0.04537238947814465 
-0.02536215309638389 
0.02904994255613203 
0.01056240365379283 
-0.0389547360430163 
-0.08894275859174068 
-0.1079714643929848 
-0.1759926926193731 
0.00399312204051821 
0.09438249486870399 
-0.1076315832826306 
0.01917650506419843 
-0.2346989171619306 
0.02058357871359506 
-0.01860159132058941 
0.05225426673000407 
0.03327747780808151 
0.0689006878169655 
-0.1610257115186124 
0.1473548737201522 
-0.2714373987845496 
-0.0504378542650781 
0.04189057930045796 
-0.06597252960423894 
-0.1030511343764084 
0.1590990898473882 
-0.02371479734117507 
-0.07142231763614236 
-0.2020826797853121 
-0.04452788776199611 
0.04256479652727017 
0.03082124524354557 
0.1757191230363399 
-0.05195735985985329 
-0.095381674790151 
0.1515317369943162 
-0.03310429436514176 
0.01189829768865463 
0.102295459153679 
0.05674334847222193 
-0.2943301041949256 
0.131733115210254 
-0.08580830420229285 
0.06560088657781944 
-0.009541593906644597 
-0.02853104478858812 
-0.04850130827157068 
0.02053975415181163 
-0.188918817645419 
0.0005176473329463454 
0.1281640873301481 
0.0604867657816194 
-0.02276216623587793 
-0.1747434914640092 
0.1035583762776195 
0.1063791025723849 
0.05758779094778892 
0.08208312756917911 
0.1409540722833247 
-0.01072274681923832 
-0.0540182911938429 
0.1031088755523499 
0.04016336355745025 
-0.06369269191240186 
-0.05357973307887413 
-0.01004701530195609 
-0.08471039459466589 
-0.07419899808963031 
0.0165909368886654 
-0.1827709213020332 
-0.04162309560036159 
0.03746276612542169 
-0.0374832145229105 
-0.1313010394764058 
0.1047059379352483 
-0.01356011094717698 
0.0006703495098441801 
-0.06042469028507426 
-0.1033414855170883 
0.09214298308089613 
-0.04162275928772492 
0.008059275132750099 
-0.05952579896455017 
0.02843961437366515 
-0.05305404520263175 
-0.1148145167590859 
-0.2606441989068948 
0.0998925671709647 
0.06557986469457053 
-0.1350262229304341 
0.2169226170754558 
0.1386136265205217 
-0.007001186549419397 
-0.0994044679390659 
-0.05671242370864438 
-0.1311026488611272 
0.02975600835155932 
-0.01426495331723473 
-0.06814684647413211 
-0.03844337783343167 
0.07514573446814107 
-0.07370560087299702 
0.2246631825179299 
0.1125102395730345 
-0.1455971803437557 
-0.1447602889217695 
-0.2575743114730856 
0.1484616251129163 
-0.1411922817443153 
0.02114014450515177 
0.2520253586871496 
-0.07655646497533769 
0.02514651244580792 
-0.1815380388286604 
-0.2169449673195614 
0.01676024603055135 
0.1249632912991384 
-0.02583715174484066 
0.0152991176466926 
-0.2177543864105685 
-0.1922904300588796 
0.09772102349189075 
-0.04187736128114107 
-0.04316012253378314 
0.01068210422921025 
-0.0330994213948933 
-0.194640845365775 
-0.129550607181634 
-0.2346546517146427 
-0.04441275630074251 
-0.009685879501681547 
-0.1089833893618558 
-0.05074176204851961 
0.08676148369004852 
0.08933601097031296 
-0.01254245044132552 
-0.04646048928001325 
-0.008416793963493147 
0.2096370678531317 
0.1068098098471366 
-0.1024386387112084 
0.110155039136614 
-0.01811979621614799 
0.08728098040906995 
-0.1408188838447917 
-0.05272279767658556 
-0.02526891252240921 
-0.1022342427345347 
0.01160788388859498 
0.02042461939096831 
0.03404279129061365 
-0.02778156033331759 
-0.07956649664609798 
0.06646878729807021 
0.05965705159858553 
-0.09754417590708109 
-0.07493793537281201 
-0.07244918166700555 
-0.05066662776496354 
0.1354606568089505 
-0.03566109796704172 
0.05366759543405668 
-0.3295060644743254 
0.140045185545544 
-0.03257258915321841 
0.04040104746669718 
-0.08270348264436388 
-0.0353483469712027 
0.04508514471391639 
0.07679374812299601 
-0.05471641926794111 
0.07488839305281329 
0.05521779800928295 
0.07053371925157015 
-0.05557394929828495 
0.154162912040636 
0.06306627658532564 
-0.1609879897827312 
0.05169115494702294 
-0.06607489391440835 
0.0981456343491184 
0.04801921062326656 
-0.01719173931509344 
-0.0426153976737588 
-0.0810510702841003 
-0.009947811263875755 
0.04353143670236265 
0.2174433491983195 
-0.2115443870859115 
0.002938366010778229 
-0.1602499460207936 
-0.08450938528440984 
-0.009049681506895647 
0.1575725621581519 
0.2201763345203136 
-0.04430748056609551 
-0.06219601210376011 
0.05501735932153046 
0.1475565300714708 
-0.07775964989276106 
0.1060171231213137 
0.1193837699923867 
-0.2380106237005202 
-0.08098958080748425 
-0.08422126840772812 
-0.05809227391561111 
-0.01523048474919413 
0.009639279155473104 
-0.1737088166554727 
-0.07433049694795779 
0.03817517871676766 
0.00956075184180584 
-0.006014864816186329 
0.04698915069227956 
0.0143416025728965 
-0.04915595773889929 
0.1129587219459544 
0.115132703405517 
-0.07851614509183245 
-0.1079933985519536 
0.08861006172697627 
0.05098252365912166 
-0.04683875275661763 
0.1029577318821859 
-0.1663774302029718 
0.2095576574456607 
0.006379549125857581 
-0.03668541846619988 
0.06325286931723302 
-0.01148357283704884 
-0.04088225183001286 
-0.008789733930691225 
-0.03500199374224261 
-0.1162219849743039 
-0.06194263352898349 
-0.02751719959092386 
0.1644526299437249 
-0.01118909494653411 
-0.04377669511926389 
0.1602688952953151 
0.2894250508656066 
-0.07520837916599019 
-0.01295149590320533 
-0.08536229826102629 
-0.1868315960402195 
-0.2183055261946971 
0.04711676543396986 
0.0526851212667014 
-0.01424245316283775 
-0.06243281868673169 
-0.03816133119492937 
0.003940048515783985 
-0.11553685588978 
-0.04759084436033913 
-0.008906013259903523 
-0.04048321566937397 
-0.1383698122992345 
0.08312498384628328 
-0.07878617433311727 
-0.2066091542317823 
-0.04416366092761861 
-0.05636113176109325 
0.1099501358158969 
0.2055833474652075 
-0.02431195234057344 
-0.03583859150827507 
-0.1263810198857022 
-0.1202678957516571 
-0.05267041018676419 
-0.1154700027900759 
0.1608818794054167 
0.03942028055955966 
-0.004361821618595546 
0.2012555197245154 
0.07902339223935589 
-0.05331620678609204 
0.06781701912091892 
-0.04911863796198546 
-0.01768221107460157 
0.09515095670083468 
-0.1984895867127525 
0.1352130213465744 
0.07348438526260548 
0.1605505540505315 
-0.02113725205708668 
-0.175277741315601 
-0.02402312594357585 
0.0607203911730242 
0.08641520893170046 
-0.09654822896122403 
0.153061862458531 
-0.0971228486241564 
-0.05016012683796836 
0.03310582253183468 
0.04707766009228526 
0.1069039510468588 
0.11307803442162 
0.04853058427037778 
-0.008498844941186828 
-0.0109296785603791 
0.02017633205061252 
0.0623086979873302 
-0.05368292076655866 
-0.0972296865912441 
-0.02756691211606969 
-0.1224109958459296 
-0.177183631695413 
0.06217785903936654 
-0.1291657587477674 
0.1084651998085732 
-0.00724997706581403 
0.02602223882063499 
-0.08653522343632299 
-0.01480657299305087 
0.02397091912378926 
0.0193990803155029 
-0.001970465795029494 
0.1149986514317433 
-0.04637492886658395 
0.1314598266844679 
-0.05539755565253444 
-0.01790950082176937 
0.2293877622110313 
0.1111542552031496 
-0.0608219734979743 
-0.07576490319874832 
0.1075955626335239 
-0.1519942570129581 
0.07847813238844625 
-0.07334427445731588 
-0.1400680096633382 
-0.1301214149040167 
-0.1187448501135032 
0.07032126856068789 
-0.00452335039288052 
-0.2298447727529797 
-0.07211300831804804 
0.07448444961367919 
-0.02024538896862948 
0.1214023269285779 
-0.1329448262338774 
0.06946555302721452 
0.05872551352077048 
-0.1404229897049931 
0.04836537717752643 
-0.01280190223053406 
0.1172194816033631 
-0.0292604843130349 
-0.05833027509723435 
0.07632250813435107 
-0.01676428287011659 
0.03696591002224084 
-0.09561639939621028 
0.04289208246254279 
0.001305281762249984 
-0.1188001682440826 
0.07051704062260473 
-0.09248713323894714 
0.02190331416071043 
-0.1008610673508976 
-0.07101905228448385 
0.01522079484016044 
-0.02086105921369408 
-0.1169616910257247 
0.06608746921442228 
0.1791253581568333 
0.05715090005431619 
0.08085993889161325 
0.008465832275620354 
-0.08149136118590097 
-0.01487573164710402 
-0.1695763626010094 
-0.01530363584818946 
0.08772812415820574 
-0.04024334357529039 
0.0295527645317826 
0.0192685870428069 
-0.06341379760353472 
-0.2228201385881608 
0.2348351180720528 
-0.0007392448211119944 
0.09923392208075517 
0.1052117085137853 
0.001882732183004089 
0.0150051858198436 
0.2632169876047137 
0.1552909383268571 
0.1076670887775695 
-0.08181341164527545 
-0.10287495760362 
-0.1251027760131498 
0.02025835848806279 
-0.1224790521990444 
0.06088442877252015 
0.04923586975341639 
0.1054558726321715 
-0.07599892441921302 
0.001339173482352376 
-0.1579919355051685 
-0.1595793215909766 
0.03548878458155395 
-0.1672520905921856 
-0.04022678150120446 
0.0786816101278347 
-0.1532641979922985 
0.09834809099823114 
-0.03255842469087163 
-0.08078208621528687 
-0.03762479826695527 
-0.01106571325684019 
-0.169633588460814 
-0.04550308947882581 
0.06310241516946587 
0.1469077349896728 
-0.03491973771100732 
0.09236368934694636 
0.04427418156191935 
-0.07554451660408458 
0.1523722619559663 
0.00906610501099148 
0.1448471724666537 
0.04944577643446497 
0.03264550010918368 
-0.07194532015826066 
0.1219825625374464 
-0.06703621120314068 
-0.03030522795177347 
0.09197356876970511 
-0.007179989051921206 
0.1494093827553175 
-0.02599275978864017 
0.06432871372862012 
-0.1709563356920841 
0.02938285429334397 
-0.08861076568240728 
0.01546623464161164 
-0.1502703053380758 
-0.06614104912099761 
0.06326625678716283 
-0.06899673381901324 
0.1072585677646464 
-0.04823043724177065 
-0.1490581316986103 
0.1003229198104442 
0.07141311815537116 
-0.01413940496174803 
0.1016321843864821 
-0.07088764000297192 
-0.008403676702513041 
0.03664072042018638 
0.1399181549694613 
0.1166497111658572 
-0.0153810972335298 
0.07510731224036833 
-0.03178479010529776 
-0.1633561036377155 
0.1558754275111176 
-0.1531410217811564 
0.03211270975199651 
-0.01051404255701196 
0.02912548165255659 
-0.08787630593827764 
-0.08934949161686882 
0.06774455249077815 
0.02800634685538943 
0.1300785343365077 
0.1671969587050679 
0.1373901721987046 
-0.02701902060715401 
-0.06909328239687063 
0.1758039692927294 
-0.09853371762466095 
0.1248680752074596 
0.0240247472400458 
0.04008360567475093 
0.08138842088264278 
0.02035157288105383 
-0.1537629876869784 
-0.1977755239085082 
0.1356618967906097 
0.05312332786238232 
0.01174668373341222 
0.05083945173114717 
-0.1538550842394275 
0.05084440104138923 
-0.1363027245097582 
-0.1880878754937904 
-0.07494143915333849 
-0.0374899326195202 
-0.07022906601734048 
-0.000981743161357353 
0.08468654532173533 
-0.01882747217256639 
0.04303456977348454 
0.08141099852474827 
0.1602292382954887 
0.02942444145881037 
0.05587069941152127 
-0.06409008064097892 
0.1270585468079393 
0.1221045063919822 
0.03022666541958836 
0.03711313508324564 
-0.01868387535060307 
0.04648845690117347 
-0.04403096944291283 
-0.02607954714813676 
0.03235169599306137 
-0.1943633956641503 
0.09914642941586679 
-0.01459102176982223 
0.05675148337345084 
-0.07050678316964316 
0.1124258474246264 
0.06399828284662967 
-0.02068184846336502 
0.05679879109089872 
-0.07055472891199394 
-0.03225406335723253 
-0.102431378708817 
0.06192664579646574 
0.004791729707123648 
-0.09511805018538952 
-0.04855040003482967 
0.02267641167272307 
0.1598629161276131 
-0.06894813465043605 
-0.03841697671125351 
-0.1583398007149124 
-0.06662971862559211 
0.1280397983766015 
0.01826668477971151 
-0.1134723081421416 
0.04885296128560138 
-0.08022389911812687 
-0.08567963168122993 
0.01006491966245977 
0.1829482988759054 
-0.04351391875359931 
0.1276004856742082 
-0.07053613155649315 
-0.05532313560636078 
0.008168594490393942 
-0.09894046320938407 
0.115882952843011 
-0.0310962433783293 
-0.04140665430176046 
0.008235980773403428 
-0.06375866842974169 
-0.1909793165172516 
0.0004136080882201805 
-0.0336188873776358 
-0.05372383722688717 
-0.1641234755587017 
-0.06402940410146943 
0.1213343750640903 
0.09279043303925252 
0.008394436772131419 
0.3105472732511002 
-0.07003568128881567 
0.1618417079674465 
0.06573780161671104 
0.01444500751076786 
0.09367171554607054 
-0.08320562701819127 
-0.05387823124250939 
-0.06762229959379248 
0.007644188084817187 
0.1115962391362465 
0.02861841641114074 
-0.1808164509879327 
-0.05622275269859844 
0.1454614902757598 
0.1644184184542541 
0.008092430571630997 
-0.03466506505347583 
-0.10973278565288 
0.000926629500322472 
-0.1101645558109432 
-0.09317908931328509 
0.04342020777802954 
0.05763967317651155 
0.1434189051525827 
-0.028805395255648 
-0.03099539038974023 
-0.05919294079744167 
-0.007355766745704992 
-0.05837593683034768 
-0.006706294194759967 
-0.03663386456497196 
0.2314451647449743 
0.0280724556181205 
-0.03962989425914354 
-0.1283897336716443 
0.01399171726850193 
-0.04626417142701601 
-0.09968452734900979 
-0.009329086117806338 
0.01292394776392538 
0.1388913644332906 
-0.009749102187085378 
-0.02210713307261867 
0.04632842207461459 
0.00800293701106787 
0.08038512563280791 
-0.1307947063191574 
-0.003352390753004012 
-0.09465308787171825 
-0.09019348422487793 
-0.004148550945420357 
-0.03913049527313841 
-0.07891730524695956 
0.003407228868269004 
-0.07705403774686034 
-0.2513514038111336 
0.05243927365031404 
-0.05893989566017095 
0.03676150364774182 
0.03356892717262572 
-0.145251517039186 
0.06653497006128353 
0.0663900345712765 
-0.1967215278861426 
-0.06207676717935038 
-0.08595683031631471 
-0.003995072337524264 
-0.09456188816458823 
-0.1906644046567336 
-0.07382907296346078 
0.1240333336633867 
-0.1677904327299191 
-0.1201024243732825 
-0.09731276105120361 
0.1158076928670317 
0.1171643335613263 
-0.04449347643328407 
0.1061462795485219 
-0.006029417535531569 
0.1424037061510342 
0.1072068516912811 
-0.1477655804364049 
-0.01629684736162932 
-0.02816589577864645 
-0.1052340111779254 
-0.009716938019240335 
-0.02206957072614656 
-0.1401852149153059 
-0.03000082551600131 
-0.05372308355311525 
-0.05834815780665058 
-0.05927327161436918 
-0.10183738252089 
0.03933099782785425 
-0.02388341040725763 
-0.00903103402755458 
0.05014175398262858 
-0.03818064982831407 
0.08634794832232291 
-0.2038740828415102 
0.07792409741116436 
-0.02767549661107102 
-0.02270364043654654 
-0.09238787833362816 
-0.03935360978046439 
0.1339673050350336 
0.03702905581524489 
-0.06045379552777406 
-0.06734456447412498 
-0.01817925746891299 
0.04659393233295023 
-0.1725228480490145 
0.05740840416363428 
-0.009997835539419608 
0.1216716801501148 
0.03006410839057991 
0.06174991791967706 
-0.04119487122811911 
-0.04665023131907813 
-0.06315483170301078 
-0.07093633743920322 
0.008726063572461635 
-0.2026590451357264 
-0.1651805453968787 
-0.007338525963188991 
-0.03471294661290437 
0.2780528728734034 
0.1078772805270441 
-0.06686651337052668 
0.05966311824607156 
-0.2334017870336682 
-0.181024898900342 
0.09748707867414794 
-0.1197925991610398 
0.09299556318249692 
-0.1280628473335315 
0.04538112466171606 
-0.1759701362238635 
-0.1619593040632053 
-0.04061974895676369 
0.003281314642898437 
-0.04405370474554968 
-0.08690915234465699 
-0.147800657425958 
-0.008975977554113048 
-0.04313274065966341 
0.06624075655923105 
-0.006618222886071393 
0.230987635411682 
-0.008471603696335614 
0.03226862612038436 
0.06692328477946038 
0.1005596539067734 
0.04868969441080747 
-0.01656196304097383 
0.1884229171385244 
-0.123463847216042 
-0.1120998522341122 
-0.06877462107894852 
-0.08176908154805565 
-0.03277371448173588 
-0.03664581722412413 
-0.08935571151260251 
-0.07732832404773578 
-0.04606834016209022 
0.03955696059994027 
-0.1066585012552825 
0.05115647094322251 
0.01774825312593144 
-0.03528627330673101 
-0.1128807870299205 
-0.1158830795888857 
0.01232403587191152 
-0.0146812595695244 
-0.05707437363045123 
0.04961173906677128 
-0.08892897990742693 
-0.06873678925969995 
-0.0182307723857426 
-0.1456617717673809 
-0.04029915351060887 
0.2310068866111054 
0.2186171855665915 
0.1382761596780948 
-0.05745017692090128 
-0.09188680058059397 
0.1840382444083718 
-0.1233971764043392 
0.0128837988605641 
-0.2058076617834274 
-0.005238913326957733 
0.04796671218345751 
-0.1422451459181988 
0.07664280578401871 
-0.1365604591559617 
0.06844873976471026 
-0.009209475535877393 
0.01713487791878704 
-0.03292900396200638 
-0.0132613298473885 
0.01010109003672279 
-0.04218350245353479 
-0.1671882527594626 
0.08586762945729517 
0.02332774768606046 
-0.1618870154767183 
0.1902858272692151 
-0.0004330357248086278 
0.04138300244361662 
-0.1032750437802928 
0.03330532481416984 
0.02569354761189829 
0.1687926659345668 
-0.1444217882047932 
-0.06066300177353467 
0.04073199190598985 
-0.09694299356979034 
0.005043859831554757 
-0.1557865493813023 
0.08813324193165195 
0.005243144215059486 
-0.1788098702861375 
0.006107009941000783 
-0.05280364840002855 
-0.03907033298813665 
0.1476853100010692 
-0.06167361795877463 
0.07957402018111559 
0.05361668285158331 
0.05644623573053849 
0.01155379963072005 
-0.03241912410663914 
0.1518684008321979 
-0.1415409784918105 
0.04738167007553735 
0.004408149394185949 
0.03101339291177283 
-0.01431767965146725 
0.1230830622376635 
-0.05255269889778652 
-0.03609996739414608 
0.1265030966891722 
0.0927627570772839 
-0.01081804485980407 
-0.127233620374953 
-0.1101175837226938 
-0.008782481983709156 
-0.09542645531506033 
0.01276335603451731 
-0.1506607230250997 
-0.05840558532126811 
0.153823709148666 
0.03887394876235007 
-0.203227461892331 
0.001851605377297327 
-0.06705668932575695 
-0.05975527078988484 
0.02111817106303524 
0.1397265747812191 
-0.02060176896986739 
-0.005642179095022806 
-0.2483193385625964 
-0.01306207348612169 
-0.03990123232328226 
0.1494064480242279 
0.02385912658278619 
0.1297124244025964 
-0.1680599260614359 
0.03221464725166244 
-0.04498356116401436 
0.023862305709003 
0.04566409022292656 
-0.01144224173270415 
0.04324203744555256 
0.03805665163638441 
0.132399677243348 
0.02948248424513347 
0.06061308920996154 
-0.001618421272902487 
0.04600074754696041 
-0.03987670416154646 
-0.08598316739858071 
0.03690282683776735 
-0.03689084613202238 
-0.0434284470987589 
-0.04954591331848342 
-0.07789437886115783 
-0.06907023443745816 
0.3096512419458737 
-0.1443471481560837 
0.07072044007649636 
0.1915900529397205 
0.1050822516116763 
0.1235584725776754 
-0.1558365612169583 
0.08258829760376467 
0.02595497592106872 
-0.02298276713209058 
0.1171820210694628 
0.01896660486749242 
-0.04836657738311749 
-0.07901117141888481 
-0.0585842425692079 
-0.1048583186578445 
0.07899983328642078 
-0.1191320474596391 
0.0317962253882209 
-0.003713245914572479 
-0.007548054513774533 
0.02028126630949159 
0.1551894844108655 
-0.03240638824376619 
0.07586890014553009 
-0.1192324991750554 
-0.09709981557583837 
0.1618180278605304 
-0.02536635607141903 
-0.009527297697587455 
0.02864594886955494 
-0.0451456599468977 
-0.02147681488205449 
-0.05770587808334766 
-0.1131049242591136 
-0.2394057805597469 
-0.1269475367507939 
0.1433280100138448 
0.04282601614465562 
0.06682036681670026 
0.01448183614388414 
0.006814919670516058 
-0.01811522798298412 
-0.04489405753751582 
-0.004974071079458924 
0.10248011248164 
0.0584270065918849 
0.07572506005300832 
-0.1460611370910624 
0.04879235954538787 
-0.1024850199960936 
-0.1063207232063174 
-0.03465942389882151 
-0.03914063165185954 
0.02005050288530015 
-0.0551421377477358 
0.01613423110522342 
-0.136963026852025 
-0.03096024739509455 
-0.01959111452604268 
0.3050161005821402 
-0.03767286076387848 
0.02929338664776296 
-0.03735835324763909 
0.2038859330874194 
-0.1628148628042413 
0.09201918834820741 
0.05264824224397062 
0.03788158115926556 
-0.06784956621706233 
-0.06655919105188789 
-0.003175844268452356 
0.01218161803381936 
-0.03791597436050143 
0.002792876389903369 
-0.08455135505208407 
-0.09294312933107128 
-0.1117610659642085 
0.024180757060375 
-0.1014330647315813 
-0.1537129281608311 
0.06773467674271594 
0.06338534128281442 
0.01093523364986201 
-0.2013718371132363 
-0.1295634235274817 
0.000158933595353569 
0.1391610982661673 
-0.005505350972901657 
-0.03342842959154423 
0.05039785590872993 
0.2774004611498412 
-0.1338765618129252 
-0.02083082817949555 
0.1141762020137845 
0.04917042623801497 
-0.09621852133373171 
-0.01897949523400118 
0.1130567209988142 
0.07766498639001501 
0.006896905394894138 
-0.01241113958002043 
0.0202059151453249 
-0.06296874877173236 
0.04020366760426991 
0.1599445623467798 
0.02388375919593338 
0.05135146464764416 
0.05908411038124494 
0.09990016694632536 
0.1464687074033116 
-0.1040823939660116 
0.009473837741015857 
-0.002344375699798082 
0.003947137352654702 
-0.0440299906760446 
0.1321952515394567 
-0.01668152934534306 
0.1184614432042851 
-0.06473836094801391 
0.02171009806157747 
-0.1240017763014971 
0.09037475155938612 
0.1161410816546518 
-0.1450402306386796 
-0.08637869652297961 
0.01453291607841015 
0.1156353905749494 
0.1595262497101137 
-0.2688343657049912 
0.004676230884393705 
0.2719997999851552 
-0.01637252363381145 
-0.07755743277675323 
-0.1154718022694409 
0.06107385742438298 
-0.09903458684955203 
-0.05030377161554121 
-0.0787900782057277 
-0.02087846462166565 
0.07737923424319004 
-0.121896567752321 
0.06653783530938004 
0.2886424370764375 
0.06776784364502564 
-0.02183855518735629 
0.2147449667273435 
-0.01197613513664182 
-0.04779704887751455 
-0.01739140776834715 
-0.07487147490722976 
-0.01631918129776128 
-0.03238352900482017 
-0.01222241098724102 
0.1394363358757377 
-0.1394638034650818 
-0.06974073233056756 
-0.04091722047454508 
0.09309431680626301 
-0.0784477425765828 
-0.02001888736556497 
0.01200806757590854 
0.03087466887250435 
0.0719493162918053 
0.1321878883847922 
-0.02110620682550845 
-0.01414492652113293 
-0.08109777473777591 
0.2003181519791667 
0.1640673044562439 
0.02166229787099086 
-0.03167573760895794 
0.06532654116499621 
0.05012233900624663 
-0.1727724625785862 
0.04103192641570208 
0.09741155768973755 
0.0975076628598243 
-0.1936736793022781 
0.1088713096303577 
-0.0297547697081494 
0.1082087480494414 
0.05019216572088425 
-0.1207280477600335 
-0.1193211081681642 
-0.1329669695795846 
0.01145768701396158 
-0.0858781487043134 
-0.09746149118067456 
-0.05174716305990576 
0.06663419991832172 
-0.01742005969267307 
-0.06445160019308638 
-0.06496925490772337 
-0.08226030614903532 
-0.001419979842003644 
0.009904578032020214 
-0.01553333261714893 
0.05804868019890766 
-0.1243357157884556 
-0.008874478180153213 
-0.1297162457920137 
-0.03367698221316105 
0.008122867974904916 
-0.08855642774537327 
0.01667378687654754 
-0.0208070362984332 
0.2348933076365531 
-0.01810057369793891 
0.04346839787503722 
-0.05264752104662142 
-0.1275576915047744 
-0.1141118224461114 
0.06854607141533184 
0.2090695615319761 
0.2650513531486388 
-0.0497108515469613 
-0.06138779646382786 
0.06730161178827861 
0.000206563809236034 
0.2225850680565045 
-0.2328266404181442 
0.03586017310559739 
-0.1560423973663961 
0.186090277328209 
0.08888020457190711 
0.09540806495398675 
0.04572821377182018 
-0.07119477887916487 
-0.2565261250041854 
-0.137227884973106 
-0.08959631423796247 
0.02346829858911294 
-0.07236250454246365 
0.1220020996948344 
-0.07012233927911644 
0.1263741729609653 
-0.02884014579225497 
-0.1054293685477433 
0.02387381658391886 
-0.01916266713618793 
-0.07330175853693767 
0.01669098251419868 
-0.1584910991565074 
0.156320897935588 
-0.01130191626606541 
-0.06642620349491472 
-0.0373638029681414 
-0.0924488529082198 
-0.07103741083906502 
0.008188365925967736 
-0.06608332998948432 
-0.07065789786929332 
-0.03370898489281663 
-0.08364597988849626 
-0.2154799412074082 
0.07382444776556842 
-0.1004906522051223 
-0.09517857954314042 
-0.04318818276006752 
-0.03809466197738805 
0.06185107062266453 
-0.04039059033323654 
0.006427996418046259 
0.08896904087328975 
-0.07397337876947402 
-0.1652188042961755 
0.245238697568895 
0.04127120016734399 
-0.1654629990954835 
-0.1600472938873444 
-0.192308804623593 
-0.001060277550653361 
-0.08808814730878446 
-0.06918060690411744 
0.08652490559091069 
-0.08067953494758563 
-0.1423646320267809 
0.1409940660291016 
-0.02348263602436674 
0.02312797798251056 
0.1907473586728569 
0.1883169488973104 
0.06040026786544027 
0.007481496807962776 
-0.1185412326712588 
0.08105521728890779 
0.08250197620126513 
-0.01735973596867485 
-0.1950336506821068 
-0.2359282484571897 
-0.1506225935917338 
0.09667630361570334 
0.01372812018583967 
0.006231603438770014 
-0.1005534285297692 
-0.09120174797214725 
0.1297435188687485 
0.08305973793842396 
0.1089330589146813 
-0.05519948773660237 
-0.08225164483679992 
-0.08477057617706771 
-0.1451825664630904 
-0.1282043132141368 
-0.2251920156163772 
0.09380873414654146 
0.1079263266003495 
-0.05279595640231549 
-0.01836707158004094 
0.1431690472861815 
0.08203078251270157 
-0.1894966017155923 
-0.02240582779924172 
-0.1407973352273099 
-0.04212542416133565 
-0.1811104539779843 
-0.2847818774910434 
-0.1718338630333824 
0.0007580285439519377 
0.2174922745775302 
0.2484989352464102 
-0.02215974590649425 
0.1451842728948451 
0.1063073966599516 
0.06079696678244975 
0.03104771109207456 
0.00125939666314953 
0.09497482240226912 
0.0441007709361364 
-0.09287272532322297 
-0.006981843863909685 
-0.06265038149520469 
-0.0299131272257444 
-0.06095761287164139 
0.02405633892931055 
-0.0721662461482302 
-0.06621001409449155 
0.09018305642094938 
-0.2378416484605963 
-0.07488765538066824 
-0.2234456935669003 
-0.1141777953189113 
-0.008416801262768383 
0.009516150077993505 
0.05823302419559644 
-0.04314627794470129 
-0.08349787290747956 
0.0506702061678591 
-0.1716820446638382 
0.0103427464715208 
-0.1028279080940701 
-0.03599866373947596 
-0.06683218586562159 
-0.09363083067827502 
-0.1265915455693809 
-0.0260076679458334 
-0.008979743825136005 
0.03759053585176661 
-0.05173705231132472 
-0.01370538198898085 
-0.1224123001328265 
-0.04868624817371509 
-0.02250409112107948 
-0.05636291725573013 
0.1375360211680102 
-0.06497111273291964 
-0.1673952961798378 
-0.173113975528696 
-0.04768092466598699 
-0.06488060949437313 
-0.07533087087571372 
0.001894930247592896 
-0.1118415396845526 
-0.02400723782770557 
0.05049747216597626 
0.1713205341202631 
0.1647674726759806 
-0.03142945098936165 
-0.02209818193438081 
-0.0932657910176866 
0.1129963533077619 
-0.03680674805781467 
-0.0370006225001275 
0.2521760268645442 
-0.1556359117114119 
-0.04810658261914873 
0.1103523022595944 
0.030359247116102 
0.05849064181619369 
-0.0881799183587567 
-0.09812847520298311 
-0.09179685091150395 
0.02245444865204659 
0.05472350096661575 
-0.03113972682907962 
-0.1169571961007606 
0.03207228196664521 
0.0856493775914948 
-0.04816367682340492 
-0.0483223964028972 
0.1002182602508911 
0.09236253561852652 
0.01508332039794138 
-0.1146664276297055 
-0.03207049203070259 
0.07228418005407841 
0.05763808725052464 
0.1463118726109507 
-0.03354139367931758 
-0.05152464114637324 
-0.03339910167734316 
0.1711830598341721 
0.1018360042066697 
0.1374013994091898 
-0.007803980829691352 
0.08017556768903512 
-0.08654181711494741 
-0.05316959697361099 
-0.03339095817485158 
-0.08765137881573209 
-0.06635235788792783 
-0.09851009272414087 
0.04840307047880715 
0.1793727743933894 
0.1214641544920837 
-0.1410936518088269 
-0.01637210029309802 
-0.0127741550948672 
-0.0440038828277555 
-0.02727245895011278 
-0.1695274234914737 
-0.03657536667063292 
-0.03677379725054429 
-0.08259506580656949 
-0.06484506512117237 
0.1591830653687285 
-0.06252887973671932 
0.04251440218476989 
-0.01904949516904229 
0.01361140619725801 
0.05301318863060543 
0.2127653942457063 
0.1348407060662388 
0.1523349274046162 
0.02656326044830251 
0.055433191524976 
0.0008052187157783358 
-0.0674138894012964 
-0.03807374642177009 
-0.002664701007632415 
0.02566499463033766 
-0.03509642993329203 
0.08706463233028522 
0.04897580453072719 
0.054109225746517 
0.02289617019619372 
0.08083019583572393 
0.07273979462093472 
0.09974818245206069 
0.1043191110033098 
0.1507992822441871 
0.2000241848379555 
0.04006988041802033 
0.08221107292513435 
0.1200241302902605 
-0.07999853166678075 
0.1829159379063628 
-0.0942051810274334 
-0.02869436283326812 
0.01295644564474524 
-0.03349764361884343 
0.04636515421224952 
0.1090536979074241 
0.02018828350583306 
-0.1649300944490774 
-0.06059020111710772 
-0.04610998569044802 
-0.01973844121906687 
-0.280969598855538 
-0.09972541889945491 
0.01894675871884566 
-0.1464528212107534 
-0.01461802290013987 
-0.01110873035661151 
-0.003935435939188313 
0.04836287996009284 
0.05295547779958543 
-0.04133091680628314 
-0.06727033454584068 
-0.08455213133163361 
-0.03421674627925176 
0.1039276839232783 
-0.04507742940969296 
0.1274494409779829 
-0.08613092798245808 
0.1383211057434423 
-0.006141446615781566 
-0.07597544300624541 
0.1191249779095811 
0.09401343955185412 
-0.08456326087705561 
0.01850107222050643 
0.1165057863491117 
-0.04860140185891449 
0.08012130765164287 
0.06392300934972694 
0.04966830457625887 
0.01976795713339676 
0.04199008356560302 
-0.04972603549051338 
-0.006226555548405292 
-0.1737528133928715 
0.08745546303587889 
0.1344246613921215 
-0.2719657582722268 
-0.1003061739832266 
0.01051782076869461 
0.01968579337779357 
-0.01909395646737021 
0.05274568560714142 
-0.06872839954848994 
0.002180217587470042 
0.06584380680238219 
0.314242055937938 
0.01792095167814262 
0.001367793887205726 
-0.02016137594942173 
0.0185424409042589 
0.04325939428407513 
0.06294993445573216 
-0.1508344491637504 
0.0689322028357337 
-0.08670001268402669 
-0.210823733212177 
-0.03937172270498955 
-0.03863014151891059 
0.0394510227224369 
-0.0417601438064111 
-0.02257805131060531 
-0.02263066030091367 
-0.1048334821113726 
0.02562605598960556 
-0.08835698203860951 
-0.1318222746863101 
-0.03490263829090888 
-0.07128940754435392 
0.1485265701251115 
-0.1180419415149957 
-0.1592364311060946 
-0.0650543317938673 
-0.1307348508037413 
-0.1051814834303317 
-0.07693008770775676 
0.04355775684388949 
-0.07702338416731559 
0.1404022262197808 
-0.1131948258919217 
-0.0581193493679057 
0.2125571471755882 
0.1180522299626425 
0.08946357751160333 
0.08485993900878855 
0.09546538085991146 
0.01358992288716821 
0.08138863157963243 
-0.1778218614551128 
0.0228685221958312 
-0.1586086445933256 
0.1347019325576302 
0.1876237330849848 
-0.05976794060208097 
-0.06362523195557468 
-0.02988307102930219 
0.07321042313898624 
-0.1016595426836676 
-0.01196455405492737 
0.1466733230802799 
-0.06206942779476328 
0.05198483658678642 
-0.1709413716105136 
-0.03069247079430032 
0.05638333916838213 
0.03531985544116951 
-0.3149785104175526 
-0.1204206339660221 
-0.1356065321726623 
0.04870178472798847 
-0.1964252100845387 
0.2447658360863599 
0.009382757630398352 
0.01763683588862077 
-0.09079821962242123 
-0.0209392058187486 
-0.03458469830431379 
0.01735296712863754 
0.07635544406164994 
0.1152559250658151 
0.1954770161961864 
0.001437073213390051 
0.0930924051090046 
-0.07859770697673299 
-0.08019326417878256 
-0.02361080235508138 
-0.1994101218983459 
0.2462442027233811 
0.04266809495823704 
0.03083178501950012 
0.03286785708339798 
-0.1050203490681522 
-0.1022996447922327 
0.05516494206837382 
0.1717836107316739 
-0.1388240593549383 
0.208651303061911 
0.1422903988640034 
-0.1809238433871695 
-0.01160757873733421 
-0.07070655938655025 
-0.04823009837493383 
-0.2436304536349601 
0.1137154861905299 
0.04907108179284847 
-0.1294352270468386 
-0.001393291600179469 
-0.1474214791267782 
0.0943184477051886 
-0.1761294328446984 
0.0961715183741708 
0.01893708701617508 
0.1232468002845414 
0.06626185023385341 
-0.06929067477445028 
-0.01309976143272608 
-0.03028065185157922 
0.08985823291894658 
-0.1174371811305494 
0.0004441278736838322 
-0.07378650345877419 
0.04436950209806645 
-0.01870971596504722 
0.1125240565004693 
0.1131017585101184 
-0.07302911928934563 
0.05956424238269228 
-0.1288304242977015 
0.01155432416332839 
-0.208664095686032 
0.1062123892825293 
0.07215616757791074 
0.02201068588410445 
0.1369584773821537 
0.03458715536465794 
-0.07297131193500346 
-0.02515262729474399 
0.0195810323243213 
0.0952086606926357 
-0.04262469974329672 
-0.007019911360981735 
-0.1576981223163433 
-0.1030753506366407 
0.2159480326082068 
0.1565728151635306 
0.1861384856747042 
-0.0505315004413773 
-0.1160410029215796 
-0.01342271783590837 
-0.07939686659034464 
0.0397068035626909 
0.0316097287443676 
-0.0988809970415572 
-0.0005830663074657474 
-0.02281685515321163 
-0.05396886392127222 
0.2213486795879376 
-0.04649050577711599 
0.09334892496755814 
0.05620094195700311 
0.01116619409518339 
0.08488496987579792 
-0.1028461638195818 
0.08246304768453702 
-0.1599594025567185 
-0.009772966293548992 
0.03321963848762906 
0.04190386655652201 
-0.09960559734400784 
0.1913136018056079 
0.2074089259620913 
0.1417818258847285 
0.1800307142315133 
0.01123727757795691 
-0.1009377424470292 
0.02759750087471034 
-0.001961834618254169 
-0.07814326984824264 
-0.1481002402246567 
-0.09212814362971408 
0.1583070098768691 
0.01655560188772389 
0.08062447450333085 
0.03917075039979391 
0.04698465352643906 
0.004622420906337331 
0.03102795041421894 
-0.1631950009901761 
0.03234242030233932 
0.07785467309768944 
0.05538281207477012 
0.06393076841442845 
0.04171064343807643 
-0.004829861835183859 
-0.2228126137739933 
-0.01962452212816521 
0.2081622508009087 
-0.05483964485716805 
0.1904293326700369 
0.1037425416191482 
0.02334741987569534 
-0.0775587024067555 
-0.07196377519684211 
-0.003728852280653544 
0.1819137292085231 
-0.09994537856087107 
0.04454547911099353 
-0.2503727411933539 
-0.2046654242070258 
-0.09720540554816862 
-0.115751862951215 
0.1632391709846451 
0.1490547119551531 
0.01875109443324828 
0.05938609506337197 
0.1097414841592816 
0.009330843419823957 
0.03420934432493505 
-0.2473195080492308 
0.04131106307276158 
0.08278450010156771 
0.1601683463203677 
0.2662170003945373 
0.1589021222122309 
0.1140102131186719 
0.1622922305449941 
0.005147221450417763 
0.1042923382585908 
-0.07230563032171639 
0.08030275308839598 
0.04091065386243956 
0.04529029234792587 
-0.1557357681545285 
0.008893388643726218 
-0.01306188215720842 
-0.1241732027602609 
0.05668003795620715 
-0.1507208712610154 
0.08995890004136627 
0.1601990021059012 
0.009702639914197321 
0.05539511260484517 
-0.143548324945531 
0.0017751432675451 
0.01619142266522069 
0.01844025367135917 
0.02756353662097547 
-0.02773731648255552 
0.02536514683019548 
0.269153744288366 
-0.1017372073643558 
0.007937442809958579 
0.06616527574696521 
-0.02950640106910964 
-0.01769351482201981 
0.1724196865589284 
-0.1086640506819369 
-0.007640094110835807 
0.1002259770775853 
-0.06551756039080876 
0.1470847556146521 
0.1220492130781165 
-0.07095832688557606 
-0.02481008241360484 
0.02348359413911084 
0.01019562397436655 
-0.1603949880303291 
0.0681124739981764 
0.004961905931549281 
-0.02324703264531944 
-0.1637978572118722 
-0.003739594229823433 
-0.02296866928704556 
-0.1555712044911844 
0.007916043458995813 
-0.0114044985712177 
0.04719105941832182 
0.03521143134661225 
-0.009495112768255969 
0.06489112554031358 
-0.1818506474082115 
0.003800129155343015 
-0.05177279490618429 
-0.08065443463305987 
0.02723928286369941 
-0.1889261419668325 
-0.03803435593014124 
0.08528969966412892 
0.01090269627208452 
-0.01155205987927521 
0.02102014464153491 
0.04758592491344611 
0.06814651357694232 
-0.04577490187163424 
-0.005365692616396852 
-0.04947533778809829 
-0.0896772331274263 
0.1744623358566213 
0.1317817910147213 
-0.03411345760566349 
0.04056401928007789 
0.06797038286703037 
-0.09804489513764952 
-0.01829146773964493 
-0.08811481083689415 
-0.1208220784386404 
0.08739389593851504 
0.07300170645620575 
0.04195206730889819 
0.006987334058242129 
0.01628120755202208 
0.05106616973408819 
0.0284965160822786 
0.234886654256532 
0.05929001625721873 
0.1638107350070393 
0.116335821478616 
0.0007080358909491058 
0.08261105395813757 
-0.07814841661822147 
0.08141262510147326 
0.09661167300599584 
0.05732442191069066 
0.1568588097174919 
-0.1157895246161236 
-0.07747070926762438 
-0.03618843246039222 
-0.1341874439252219 
0.1032525153737043 
-0.03577693776411389 
-0.08204140940063941 
-0.1580337821970283 
0.1783112546570053 
-0.03037712810231636 
-0.153718347022467 
-0.09727681860112321 
-0.0865074637868176 
-0.001096784022296923 
-0.06907314046770267 
-0.05428950057104269 
-0.03119434251454212 
0.06728973305330054 
-0.005658295225020878 
-0.06170163341068032 
0.03191550255175865 
-0.2032868718796292 
-0.0922541608390771 
-0.04305505248678737 
-0.001875538165520845 
-0.07787636178673706 
-0.1573799914941036 
0.02418665067231197 
-0.1129312766012551 
-0.02504342545284156 
0.07173796900439397 
-0.1551139301708736 
-0.1841326157591312 
-0.01567641484545812 
0.1999003551869673 
-0.02602590193463188 
0.00772418845152658 
0.06087516606340947 
-0.01046094862744945 
0.1204919580566585 
0.1242683368307322 
-0.05757545308832984 
-0.02005818740102955 
0.09352035252159288 
0.01440310665510376 
-0.1131614277261531 
0.1603742348858428 
-0.1505617354568141 
-0.008808097953976387 
-0.01005693249544452 
0.09056998639537699 
-0.1162916605030645 
0.1198733292359529 
0.05420084524412476 
-0.1300463455894799 
0.05957756883418595 
0.07200831539117684 
-0.1072779694957405 
0.2075294446025938 
0.01002983594316743 
0.01094450247618834 
0.1455666840368527 
0.008782074290234159 
0.08326573952583835 
-0.116208973241277 
-0.06294565927528185 
0.04590707682223474 
-0.1370890442069903 
0.01665553536385933 
-0.1721338388053275 
0.08617892100791051 
-0.05725698791710683 
0.1642387409107411 
-0.07455330718925346 
-0.08237576381932878 
-0.1374205409816951 
0.01953218796090147 
-0.02366556320232732 
0.006582414114965865 
-0.02169734758533305 
0.08005481937000568 
-0.1438814874357982 
0.08926582361803465 
0.02050554447769062 
-0.05298497999299053 
0.002098297226386263 
0.1978973512178711 
0.1105202158761524 
0.01906482726039864 
-0.05695448744122798 
0.0420821786990038 
-0.2009190975058969 
0.006978897639293281 
0.0003751705040923948 
0.1507381703102265 
0.00695942194064615 
0.006974620782537933 
0.08333040669507438 
-0.1172458525265434 
0.03050762103931656 
-0.002802558938867123 
-0.03801017352921685 
0.006567939081567463 
-0.1141327240187967 
-0.1275404954907794 
-0.08491089569761123 
0.03865423281485666 
-0.1721403779354947 
-0.05612807949539703 
0.01748641874078968 
-0.08411617060122144 
-0.09933576494485445 
0.07769258468679034 
0.1215610134716434 
-0.07922119511817491 
0.0530168269962889 
-0.02265573450827548 
0.2094031031624786 
0.2035135390278167 
0.2482011770004312 
-0.03843120789873345 
0.08327928382157561 
0.01990914664671264 
0.1029530451197282 
0.006998027201404727 
-0.2017565875850249 
0.1612058968680749 
0.01177612073832894 
0.1003817638524472 
0.1194579017848488 
0.24653635980552 
-0.08167747493186908 
0.08379299720578171 
0.01879692194745035 
0.1988737481561578 
-0.07600921757528455 
-0.04527832814117948 
-0.02027760183263042 
0.1260211699377465 
-0.06335848876363023 
-0.1085335489836954 
-0.002474022319723658 
-0.115468090294275 
-0.03239465596416133 
0.00210700453333683 
-0.06355806902818781 
0.04388252653259692 
0.003484711976650982 
-0.01699985949287488 
-0.0004429102154075316 
0.155003078626099 
-0.06178861336212374 
-0.1120873186434569 
-0.2556749826886199 
-0.2434689791530666 
-0.002058366009418008 
-0.01254928718483399 
-0.06571550121855289 
0.06941040516226379 
-0.04130432013689254 
0.09098463064282518 
0.1461967586305799 
-0.1456041111727232 
0.02465923711217968 
0.2523985015523983 
-0.1208599471929112 
0.1039906154936566 
0.002137753002027756 
-0.1443153754193646 
0.08456446861289726 
0.03918272153464215 
0.02537301041333192 
-0.2230380249467365 
-0.1275658386330158 
0.1346904152803117 
0.2215650319916471 
0.0008048798933279599 
0.2379301360592459 
0.05128217048664158 
0.05318277065046589 
0.1188178998985814 
0.07975617156859967 
0.05099671597391101 
0.1168350642358088 
-0.004408401626818225 
-0.1885841674471913 
-0.0586439017748916 
0.0435134695042535 
0.1161975806305766 
0.1050117985658976 
-0.1037137373315248 
-0.03665828834843342 
0.1015183566431771 
0.06877062519310505 
-0.07726397762757192 
0.05611723292300465 
-0.0708853129995467 
-0.122223850030377 
0.2190999187606794 
0.157981872296358 
-0.1306235841997979 
-0.0692878705758722 
0.03654499410679574 
0.01171836252571502 
0.1729304282784577 
-0.03142453842986269 
0.1145334443943227 
-0.04978597121267982 
-0.1139305106096785 
0.09470629539082111 
0.1549987323757826 
0.02294693588914199 
-0.06250125178703117 
-0.2434829842426589 
0.1418677684804086 
-0.03716060215521958 
0.198440483110518 
-0.2491832319785031 
0.07609946747597249 
-0.1656499468338729 
0.06212191544243758 
-0.03676287817646433 
0.1272009578645123 
0.05737892976086002 
0.01982433121451338 
-0.05634845869193286 
-0.1369385674215293 
-0.09320803566283344 
-0.207999343609522 
0.0691417874661944 
0.2917975249723158 
-0.03429645336443934 
-0.04547034465043941 
0.3047088400435877 
-0.03042359611053879 
-0.006098850586178515 
-0.06583681883751009 
-0.07141578418379251 
0.07493018980721894 
-0.09052728202918513 
0.03993978447638061 
-0.05772265122008705 
-0.1450248309317544 
0.003645194629882276 
0.1413949152560622 
0.06697123152461551 
0.06783661531270059 
-0.03870897297468531 
-0.08795690399274247 
-0.09957044392879191 
-0.1149278170292487 
0.04307056402428628 
0.005798690184848927 
0.008101789904324844 
0.03649426879426824 
0.02731772623330901 
-0.1540603916906173 
0.04924777851116872 
-0.03559725820010048 
-0.02495991065488324 
0.04016940393339954 
-0.05175027409937111 
0.05898780760549865 
-0.06348654080844099 
-0.01792683062965255 
-0.06604407001425233 
0.005606556412684266 
0.1548469219730715 
-0.02253466338276315 
-0.1316457864787617 
-0.01216196577591479 
-0.08026332083593218 
0.05603077462742893 
-0.03865704237040072 
-0.2147252112997506 
0.02469478180968399 
0.05705424856107023 
-0.04585606801172729 
-0.04208172979681367 
-0.1308306744050619 
0.03266695434410447 
-0.1151438329086627 
-0.2244600609355337 
0.151508313165416 
-0.1119074284414132 
-0.03325853459011996 
0.03632882686409674 
-0.02127812524971476 
-0.1066307078303825 
-0.03235771836239629 
-0.08471893610749279 
-0.005123025501815816 
-0.05093662620816111 
0.02164573877181806 
-0.1467846799739591 
0.02759724645302086 
-0.01981969851217413 
0.104646709962581 
0.06556634888320349 
0.1154339191889971 
0.01924859305383652 
-0.2377995972525361 
0.02916167491902981 
-0.02692942425618784 
0.05061794766275524 
-0.02895273042951762 
-0.007540361497177591 
-0.06134729092696596 
-0.1290950536752045 
0.1376664175746447 
0.1351155484895208 
0.1418704115724592 
-0.2058523616244264 
0.04529858011676668 
-0.01626836182882988 
-0.1371191738713336 
0.07391010383150408 
0.004221182901630784 
-0.07774964683848255 
-0.07627043404758738 
0.1361975446569835 
-0.2786023357117048 
0.1794238078558229 
0.1148579897635528 
-0.1411581550547322 
0.09647058191187191 
-0.08416907303015048 
-0.0367326005017496 
0.001037081194224489 
-0.08726278837760934 
-0.1789799306105243 
-0.02343337745958133 
-0.1056246054608557 
-0.2298365084412733 
0.1346316601544045 
-0.07869321729552477 
0.03227153042163394 
0.001749234998900921 
-0.1191369184629275 
0.02254120949757183 
0.01728410611385198 
0.08639766465158728 
0.017875293008997 
0.01593122975250721 
-0.04095063554334843 
-0.01434572671149379 
0.1730002080277441 
-0.07773392056074832 
-0.07937567458046274 
-0.04183829065801256 
0.06509047977701815 
-0.06280967959327868 
-0.0196060562824993 
0.09292090264964925 
-0.1257885060384088 
-0.09889363197241853 
-0.07763664050859222 
0.03070512613104799 
0.07517488314164815 
-0.1093102093081519 
0.07912461820529842 
-0.1399319698835769 
0.02349708097624929 
-0.0559524882342761 
-0.04759822967141401 
-0.02416351148229511 
0.04184854370251607 
-0.07883867945752282 
0.008815364632867195 
-0.09407853881816788 
-0.1356773885052177 
-0.06538924392771536 
-0.08904029266465213 
-0.03032559233942746 
-0.2648014092135204 
-0.05759266011082066 
-0.007716880839218125 
-0.2310645259982103 
0.02579893509214658 
-0.04046004033894534 
0.02159296605315029 
0.01387307851468398 
-0.02455927951079551 
0.1373757501700401 
-0.04872069387107936 
-0.130581779178594 
0.1060230868296217 
0.1196700273536645 
-0.004558096312170711 
-0.1240474598839822 
0.3098845453626933 
-0.1930781942637816 
0.05430757958394105 
-0.03365736104068045 
0.1429314754143154 
-0.007924539124701459 
0.03842140336529754 
-0.1223101985411761 
0.0843373002174736 
0.03975852562844921 
0.1037458262914854 
0.09767398315029278 
-0.0120302383463806 
0.08347767772595942 
-0.02319688508688391 
-0.1504668874477984 
0.158209262597273 
-0.09630493611103731 
0.04812421923174695 
0.01694811555544549 
-0.1455856148971912 
-0.2087182096713039 
-0.034707117522718 
-0.02969934843463089 
0.01434927352773663 
0.03089103577526672 
0.02338871317917915 
0.05532194216450218 
-0.03767741672170621 
0.03058214381739716 
0.06974297486634903 
-0.04644110648508742 
-0.03111778565628934 
0.1048176036965561 
0.02700654183469818 
0.06992648894871624 
0.1112628490884487 
-0.1270188190212939 
0.03000747957158046 
-0.03141590081207375 
-0.06920986564636405 
-0.0680925174488283 
0.1332385032182362 
-0.1424777584676179 
-0.09370524369823287 
0.05416725359484419 
0.01194644608972784 
-0.2018653339432801 
0.1474915241890714 
0.04735245028309718 
-0.1809930553134731 
0.2101479321106443 
0.1140604630784309 
0.01519487966712645 
-0.03272552482566585 
0.2382821810568831 
-0.01947849736528835 
0.01984385122177766 
-0.04636507313355968 
0.2130346383191469 
-0.04242146187550846 
-0.04161669332448796 
-0.1884053915953904 
0.03149332468602231 
0.03191842656208586 
0.002603238358521636 
-0.01623189039418505 
-0.1325471128426274 
-0.12115019184962 
0.0705836343892129 
0.01939080975936378 
0.1016978475541739 
-0.003541482240359974 
0.1571824455733649 
0.05813698967189181 
-0.03568745449742872 
0.2434961084090501 
-0.115614101496193 
0.2214023578164821 
0.2025674557060855 
0.08976055342423864 
0.02486191230575671 
-0.07280169511713404 
0.1146339127663095 
-0.1029790053592808 
0.1504595259796154 
-0.05924586411132186 
-0.03186379837385772 
-0.04670982311972197 
-0.1128221287700237 
-0.05177279024209976 
0.06620988904416202 
0.0032539966434124 
0.1638150341043666 
0.01316548822410948 
0.09178961731781894 
0.01621440152296237 
-0.08604307489759769 
0.06943855411173951 
-0.05351662928570863 
-0.1274957346198037 
-0.08831249339113918 
-0.09955287787101304 
-0.05445770561012235 
0.04627868392820547 
-0.01484295609883132 
0.09044889439209876 
0.06344608377002503 
-0.0411385081672458 
-0.2304257040552343 
0.04907761082323456 
0.02533802531663406 
0.1484544595472427 
0.07952825425805564 
-0.199884939662819 
-0.1546440511947597 
0.03626976550202247 
-0.09208471340541589 
-0.01400608488010435 
-0.007781116208491562 
0.02526079309242433 
-0.012727149293374 
0.01506699680423778 
-0.1750377784756459 
-0.128004251542308 
0.1309630539643184 
0.01532976681165494 
-0.004109854706812362 
-0.01344834380523246 
-0.04377510660932058 
0.1705489065879424 
-0.08659778188529656 
-0.1623525611142489 
0.09876173395233452 
-0.1375115040332062 
0.1785840289464196 
-0.1772994838613102 
-0.1121354601655609 
-0.1302907545796016 
-0.01082625381519515 
-0.05956736910957298 
0.06640010569573501 
-0.02775138850091827 
0.01781161780077445 
0.1728221116996938 
0.2635779470410825 
-0.1066542869338729 
0.01089242718335082 
-0.03140743908820784 
0.1324356789428753 
-0.0502366407104375 
0.05928392905692799 
0.02171766179848355 
-0.06894396231975006 
0.04522388057046619 
0.009225151509384747 
0.04055420781948306 
-0.02165189997955694 
-0.06127093297845043 
0.1382822384406732 
0.09930412072509226 
-0.01631685465058592 
-0.0308103417950328 
0.01830211203571967 
-0.1218801699701264 
0.05572668725089606 
-0.0294755091540384 
0.02966622103679322 
-0.08642093175933865 
-0.09758729502327759 
-0.03552450449805375 
-0.194177018294853 
-0.1234960825673259 
-0.149906890461639 
-0.1681545748552312 
0.03165123580004931 
-0.1687381230143263 
0.008432402931057532 
-0.06692478234095529 
0.01591377479205704 
-0.02890864172179195 
0.03938942925656735 
0.01799829327655078 
0.07910764473260212 
0.0793454105918434 
0.02250908354940558 
0.007211065436736535 
-0.09884568767679203 
-0.03769953173651473 
-0.06516554473184054 
0.0902317517288464 
-0.03347531233772756 
-0.1362987449718616 
0.1109030869348827 
0.06401681674973436 
-0.09005808561751175 
0.0361412241742505 
-0.01044219910331813 
0.2249188461980448 
-0.07480947253523686 
0.1380108393278895 
0.02917145493441323 
-0.1446250615286104 
0.03712685873079613 
0.1827002010371917 
0.1331169286105676 
0.1322852979111499 
0.008328522461410484 
-0.03017771254277045 
-0.03283959785091659 
0.1065355833370412 
0.04875884992963787 
-0.09753592786284998 
-0.022484645334383 
-0.0345746776968814 
0.0812644967215964 
-0.2045957723844061 
0.2493119314171526 
0.1603164595843962 
0.05629104008995885 
-0.09584978818516145 
0.08491795054088391 
-0.06600827353785338 
0.1475350215509001 
0.0783231354756183 
-0.08307271205627431 
0.04366027357259492 
-0.1056344364832655 
-0.144438036896871 
-0.03641166136467279 
-0.09465735594012911 
0.06339097697759494 
0.06914876665798497 
0.0782553308570722 
0.1631111436543153 
-0.03193398212135788 
0.1500726386611301 
0.02494387144625355 
-0.05705126481162925 
-0.113047568499665 
-0.03706029926589328 
0.001691863275648782 
0.2375225485781001 
0.07925072728665941 
-0.09442980400237247 
0.03676750161463037 
0.02540907211929874 
-0.0304290868150512 
0.2235813007252772 
0.3254109847584088 
-0.03439281726956491 
0.2130971185411154 
-0.005740394759357679 
0.1810276653690691 
0.1019308454671235 
-0.02685547295419066 
0.01253077828205046 
0.154564741824477 
-0.01129218849879962 
-0.1426594175017155 
-0.0247307024787982 
-0.1568192712858929 
-0.08139001361294627 
-0.006569199429923542 
-0.01568418387120685 
-0.05423068580400522 
-0.1135667926192516 
-0.0001258112164484763 
-0.1371617923297607 
-0.002420878568367521 
-0.0971918538000619 
-0.1435567976870254 
-0.003733245109152968 
0.05744980722264226 
-0.02080483248121249 
0.0376108812119532 
0.119213875062601 
-0.1925879675420997 
0.1741616393378123 
0.1757076123811765 
-0.2730845526434058 
-0.08989878808500949 
-0.02390035997559529 
0.002732179594711919 
-0.02886032905365759 
-0.05738799258719979 
0.0115251313991933 
-0.03739770393830963 
-0.05844615150102549 
0.2037932869063646 
-0.1708009216650495 
0.0279634937377468 
0.06833291089078859 
-0.15612282878065 
-0.120309962414017 
0.1017061813865063 
0.1614538554446473 
0.04437753888392026 
-0.1036476577801811 
0.01135079690142185 
-0.00546550527083168 
0.1416104750965334 
-0.1060716188493621 
0.1096298765354456 
-0.05005720806786693 
-0.160130136231351 
-0.01770498618848584 
-0.01864332532838489 
-0.01937376174269104 
0.02133446211409076 
0.1031047908021095 
0.052890494712766 
0.05383533247428644 
0.1650524018853393 
-0.1898085748710264 
0.2041696033373442 
0.07542029205316136 
-0.04978311394058184 
-0.04433493738037741 
0.1445115427281718 
0.07347903781188891 
0.1316208053551773 
0.02849257916417979 
0.05521772903344202 
-0.3465225400186514 
-0.0426003193881575 
0.04447966542070964 
-0.00451143453706191 
0.1320450465389718 
-0.02039503339110909 
-0.1315704394070024 
0.2088025328888926 
-0.1310959539533241 
0.1260777877773526 
0.005259082626626504 
0.1590762398879703 
-0.04401252389750787 
-0.01084647306584488 
0.1139770374147561 
0.1410698189177947 
0.09734086088098305 
-0.1227121296370192 
0.06691388017156652 
-0.06505097089361241 
-0.05313664213542031 
-0.007071750745415098 
-0.1842712619803175 
0.01528889364293377 
0.01644667991860571 
-0.1760260801174228 
0.05739238622861262 
0.07644938481692977 
-0.1411320273767041 
-0.1491803881255614 
0.2402264085037394 
-0.02910157748468211 
0.1190232471067562 
0.09996880038517512 
-0.1407408758192878 
-0.05348253911935173 
0.05678665341069108 
-0.1196933214556488 
-0.07307761428027219 
-0.1570113909617358 
-0.05527788225564747 
0.06366320053595369 
-0.2832861015701206 
0.01057645124289434 
-0.06414048814742067 
-0.1515379394534116 
0.05478357316820895 
0.09699755201261871 
-0.02192825067493532 
0.0007062097727829992 
0.1368975096265454 
0.1006991513355961 
-0.1026973776327854 
0.04184220691901878 
0.0354675489221925 
0.2863433318228598 
-0.04855228091239813 
-0.1766738230245602 
0.3089653853280389 
-0.02359942781160104 
-0.1814759094224194 
-0.07395836428878505 
0.1661337715192479 
-0.03783389847405885 
0.08740599571792469 
0.005060335297196634 
0.04759654994519485 
0.03436960342447248 
-0.05432634403870095 
0.25717280592365 
-0.05974399589699905 
0.05848146412791384 
-0.1033257312863633 
0.04349893419466287 
0.06818366991845705 
-0.00959292188875562 
-0.0771466204235373 
0.05239928927829589 
-0.0399102587514623 
0.11592691868518 
0.1066893441929914 
0.1033754559105317 
-0.1461919796697568 
-0.06670023677051289 
0.1066040867723372 
0.04133121402963294 
-0.03444869438714555 
-0.1217939631560417 
0.1716275363338488 
-0.06912188087412696 
-0.165601915143474 
0.1489257116353489 
-0.09937993758571088 
0.1318410643331983 
0.07037091989514521 
0.02625737200716283 
-0.007632680594073148 
-0.1875172994839884 
0.1200148179762725 
0.01473126287081373 
-0.07495780466748733 
0.1230080180061533 
0.08303616152854913 
-0.03361356431962713 
-0.06381323384435235 
-0.10819419931544 
-0.06296348576086974 
0.02618975737923875 
-0.193973861888316 
0.126384411337161 
-0.0401307587518527 
0.01976370042224488 
0.1113470231301691 
-0.185879540336106 
0.003813996203469705 
0.1432716236390326 
0.001122583989537823 
0.00353988503711654 
0.04165003846974567 
-0.02154195088294383 
0.04836049146522339 
0.003682369270680478 
0.2515285825957658 
0.07248673807733394 
0.02092232200755357 
0.09284564059762414 
-0.01801694959870542 
-0.03453736687993905 
-0.132309351835239 
0.2089711553817091 
0.1871953019380951 
-0.06882967681363757 
-0.110469849358157 
-0.2090053603601164 
0.06651435738636202 
0.01019933411115123 
-0.08355633856353811 
-0.01494231457703814 
0.01026283296225706 
-0.1668679364311752 
0.002508401463445576 
0.08943164114231605 
0.1087123101159656 
-0.09281982458916953 
0.001562238684907153 
-0.02670688738060335 
0.1551220103282263 
0.02243764218020003 
0.007912314291043981 
-0.09613799612188448 
-0.003886489606699245 
0.05909959574553183 
0.08571033497656767 
0.0109729809275309 
0.1955622750971922 
0.2004497842720793 
-0.07224095768517633 
0.08338820950349876 
-0.05602883674572181 
-0.0241291035262428 
0.003897008928487085 
-0.07130996963562959 
0.04654556274437024 
-0.08262489648004022 
-0.14172224178256 
0.09524565114181521 
-0.09158308511718803 
-0.01217785297139745 
0.1387465434443286 
-0.06172854101020016 
0.03823861502096317 
-0.0191696950029576 
0.1422683274895172 
0.08549323558125475 
0.1524741051701709 
-0.03917905954915129 
-0.1325305442288106 
0.2401422863646326 
0.06322354070372459 
0.07525199045389737 
0.01165220438979349 
0.1551109232149987 
-0.01831921324648029 
-0.04819730791371644 
-0.1080766537937074 
0.09496418064701982 
-0.02616465035573948 
-0.02341097793059019 
-0.0991140903886005 
0.09679812300748845 
0.03985220580549977 
0.04849928058525213 
0.116150022797475 
-0.1117424714683047 
-0.01560015610214056 
0.011972620552523 
0.1574459831440221 
0.07630876263988573 
-0.009011258694867099 
-0.06485728001811139 
0.02672990313806483 
0.05155733226080075 
-0.04297606347018985 
-0.05969320067438545 
0.1032033042532147 
0.08645842664595532 
0.09202017659227743 
-0.02913765694634532 
-0.02827134638473711 
0.1443542087815733 
-0.03359721213027603 
0.001903530724626386 
-0.1041792841663254 
-0.1760922464306268 
0.1500284042559303 
-0.04146334086509162 
-0.08708441355631644 
-0.007794881799526582 
-0.03712879672294925 
-0.00520403147282163 
0.01910427580310236 
0.003037595085974606 
0.1392382799094554 
-0.02177701302278436 
0.2219029840504576 
0.1558811354755662 
0.06089929959319888 
-0.231746546602899 
-0.07981929027510122 
-0.1371457631721413 
0.01001132834534335 
0.01121166546546737 
0.009255249083057858 
0.007589382778064951 
0.09834736503724101 
-0.1545271627676229 
0.06130280710071021 
0.09274555729689044 
0.07805201194462491 
0.1377028633461733 
0.007345977249951173 
0.2899544816050749 
0.04581441006279301 
-0.04742456893499173 
0.03791429019582508 
-0.04378742276641885 
0.06068110379586554 
0.1388479969762038 
0.0366842513546674 
0.07731070941699013 
0.03173387492047577 
0.006578744254642149 
0.07440902656401822 
-0.1207417059702329 
-0.009106525608877236 
-0.0895351877375784 
-0.1410716070186872 
0.01194568606996347 
0.008443288818347968 
0.01837147461403264 
-0.06804948249057209 
-0.06682805021866017 
-0.08840995190402758 
0.06824640414751534 
-0.06383063163412254 
0.07181587109688214 
0.01847771350343471 
-0.1445335953463046 
-0.0002331516686478633 
-0.1028014360749472 
-0.06526515002044889 
-0.01593727825227624 
0.005323967845571549 
-0.05534120078910291 
-0.04959559615740984 
-0.02152271852607445 
-0.002373209237897828 
0.07270404399943235 
0.1148769192211183 
0.03374366033497422 
0.08363190587840785 
-0.1805504272767025 
0.08122498579154425 
0.04148282580237622 
0.0474576397862361 
-0.09287540071556739 
-0.009928765708546745 
-0.02047832148469632 
-0.08492915792968753 
-0.03645414745571092 
-0.1279055563967886 
0.02142440945844306 
0.06568067616219037 
-0.1602986222517222 
0.02047608568689432 
-0.0484138899427006 
0.09655687583825107 
0.1071946493415131 
-0.08956752788638211 
-0.08180988094166153 
0.02433000145322743 
0.01170948948384306 
-0.08092374303884949 
-0.04338602193726343 
0.1416701214167991 
-0.1302662226738548 
0.06809027356866858 
0.01431626709407205 
-0.1014661592894847 
0.01701868054876409 
-0.0214604476439356 
0.09505101393692823 
-0.0873427212922674 
0.03863099368730712 
0.1655042967438493 
-0.2115834297806332 
0.06252320638418188 
-0.1962149445731758 
0.0712581144023136 
0.06905891250316169 
-0.1709371946659319 
0.09713431206638073 
-0.00240295258831695 
-0.018323867417065 
-0.008404949347237116 
-0.07664836426386039 
-0.1406569097817226 
-0.05594267994892053 
0.0306965877549214 
0.007336450603452527 
0.004163041492433266 
-0.05194124474112535 
0.03817164480006155 
0.05528864334587355 
-0.1743973993897169 
-0.2019501136559885 
0.1851694535366172 
-0.07039111413098183 
0.04109099577782366 
-0.06333788598784931 
0.0144616738921562 
-0.01501169153106304 
0.04397973587375363 
-0.01746742414426102 
-0.003763864680673313 
-0.0836296387410505 
0.01396083251497802 
-0.05729193399707143 
-0.02791677275010669 
-0.01020996755639447 
-0.01264429518005826 
0.09599678018608451 
0.119202848613034 
-0.07679121205317208 
-0.0172139452647212 
0.1180922208847038 
0.09057863492840801 
0.0770653403158759 
0.06898694639861074 
0.2504873129775445 
0.006352240509686812 
-0.002475870614135557 
0.06879790271179402 
0.07061069782434232 
0.2006308536388866 
-0.05273376049109745 
-0.2523997562949871 
-0.02078792766477093 
0.0126992242254604 
0.1352789123836443 
0.07499518371992762 
0.0475777131415025 
-0.1575953525270955 
0.05129708645674105 
0.06280054549615356 
-0.1611265345756392 
0.12570181688598 
0.03681818231695523 
0.08362753684829904 
0.1748803378112957 
0.1025314982042931 
0.02682162353711457 
-0.1639036521379979 
-0.05266626834893103 
-0.09118189527180713 
-0.05186240523438258 
0.08630708003555951 
0.03754469295351312 
0.03676501028528672 
-0.06457682358495427 
0.03165748738048431 
-0.2975768739881576 
0.1043341916010133 
0.06600692954391121 
-0.006312039298227072 
-0.0196519349652025 
0.225102451790504 
0.1485315455586037 
0.1022640160705876 
-0.05266761041267926 
0.1458274977070687 
-0.06230059702305597 
0.0649822875527313 
-0.2680255823893764 
0.2126365802055831 
-0.1198251862856033 
0.09735157014488158 
0.121687995399124 
-0.1639047105567352 
0.05472515029134335 
0.1000224970401208 
0.06590961961291855 
-0.02957857664079298 
-0.02641772533095147 
-0.03474120075889431 
-0.05797056526931404 
-0.08952431392202401 
0.0585834771629511 
0.005464584146052904 
0.1238760831504421 
-0.06955586888683077 
-0.02017677258699391 
0.1231630835169714 
0.07781681063961324 
0.1945936742921226 
0.09125176273446563 
0.03827462170830983 
0.05945657977858354 
0.2631230582745321 
0.1817242433996 
-0.03098031615061697 
-0.0178199515102569 
0.2450449756598432 
-0.2542737796282072 
-0.06433364678607977 
0.299938235455076 
-0.02675439862382183 
0.04292823139679222 
-0.01123697007868284 
0.02629465923079928 
0.2287520993398525 
0.06551483547041716 
0.1669885049306669 
-0.1310990688264772 
-0.02911189379365272 
-0.07256998003830151 
-0.06915573524893381 
0.08064441638033715 
0.033709967681721 
-0.07033300854113611 
0.1104312586502818 
0.006927161560608713 
0.1004196200606212 
0.04465717963088498 
0.1483885512174017 
0.1127967198490158 
0.02666354638100473 
0.2469814157626735 
0.003136218807397669 
0.09138074735909089 
-0.2116659647688439 
-0.0834278827158523 
0.01512843065038932 
-0.1127459443931086 
-0.1125326135879557 
0.04229924892553525 
-0.05778796472027457 
-0.04456983742800016 
-0.0943715851991109 
0.01801273196763286 
-0.07998541355469133 
0.1702867058756798 
-0.05156141503318634 
0.1631443447868361 
0.2421159228234341 
-0.05719206868042942 
-0.0345381130274824 
-0.175523697679402 
-0.1507523761454313 
0.03639539801161163 
-0.0293807644055631 
0.01164820478284955 
0.06271176950157942 
-0.01732688989856461 
0.08464315147238113 
0.2920677825359547 
0.193149414799796 
0.1972686726925142 
-0.01965610158276566 
-0.01342238282263792 
-0.155668491815444 
-0.1639836208548909 
-0.01327105505510039 
0.09970299991085999 
0.008939313093821486 
-0.1235368361435296 
0.05707131816775769 
-0.0564685226451946 
0.007226422349802206 
-0.02091268720989776 
0.0844682547310926 
0.1110145590081424 
-0.01672027953405905 
0.1236331036031603 
-0.05449702409566672 
0.1355751227786744 
-0.02878350609787677 
0.04353811380808089 
0.000176673745358734 
-0.2375021915278415 
-0.1806868681362293 
-0.01184242809555248 
-0.04491428847553643 
-0.01456695591673245 
0.05717128936224168 
0.01769059716966663 
-0.0415098395066678 
0.01500127413941885 
-0.02251533653307878 
0.2081537797699399 
-0.06752528261871153 
0.03059795836876701 
0.05581928807135682 
-0.09029326419687905 
0.1746628122100121 
-0.05183166041371381 
-0.01328756289699401 
-0.1726765779847476 
0.01746083900179116 
0.0657332906315503 
0.06496825358014162 
0.01471461887531707 
0.04233622960237159 
0.1215219356649729 
0.1032109949756111 
0.09298418159474098 
0.1021583430667025 
-0.1364421489483796 
0.08490387633870486 
0.03754510442407786 
0.05554271135785302 
-0.07517281038995631 
-0.1469088413656184 
0.05778452310475008 
-0.02134450614647544 
0.001430890708686749 
0.03511310058182525 
0.09614795869294611 
-0.09579035539038164 
-0.09464281285681896 
0.1228789455690814 
-0.1186209398799951 
0.1714991906158863 
0.09329999530233003 
0.1823492793830666 
-0.0436545706274183 
-0.20947499881602 
0.1428743721490309 
-0.01098609286508733 
0.002323547687607752 
-0.1116883985364662 
0.006073365602648258 
-0.0180582270658766 
0.006786425676981885 
0.06236905105685239 
-0.03918489864024122 
-0.1234360300162104 
-0.03087115982499374 
-0.06164665228890686 
0.03936795947565984 
0.009382399024474361 
-0.1667309911900143 
0.08966702059324989 
-0.1335254195346391 
-0.07465033935083701 
-0.008440335201083584 
-0.1868350519604873 
-0.054546752135674 
-0.1364933912253778 
-0.0158455814837752 
0.08156069208827038 
-0.03844614097535842 
0.05831048047126577 
0.2269699338130882 
0.05590108953301489 
-0.0770995907148261 
-0.09010378827167084 
-0.01642134436673115 
-0.09228299476827037 
0.07637923077626241 
-0.05474614887292212 
-0.007302025939773922 
-0.4428151223590831 
0.04628771981593975 
-0.008714640712345203 
-0.05932049040600501 
-0.03798534202093536 
0.003539121462727313 
-0.2181208017988219 
0.08637093309893855 
0.009698667062079086 
-0.1151348909464872 
-0.0629361504756185 
-0.1049629018324316 
0.05624412770843328 
-0.03517434765483704 
-0.01001809245435133 
0.03586736185566597 
-0.06511685453847581 
0.1882553389697296 
0.05730022089238178 
-0.2192891806251359 
-0.1286653667666403 
-0.03396114551572196 
0.1004057890108826 
-0.2359579832185889 
-0.1427046119247613 
0.00993032532005729 
0.06958679329843385 
0.1291360961522962 
0.2037739801188613 
0.2349111445543044 
0.1296363324371361 
0.1799420889555501 
0.04267961884679377 
-0.003781157492311922 
-0.06611908337113866 
-0.02259176090215653 
0.03710561277147194 
-0.06522172475128045 
-0.1415362497004188 
-0.2759562721869706 
-0.06330279596910822 
0.09758908236115837 
-0.09941038831502882 
-0.1317413126135724 
0.05518440912352508 
0.00293099245360373 
0.2280416714590171 
-0.04004507960744084 
-0.0208795136968792 
0.06954921585971105 
0.03937754350451983 
-0.1049780436497223 
0.06660949753923208 
0.05778248429163287 
-0.04141335585226538 
-0.008975093698062722 
0.09342704160628877 
0.02913685534986777 
0.02635126773926843 
4.698125659733949e-05 
0.1869538647544999 
0.02900407338203243 
-0.07633790566200721 
0.07853591233853818 
0.04021556602139646 
-0.01948749198946616 
-0.08421466543669368 
-0.1983227444892357 
0.06508328696069729 
0.2198047584218375 
-0.1482765699355426 
0.155491044516449 
0.01577452720426923 
0.05356060112074756 
-0.07684319384824662 
-0.03233351041384684 
0.188681559383076 
-0.1051529043158886 
0.1954812608730137 
-0.05275903263657826 
-0.06777543665247265 
-0.1195821379436285 
0.09140167919906264 
0.03417296661395567 
0.04497001909181328 
-0.01531800980944495 
0.05054936216627993 
0.02018585854975572 
0.1113519355284997 
0.05690724951606039 
-0.008390936075610065 
0.05802815397137415 
-0.04881855084757195 
-0.01300321444022302 
0.05155149890364579 
0.1300377983264215 
0.1606577068415441 
-0.09688792375005824 
-0.03051473117009823 
0.1967044448559535 
-0.1224872511016226 
-0.1571733155525685 
-0.1253054876426714 
-0.1388198253850743 
0.01610877959789152 
0.08631886057551634 
-0.02287538362095477 
0.1194722706802632 
-0.1269591434983341 
-0.1088921564594276 
0.04654156520303882 
-0.05938663278195177 
-0.1049654908868955 
-0.03900003292486267 
-0.03967179884174048 
-0.2124596924820952 
-0.01805359393490314 
0.01138710555490285 
-0.159299941414507 
0.119042942201621 
-0.0155412055991155 
0.07471842481764106 
-0.1681938220734511 
0.02612841788542154 
0.08622525808927266 
-0.1904044957291868 
-0.2102240525627918 
-0.09611361333782628 
-0.0159620952963108 
0.03937681026746121 
0.0379189181161908 
0.07955255712791554 
0.126905748863355 
-0.1355909299796406 
-0.0971418754810667 
-0.08269404388664051 
0.2003848145693723 
0.01533953742877634 
0.1228654845520536 
-0.01343225509951223 
0.1520508931130571 
-0.04621007476215892 
-0.03335681120564279 
0.2014824785461858 
0.1707963657837896 
0.08100937822309265 
-0.08339423694146944 
-0.02982356147321574 
0.07259940771618519 
-0.1008097164450281 
-0.02114908437809787 
-0.01305055312630917 
0.02223880030274476 
0.1132950727795365 
-0.05870862182440378 
-0.01618760213295831 
0.01476683254836848 
0.009526656278864433 
-0.0110908337501211 
0.0232692010882117 
0.07832502906482751 
-0.1949966156187924 
0.02655928051054268 
0.08538528596676193 
0.3182474091085702 
-0.1342647204990563 
-0.1225391324768439 
0.1331670221554987 
0.01605052257262311 
-0.02081148710994543 
-0.2663981333455113 
0.187898832287834 
0.1476601491565955 
0.1194736928681769 
0.04744464764219244 
0.01680452563503774 
0.07963825875248069 
-0.03663739488953659 
0.08512578136602564 
0.1158690527035742 
0.05058714119665899 
-0.07455001303247377 
0.1039618374091811 
0.1259262919426394 
-0.09661475183421964 
-0.07310188421740514 
0.1721096229682207 
-0.04672027174437249 
0.08988245706850718 
0.01097938032759191 
0.02806260504954928 
0.2402707060234218 
0.01167220296194909 
-0.1038840610032727 
-0.06926038649197144 
-0.1572553191556759 
-0.1178063203600444 
-0.06481947847193803 
-0.05736927539333551 
0.1459605295085599 
0.05794112466044064 
-0.01521104154011872 
-0.028090815792331 
0.03463741070209065 
0.1789091689866112 
0.07420716626930259 
-0.1784189265734072 
-0.06797240180626998 
-0.07904523377383123 
-0.07563836598158707 
0.2095436718555641 
0.08157179279801875 
0.1899667085082349 
-0.03139262107272299 
0.07203933110899383 
0.002095982221969814 
0.04389923396553962 
-0.1536710112063379 
-0.01903770516750382 
0.002120729874263393 
-0.03384567933050428 
0.09274264156097387 
0.04889141625183478 
-0.2825215811780302 
0.002430753417967896 
0.01067031304239437 
-0.0188788214520537 
0.1473272229515302 
0.06773734081295064 
-0.07598803369680153 
-0.02573351486047277 
0.1405828042409394 
-0.07231586989507642 
-0.07215690360819917 
-0.01256821528033984 
-0.02627692564837241 
-0.07111833160607262 
-0.1058388118280492 
0.06226918343721147 
-0.1227462743319246 
0.01513578843702835 
-0.05217428559919123 
-0.218722874802704 
0.1691849177682524 
-0.05069577448356666 
-0.07996657223372025 
-0.01003738431319358 
0.02130067493865066 
-0.01229095629543297 
-0.003093859100066754 
-0.09668908631477886 
-0.1166323832118743 
-0.04172980788436768 
0.06745626674232438 
-0.2525364027119288 
0.07217455284592308 
0.03815018636426171 
0.066095007169593 
0.097038837149686 
0.2339357666852734 
-0.01794322387910944 
0.06133912902933118 
-0.1136458869954849 
-0.01178044152150029 
0.1043098094732004 
0.134330286983809 
-0.03204757332951418 
-0.0212906478662261 
0.02959217876181775 
0.003871023484745106 
0.02849599231005467 
-0.002934783522569478 
-0.04219152671237713 
0.004700420846415578 
0.1616080673501745 
-0.007005388258219278 
0.05674606056908417 
-0.1272500723255314 
0.05581984677372036 
-0.1752564102293928 
0.09300892582201295 
-0.03667470339959279 
-0.06478291122726434 
0.03422482042194545 
0.1671431871456119 
-0.1649656045921545 
-0.06738478908342171 
0.2031951672611849 
0.1253019016417722 
0.1123854584444009 
0.0106105267480023 
0.1255430225829828 
0.03284316938683864 
0.195050144346073 
-0.03163278862226839 
0.179544320696848 
-0.01432569221872747 
-0.06711760682506161 
-0.01475188163420989 
0.0937402884309507 
-0.1869125460960682 
0.2163652983838299 
0.08699040053030112 
-0.1013187644410316 
0.1891742099739671 
-0.05624494587382074 
0.05449500979979562 
-0.02610660059084129 
0.08865172900484738 
-0.09735392041998367 
-0.06052043507686534 
-0.140230310700673 
0.1014105962178744 
0.09903920349793641 
-0.04616693752947727 
0.0007228547179929717 
-0.01356058033101335 
-0.1029088300338118 
-0.0108768965491416 
-0.06488815552213259 
-0.0887790591605961 
-0.1866725273530931 
0.1267680613512034 
-0.01433972494331677 
0.1070754153744702 
0.0377511885728636 
-0.07901384301631056 
0.02294513587211663 
0.01912661992534955 
-0.008940469820642664 
0.03492857539043918 
-0.05974647096648495 
-0.06241483373867469 
-0.05215224147252056 
0.1098670459226829 
-0.2450016401164484 
0.02714454652597863 
0.1029685066412556 
-0.02680354247446354 
0.1297710611798959 
-0.1185702976346405 
-0.02601791449943395 
0.07178644243983853 
-0.4159330735450889 
0.1357010222892882 
0.02518609099052298 
-0.0162693901713534 
-0.1071137403034832 
-0.04412412320702638 
-0.005406609293992035 
0.07141498275477837 
-0.07203470968884383 
-0.1367097573702467 
-0.06743237225007945 
-0.1240627710483227 
-0.07867088886532224 
0.3402636518781777 
0.03162766530279385 
0.04036880705613775 
0.1041900500423864 
0.03092586418389235 
-0.05912575603216923 
0.2169287219776632 
0.04750684938826095 
-0.0818293547445665 
-0.03641319228003849 
-0.07107971696604481 
-0.1355580878861093 
0.3042755410844048 
-0.008209425557808701 
0.08689069757514258 
0.007592361728197832 
-0.01143435988414084 
0.0842128669415146 
-0.0340890848085763 
-0.01446554772760499 
